<?xml version="1.0"?>
<opencv_storage>
<opencv_ml_svm>
  <format>3</format>
  <svmType>C_SVC</svmType>
  <kernel>
    <type>LINEAR</type></kernel>
  <C>1.0000000000000000e-02</C>
  <term_criteria><iterations>3000</iterations></term_criteria>
  <var_count>216</var_count>
  <class_count>9</class_count>
  <class_labels type_id="opencv-matrix">
    <rows>9</rows>
    <cols>1</cols>
    <dt>i</dt>
    <data>
      1 2 3 4 5 6 7 8 9</data></class_labels>
  <sv_total>36</sv_total>
  <support_vectors>
    <_>
      8.43734760e-03 1.68746952e-02 1.68746952e-02 1.68746952e-02
      1.68746952e-02 1.63447075e-02 -3.65461968e-02 -2.73935851e-02
      4.25881855e-02 6.05929047e-02 3.74251232e-02 1.68746952e-02 0.
      -5.70987444e-03 -5.70987444e-03 0. 1.34754982e-02 -8.21218565e-02
      -1.34830907e-01 -9.80239436e-02 1.79491490e-02 1.06446497e-01
      1.35970786e-01 1.99999996e-02 0. -5.70987444e-03 1.99999996e-02
      1.27952797e-02 -9.63011980e-02 -8.45545530e-02 -8.16849396e-02
      3.14141028e-02 3.79067771e-02 4.05244753e-02 8.84039924e-02
      8.65972415e-02 0. 1.43518846e-03 1.99999996e-02 -6.97296858e-02
      -1.02667741e-01 -1.28239602e-01 1.74441952e-02 7.67456815e-02
      5.35834208e-02 5.43980077e-02 2.74627432e-02 3.10747903e-02 0.
      2.42901258e-02 -2.28274316e-02 -1.28540754e-01 -1.86630845e-01
      -1.00570410e-01 5.11838384e-02 -5.80764227e-02 1.40618645e-02
      6.47163466e-02 3.21244113e-02 -2.63943453e-03 0. 9.99999978e-03
      -5.65849431e-02 -1.49917334e-01 -1.43164948e-01 -6.61441460e-02
      4.94681895e-02 -3.11374590e-02 -9.33774710e-02 2.49397960e-02
      -2.70938948e-02 -2.17888393e-02 0. 0. -6.08090274e-02
      -1.15769869e-02 5.20147569e-02 3.36554274e-02 7.11518526e-02
      4.32523489e-02 2.65440214e-02 8.03672895e-03 -7.50625432e-02
      -5.45531884e-02 0. -5.62953937e-04 -8.79393294e-02 1.86069263e-03
      -6.87715039e-02 -5.91092147e-02 -4.52498421e-02 2.36172397e-02
      -1.74492318e-02 1.60263199e-02 -7.67712966e-02 1.82654290e-03 0.
      4.60821786e-04 -7.69672617e-02 -6.78982139e-02 1.06349457e-02
      -4.88340259e-02 -3.12232543e-02 -1.05827292e-02 -2.04922892e-02
      -1.63916126e-01 -1.16988003e-01 0. -1.74487233e-02 -4.57467511e-02
      -3.39005925e-02 1.10268399e-01 -2.10232940e-02 -5.46049587e-02
      5.43345138e-02 -9.17557701e-02 -1.79680642e-02 -9.92235690e-02
      -2.19050813e-02 0. -9.99999978e-03 2.67546461e-03 -7.55344033e-02
      -8.88983384e-02 -3.16749923e-02 3.28549859e-03 -2.51229517e-02
      -8.30055177e-02 3.18176188e-02 -1.10098617e-02 -1.48752099e-02 0.
      -1.44535564e-02 -2.22400911e-02 -9.61375423e-03 -4.68158051e-02
      -5.45645542e-02 6.70094928e-03 3.88928282e-04 -2.52264203e-03
      2.13588439e-02 -1.92673430e-02 -3.11101903e-03 0. -7.57886097e-03
      -9.62379277e-02 -2.03354821e-01 -2.55857408e-02 2.05507260e-02
      9.15484969e-03 3.92812100e-04 9.73013137e-03 1.29121616e-02
      -2.73315944e-02 -2.18709596e-02 6.03329903e-03 -2.26538107e-02
      -1.10928141e-01 6.15886459e-03 5.92563413e-02 -2.68697701e-02
      6.02691174e-02 1.94232892e-02 -9.39726979e-02 2.82339957e-02
      4.43572253e-02 2.76851598e-02 0. -4.83082458e-02 -3.97483669e-02
      3.98523510e-02 5.57418028e-03 2.98626497e-02 -1.40972910e-02
      2.01519602e-03 -3.62211955e-03 -1.03842737e-02 5.35286323e-04
      3.87380342e-03 0. 4.57273237e-03 -2.05276255e-02 -3.94820459e-02
      -4.43379814e-03 7.04429746e-02 2.58864742e-03 -3.37775573e-02
      -1.47344628e-02 1.89518724e-02 4.44389693e-03 5.21366484e-02
      -2.89090443e-03 1.67138930e-02 3.79207991e-02 6.71755075e-02
      2.72345003e-02 -6.17450736e-02 -1.31686702e-01 -1.22212961e-01
      -6.77972510e-02 -6.24630190e-02 4.43227850e-02 8.43086094e-03
      -5.78180887e-03 2.19228901e-02 1.24267824e-01 8.44586268e-02
      -1.00930212e-02 -1.49642406e-02 -1.62930321e-02 -9.46075842e-03
      -3.40678124e-03 -1.56265218e-03 0. 0. -2.89090443e-03</_>
    <_>
      4.02816571e-03 8.05633143e-03 8.05633143e-03 8.05633143e-03
      -1.21972256e-03 -2.46356567e-03 -1.94366847e-03 2.25638859e-02
      3.89285013e-02 6.83105960e-02 1.80620160e-02 8.05633143e-03 0. 0.
      -9.27605387e-03 -5.95786572e-02 -4.97929342e-02 -8.71543810e-02
      -1.00254595e-01 -4.32418399e-02 4.58318256e-02 1.31364852e-01
      7.06477463e-02 1.33510316e-02 0. 0. -5.47247268e-02
      -7.63902217e-02 -9.51312035e-02 -1.06207885e-01 -6.75533265e-02
      4.81375717e-02 1.99116319e-02 2.35617254e-02 3.51082385e-02
      4.83864024e-02 0. -1.05238482e-02 -3.11963018e-02 -8.10455829e-02
      -5.43314926e-02 -8.33794102e-02 -7.20438967e-03 2.08780747e-02
      3.24511044e-02 5.60597479e-02 5.98667488e-02 3.75026613e-02 0.
      -2.36721151e-03 -4.35058810e-02 -5.26809767e-02 -9.65003073e-02
      -3.97038423e-02 5.06379595e-03 -2.01620404e-02 2.93803066e-02
      8.25562850e-02 1.74050278e-03 -1.14872521e-02 0. -2.65317354e-02
      -8.58740285e-02 -6.18856587e-02 -8.97478312e-02 -4.43875752e-02
      1.36740785e-02 6.93555397e-04 2.19128504e-02 -3.34430113e-02
      8.93296674e-03 3.56883965e-02 0. -2.73535755e-02 -1.28333911e-01
      -3.18489559e-02 -3.55010368e-02 -4.19662409e-02 2.18695737e-02
      -2.14088778e-03 1.99665665e-03 -1.40469419e-02 2.70568412e-02
      -3.06445844e-02 0. -6.64066747e-02 -6.61791340e-02 -2.56541595e-02
      -7.63668641e-02 -5.21129519e-02 3.12465839e-02 2.88484469e-02
      -4.89394106e-02 -4.75191064e-02 1.26564931e-02 -1.53055768e-02
      -4.56253951e-03 -5.49858341e-05 -9.22115520e-02 -4.38482910e-02
      -1.44882663e-03 4.60284464e-02 -1.03964447e-03 1.90096314e-03
      4.91671935e-02 -9.94661599e-02 -1.21116303e-01 -3.82860377e-02 0.
      0. -1.01173734e-02 2.37959833e-03 2.21626251e-05 3.95323001e-02
      1.58999059e-02 -4.34858128e-02 2.88659818e-02 -3.23340558e-02
      -1.01975687e-01 -9.14301816e-03 -1.62349660e-02 6.56451704e-03
      -5.07050529e-02 -5.70819080e-02 5.90359792e-02 3.57317664e-02
      5.81875630e-02 -9.78505518e-03 1.39768478e-02 -5.04846722e-02
      -1.05482310e-01 0. -4.16308902e-02 -8.93941298e-02 -3.74701507e-02
      4.49100696e-02 4.98719178e-02 5.35710230e-02 4.70904075e-02
      -6.90027773e-02 -1.03225680e-02 -4.34259474e-02 -8.11628476e-02 0.
      -2.73217615e-02 -6.65370524e-02 -3.77741158e-02 5.10404035e-02
      9.69869122e-02 -3.54645886e-02 -5.26276566e-02 -6.95382506e-02
      8.10293332e-02 -3.30674574e-02 -1.22899553e-02 0. -4.88447063e-02
      -2.87377909e-02 3.37212899e-04 6.73473254e-02 -1.05178355e-04
      -9.02585161e-04 -1.40235033e-02 -2.06245538e-02 3.55266072e-02
      4.47327159e-02 8.78348649e-02 0. -7.14200689e-03 5.33410609e-02
      3.01990695e-02 1.30878412e-03 -4.01356667e-02 -1.49706956e-02
      -1.76964216e-02 -2.73416042e-02 1.63217857e-02 -8.30658246e-03
      8.50693658e-02 0. 7.10210204e-02 -9.77607351e-03 -1.44426450e-02
      -1.65688749e-02 5.93122989e-02 2.56415550e-03 1.21001936e-02
      3.70885879e-02 4.33324352e-02 1.35838419e-01 5.02590090e-02 0.
      9.14704278e-02 9.92600843e-02 7.19422847e-02 2.69742738e-02
      -4.97083738e-02 -9.61248875e-02 -4.61578704e-02 -6.38479739e-02
      3.48163173e-02 7.78855234e-02 2.55762562e-02 0. 1.12263151e-02
      9.37704965e-02 3.63597013e-02 1.26949716e-02 -2.10740641e-02
      -1.64146833e-02 0. -9.99999978e-03 -1.99999996e-02 0. 0. 0.</_>
    <_>
      -1.65072584e-03 -3.79247940e-04 -3.79247940e-04 -3.79247940e-04
      -3.79247940e-04 -5.15519828e-03 -2.62302440e-03 7.63032353e-03
      5.24083246e-03 4.42375615e-02 7.76147004e-03 -3.79247940e-04
      -2.92220386e-03 0. 0. 0. -1.03257550e-02 -6.34253398e-02
      -6.70814216e-02 -9.54493415e-03 4.66970578e-02 1.13874890e-01
      7.92190656e-02 7.23204343e-03 -2.92220386e-03 0. -7.76930992e-03
      -7.52201211e-03 -2.99191549e-02 -3.89470011e-02 -4.86027449e-02
      1.64206885e-02 1.13485521e-03 -3.17285536e-03 6.77378103e-02
      6.10891357e-02 -2.29222029e-02 -9.99999978e-03 7.45812804e-03
      -7.00260885e-03 -4.44679596e-02 4.30618617e-04 4.73638112e-03
      -3.86970991e-04 1.03268819e-02 5.44693728e-04 -5.32630319e-03
      3.85291167e-02 -2.29222029e-02 -2.55580470e-02 -9.64675006e-03
      -7.76495188e-02 -7.36348182e-02 1.68779213e-02 3.85444947e-02
      -4.10600100e-03 1.12688364e-02 -1.47045800e-03 -1.21084191e-02
      -1.76816657e-02 -2.20229775e-02 -2.82015465e-02 -5.68147227e-02
      -1.07266590e-01 -1.83178168e-02 -1.43628092e-02 6.99453102e-03
      2.32121628e-03 -1.71506777e-02 -6.67734910e-03 1.61490142e-02
      -1.24820238e-02 -2.92220386e-03 -4.05618735e-02 -8.90229940e-02
      -3.40467729e-02 1.53721347e-02 -2.17709858e-02 -3.16318609e-02
      -1.55333662e-02 4.95922081e-02 5.15713133e-02 1.30139412e-02
      -5.68145839e-03 -2.92220386e-03 -1.87884830e-02 -7.87451044e-02
      -1.44364249e-05 -6.00236794e-03 -1.17789060e-02 1.85157731e-02
      4.28517498e-02 8.00174009e-03 -1.86072309e-02 -1.59700010e-02
      2.47826036e-02 -4.38330555e-03 -5.97523414e-02 -6.62459582e-02
      -5.90601787e-02 -6.92930669e-02 -1.15116322e-02 -2.90057100e-02
      2.51636188e-02 1.01973759e-02 -5.83716929e-02 -4.70628403e-02
      -8.53579142e-04 -2.92220386e-03 -1.02184922e-01 -7.79718673e-03
      4.47931699e-03 -6.10900372e-02 -2.53408998e-02 7.58444965e-02
      -4.27454570e-03 -3.18430513e-02 -9.12288502e-02 -1.27737522e-01
      -3.23414952e-02 -1.95596199e-02 -1.00998357e-01 1.64291915e-02
      -2.92755272e-02 1.75914336e-02 1.62857752e-02 1.85955148e-02
      -1.53127648e-02 2.35338742e-03 -7.41890371e-02 -8.19998682e-02
      -4.46829870e-02 -2.69048829e-02 -1.14566617e-01 -1.40512232e-02
      -2.83017326e-02 -1.82683337e-02 1.76529307e-02 -1.58515181e-02
      -2.56837830e-02 -1.91584714e-02 -8.24349374e-02 -6.85187951e-02
      -1.55822150e-02 -5.73769733e-02 -7.84774795e-02 -7.41972998e-02
      7.41096586e-03 5.88800013e-02 -4.30137776e-02 -3.05331256e-02
      4.25522961e-03 5.13345823e-02 9.28146243e-02 7.48002529e-03 0.
      -1.95186976e-02 -1.97166274e-03 -2.21319534e-02 5.26230298e-02
      4.23322357e-02 3.98452394e-02 3.30451988e-02 -3.29953730e-02
      3.48884538e-02 6.65950105e-02 7.23600835e-02 0. 3.87329459e-02
      8.65333751e-02 9.66625195e-03 2.42410544e-02 -5.70418425e-02
      5.26980348e-02 1.73482392e-02 1.15430849e-02 -4.13000435e-02
      9.53114778e-03 6.53728470e-02 0. 8.43723565e-02 3.16546485e-02
      9.09095537e-03 1.81464069e-02 6.96703494e-02 4.69279476e-02
      3.09596490e-02 1.75153837e-02 3.55991982e-02 8.98346156e-02
      5.47072440e-02 0. 6.22081645e-02 8.69305432e-02 8.58605579e-02
      6.78200349e-02 -1.88666359e-02 -3.15315388e-02 -3.32907699e-02
      -4.87021804e-02 -2.30324455e-02 2.78219022e-02 0. 0.
      2.15858985e-02 7.14175701e-02 1.93177126e-02 -2.79153567e-02
      -2.80566849e-02 -5.18471934e-02 -3.36779244e-02 -5.72682433e-02
      -3.21152732e-02 0. 0. 0.</_>
    <_>
      -3.43363220e-03 -1.88713782e-02 -8.87137838e-03 1.12862175e-03
      1.12862175e-03 1.12862175e-03 1.12862175e-03 1.90279931e-02
      3.28687057e-02 8.70032758e-02 1.29362093e-02 1.12862175e-03
      -9.99999978e-03 0. 0. -2.24340651e-02 -8.72927755e-02
      -8.03775191e-02 -1.00095019e-01 -7.82476962e-02 1.39938630e-02
      3.17822285e-02 5.24113514e-03 -1.35468952e-02 0. 0. 3.53882555e-03
      -5.35251833e-02 -1.12820849e-01 -1.25397250e-01 -3.78876105e-02
      4.63695601e-02 3.41413915e-02 2.70041805e-02 6.45079417e-04
      9.28093307e-03 0. 1.76941277e-03 4.12564911e-03 -8.06361586e-02
      -7.28241056e-02 -6.76194951e-02 3.21772210e-02 2.33387165e-02
      -3.57645862e-02 3.22051831e-02 -2.96880323e-02 -4.46675718e-02 0.
      9.59690660e-03 6.05808105e-03 -6.32376447e-02 -8.17870423e-02
      -9.06522386e-03 2.00332627e-02 -2.21960694e-02 6.79475442e-03
      3.31788361e-02 -2.35085618e-02 -4.53206077e-02 0. 1.76941277e-03
      6.05808105e-03 -1.42013639e-01 -9.93968546e-02 -2.10620072e-02
      -4.68768291e-02 -1.57287847e-02 -3.91510241e-02 5.22891805e-02
      -8.83823633e-03 1.64999049e-02 0. 0. -3.15528293e-03
      -7.91899860e-02 -1.22117456e-02 6.33360371e-02 -4.01527435e-02
      4.65855142e-03 8.16384777e-02 5.38010821e-02 -5.28361462e-03
      2.45754421e-02 0. 0. 1.30215073e-02 -6.50218651e-02 1.40053201e-02
      5.66575676e-03 -3.25030833e-02 -4.09292839e-02 5.87024540e-03
      4.93713319e-02 -1.57977752e-02 -2.53517572e-02 0. 8.17530416e-03
      -1.10419653e-02 1.62210986e-02 4.07306626e-02 -7.37384707e-02
      8.24055895e-02 1.52276773e-02 3.21997143e-02 -8.97604914e-04
      -6.32728934e-02 0. -5.45776496e-03 -7.72888260e-03 1.30744902e-02
      7.70337656e-02 -2.72482671e-02 1.76122282e-02 6.74297810e-02
      3.64865810e-02 1.08030625e-03 2.00903155e-02 0. -6.13281457e-03
      -1.77288819e-02 -1.06442999e-02 2.53866501e-02 -7.21014887e-02
      6.91490471e-02 4.63228337e-02 -6.08128086e-02 4.45297398e-02
      4.83356453e-02 3.28882299e-02 9.99999978e-03 0. -1.99999996e-02
      -7.12958351e-03 3.56379002e-02 4.32198904e-02 3.18467729e-02
      2.84406785e-02 -4.97643910e-02 1.55786276e-02 1.67911965e-02
      3.28457020e-02 0. 0. -3.33607607e-02 -7.14848191e-02
      -3.96199003e-02 3.84666994e-02 9.11216959e-02 -5.34516536e-02
      -6.41662478e-02 -2.45090127e-02 6.69611767e-02 1.60910040e-01
      2.22510286e-02 0. -7.46699497e-02 2.03866512e-02 7.14392811e-02
      8.42280164e-02 -1.26323411e-02 -2.44839992e-02 -4.40010950e-02
      -9.02994201e-02 1.08339302e-01 1.27614692e-01 1.31257191e-01 0.
      -8.62072930e-02 4.87380254e-04 1.60304196e-02 2.31985003e-03
      -2.06247848e-02 5.09298686e-03 -4.52287542e-03 -5.85036632e-03
      1.05823867e-01 7.83393309e-02 7.65389651e-02 0. 2.57551838e-02
      -4.87447064e-03 2.90081883e-03 3.02206958e-03 5.68338446e-02
      -1.02493735e-02 4.18769084e-02 1.27244711e-01 1.83346882e-01
      1.51048049e-01 6.17526025e-02 0. 1.23022020e-01 8.27150047e-02
      5.51358461e-02 -7.70164130e-04 -8.60898718e-02 -1.39860764e-01
      5.77925779e-02 5.24362586e-02 3.12068183e-02 7.42134601e-02
      2.73458324e-02 0. 3.60206328e-02 1.09400027e-01 -1.68206003e-02
      -1.47799170e-02 -2.79905125e-02 3.69587820e-03 -6.44567423e-03 0.
      0. 9.06879373e-04 0. 0.</_>
    <_>
      -5.84742473e-03 3.48880398e-03 3.48880398e-03 3.48880398e-03
      3.48880398e-03 3.48880398e-03 3.48880398e-03 -6.14552479e-03
      4.92627844e-02 5.43723889e-02 1.18315825e-02 -1.30692823e-03
      -1.51836537e-02 0. -4.20389813e-04 0. 0. -2.09975448e-02
      -4.54554670e-02 -4.95187528e-02 1.76724251e-02 4.98461463e-02
      7.26713538e-02 1.85098629e-02 -1.51836537e-02 0. -4.20389813e-04
      -5.21814404e-03 -1.54171688e-02 -8.43761340e-02 -5.93452752e-02
      1.92700103e-02 2.55757980e-02 4.77429554e-02 -2.87800189e-02
      3.81638333e-02 -1.51836537e-02 -4.20389813e-04 1.09787034e-02
      -2.02547181e-02 -6.71269298e-02 -3.69016528e-02 -1.69711430e-02
      1.65562816e-02 3.40496786e-02 4.56230789e-02 3.63392080e-03
      -1.60437170e-03 -1.51836537e-02 5.06896200e-03 -1.17461933e-02
      -9.28015709e-02 -3.71250175e-02 -1.48179019e-02 -2.44837510e-03
      -4.95721819e-03 -4.85240016e-03 -1.13505321e-02 1.73896402e-02
      -5.11530824e-02 -1.51836537e-02 -9.99999978e-03 -5.37276790e-02
      -1.11321978e-01 -5.04708439e-02 -5.29584363e-02 2.21973434e-02
      -3.76969278e-02 -4.19549905e-02 4.10177466e-03 -2.04304140e-03
      2.22894717e-02 -2.36057900e-02 -1.86664388e-02 -7.81023502e-02
      -4.01894115e-02 -3.62177603e-02 -5.98144829e-02 -6.41264617e-02
      -2.30854638e-02 2.43412424e-02 3.95151079e-02 -1.75730884e-02
      -8.96674022e-03 -2.36057900e-02 -3.61312181e-02 -5.89606725e-02
      -2.59176996e-02 -3.74985784e-02 6.96071889e-04 -3.99278030e-02
      -6.28755838e-02 -3.20537984e-02 4.43551801e-02 2.87613738e-02
      1.72825262e-03 -1.98922958e-02 -7.56217092e-02 -9.11368281e-02
      -2.01743022e-02 -6.11839965e-02 9.86074912e-04 5.10824360e-02
      -4.71653044e-02 -1.30954357e-02 -9.28608642e-04 -2.23681070e-02 0.
      -4.32359315e-02 -1.31840304e-01 -2.42543843e-04 2.90204044e-02
      -4.96149920e-02 2.68711429e-03 4.77596112e-02 1.14807235e-02
      2.15262417e-02 -3.41382809e-02 -9.99999978e-03 0. -3.42416503e-02
      -1.60241663e-01 -3.87528874e-02 -3.76236066e-02 -5.02749626e-03
      -6.11784756e-02 3.45213478e-03 5.62153533e-02 1.61261056e-02
      -8.12219605e-02 9.99999978e-03 0. -8.02718177e-02 -1.18228219e-01
      -1.97119755e-03 -3.28396596e-02 2.10810769e-02 6.37666285e-02
      2.57533370e-03 2.29620505e-02 1.21098179e-02 -4.04708497e-02 0. 0.
      -1.05695575e-01 -4.76937592e-02 -6.59397095e-02 3.53735425e-02
      8.77095461e-02 2.83956099e-02 -2.59830970e-02 5.52162305e-02
      2.71478910e-02 8.16757604e-02 1.32215237e-02 0. -8.48779008e-02
      -1.32475719e-02 2.66254190e-02 8.21625441e-02 8.25126283e-03
      3.47482152e-02 2.27781441e-02 -1.76786184e-02 2.36793328e-03
      7.53663108e-02 7.81324282e-02 0. -4.17710580e-02 6.64337873e-02
      9.00115911e-03 -2.79569291e-02 2.95047108e-02 -7.40450667e-03
      3.61120962e-02 -2.48061307e-02 4.75681126e-02 5.51692359e-02
      9.62857828e-02 0. 7.59760290e-02 -1.74416639e-02 2.57767942e-02
      1.89757384e-02 8.39043707e-02 1.24267992e-02 2.83374730e-02
      5.34860678e-02 1.25514224e-01 9.78257209e-02 4.67626266e-02 0.
      6.18320070e-02 1.04930840e-01 9.93615538e-02 1.22545846e-02
      -9.84516367e-02 -5.12759425e-02 5.59987985e-02 2.94268858e-02
      2.19470495e-03 6.50900453e-02 2.53100297e-03 0. 1.44201890e-02
      1.09353483e-01 2.23226566e-02 -3.77130695e-02 -2.66731009e-02
      -2.58773342e-02 -9.99999978e-03 0. 0. 0. 0. 0.</_>
    <_>
      0. 0. -9.99999978e-03 -1.76338088e-02 -4.82062064e-02
      -8.31744459e-04 0. 1.31588820e-02 2.44349167e-02 6.80855662e-02
      2.17610560e-02 0. 0. -9.99999978e-03 -8.11384395e-02
      -6.69735223e-02 -1.00667156e-01 -1.10196166e-01 -8.07449147e-02
      -9.50004905e-03 8.26420188e-02 1.11908279e-01 1.14658326e-01
      1.94826648e-02 -9.99999978e-03 -9.99999978e-03 -4.27871533e-02
      -9.48210284e-02 -6.86115995e-02 -6.94661289e-02 -4.15250957e-02
      -1.05465017e-02 -1.32565089e-02 7.53853051e-03 4.20802087e-02
      3.06907874e-02 0. -1.99999996e-02 -4.82540056e-02 -9.49092358e-02
      -6.61011636e-02 -7.74638401e-03 7.05604162e-03 -3.69615341e-03
      -1.36455353e-02 -5.10457810e-03 -4.45560813e-02 -1.88783091e-02 0.
      6.79612625e-04 -1.65448412e-02 -1.01891667e-01 -1.05567038e-01
      -4.86944169e-02 4.55532148e-02 -3.16592073e-03 1.80937126e-02
      -3.08288317e-02 1.27507374e-02 -2.47407369e-02 0. -4.05014958e-04
      -7.49755055e-02 -9.53933373e-02 -3.77607495e-02 -5.51493391e-02
      4.32219654e-02 -1.50342789e-02 -1.11900140e-02 -1.30483676e-02
      7.32298428e-03 -3.35612148e-02 0. -7.49339350e-03 -7.46878535e-02
      -2.07394920e-02 1.68743189e-02 -2.60072295e-02 -1.10277673e-02
      7.75918271e-03 1.97561905e-02 -1.68526750e-02 -1.53819071e-02
      -3.99078615e-02 0. 0. -2.33135149e-02 2.51845531e-02
      3.34590077e-02 -3.52132842e-02 -1.45597290e-02 -2.33221743e-02
      -2.38459948e-02 -1.36104356e-02 6.49273489e-03 3.47306323e-03 0.
      -1.99999996e-02 2.98991730e-03 -3.44622619e-02 -3.08123883e-02
      -5.37961274e-02 -5.48176933e-03 -1.30651426e-02 -2.88171284e-02
      -1.99762024e-02 -2.17643362e-02 0. -9.99999978e-03 -9.99999978e-03
      7.84979314e-02 7.04357326e-02 -7.43716285e-02 -3.38785611e-02
      4.68504317e-02 -8.39889273e-02 5.49818855e-03 8.36165249e-03
      -9.03376378e-03 -9.03376378e-03 -1.99999996e-02 0. 2.10692752e-02
      -5.18826544e-02 -1.38415862e-02 6.95707602e-03 1.11397337e-02
      -3.13709378e-02 3.11599374e-02 -4.23242484e-04 9.66235879e-04 0.
      -3.99999991e-02 -1.01197986e-02 1.23335812e-02 8.51154607e-03
      8.34065769e-03 4.60260883e-02 1.34070329e-02 3.47195715e-02
      5.29526584e-02 3.99014652e-02 0. 0. -6.95288088e-03
      -1.43440757e-02 -4.78656478e-02 5.30398190e-02 6.45665526e-02
      1.09337876e-02 -9.76836309e-03 8.46823677e-02 7.49936327e-02
      1.00196749e-01 3.06498669e-02 0. 6.79612625e-04 -1.74953640e-02
      -4.67275362e-03 4.66120057e-02 1.76899675e-02 2.33924184e-02
      5.01679853e-02 2.06138752e-02 7.42597356e-02 8.26107860e-02
      5.88203147e-02 2.21507245e-04 5.50696335e-04 7.22394418e-03
      4.42966223e-02 -3.42400116e-03 6.44387444e-03 3.71312443e-03
      9.78230238e-02 7.37520903e-02 5.09432927e-02 3.67268249e-02
      4.48916331e-02 2.21507245e-04 2.37016864e-02 -1.41396178e-02
      1.97854917e-02 1.91329289e-02 9.14621502e-02 1.09275743e-01
      1.27783313e-01 1.02957018e-01 9.17290449e-02 7.53214657e-02
      2.70613730e-02 0. 8.12530331e-03 2.47853566e-02 4.92531955e-02
      4.11926815e-03 -3.39827873e-02 1.04973735e-02 9.37874615e-02
      2.47591566e-02 4.59539797e-03 5.13480082e-02 1.22056985e-02 0.
      -9.52288788e-03 2.73575541e-02 -6.24733698e-03 -7.61844404e-03 0.
      0. 2.51485198e-03 0. 0. 0. 0. 0.</_>
    <_>
      4.06584749e-03 7.56866345e-03 7.56866345e-03 7.56866345e-03
      7.56866345e-03 7.56866345e-03 -2.24642940e-02 -2.05611624e-02
      2.06823032e-02 7.78781027e-02 1.05923722e-02 7.00563239e-03
      5.63031295e-04 0. 0. 0. 0. -4.91279662e-02 -1.09373406e-01
      -9.58454758e-02 -1.08085778e-02 8.81123617e-02 1.08721226e-01
      1.43981241e-02 5.63031295e-04 0. 8.60270171e-04 8.60270171e-04
      -4.63541299e-02 -1.34295508e-01 -3.88397388e-02 3.35362367e-02
      3.37615944e-02 -3.02272420e-02 6.33808449e-02 6.40704557e-02
      5.63031295e-04 4.30135085e-04 1.99999996e-02 -3.45420614e-02
      -1.68361962e-01 -4.65789512e-02 -1.84309799e-02 3.19687277e-02
      -7.66154705e-03 4.44792397e-02 -4.90787812e-02 4.60919738e-03
      5.63031295e-04 1.08602699e-02 4.98651899e-03 -1.09957345e-01
      -6.58972561e-02 -5.24378754e-02 2.35326886e-02 -1.25338295e-02
      7.47464038e-03 2.34596450e-02 8.66623502e-03 -1.27933370e-02
      5.63031295e-04 4.30135085e-04 -9.95074958e-03 -6.42179474e-02
      -6.55478463e-02 -5.87712005e-02 4.18092031e-03 -4.42650542e-03
      -6.67238161e-02 5.14528118e-02 2.92222816e-02 -1.48326415e-03
      5.63031295e-04 0. -3.46046239e-02 -4.06545661e-02 -3.32845235e-03
      -2.80246716e-02 -2.99618971e-02 1.02765756e-02 4.69307564e-02
      6.42991215e-02 -1.93762239e-02 -1.89024340e-02 5.63031295e-04
      -1.84850041e-02 3.39685641e-02 -4.85295728e-02 -1.29564218e-02
      -1.74090043e-02 -1.45544456e-02 2.39779912e-02 -4.30020206e-02
      -2.82460954e-02 -1.62640940e-02 1.49419159e-02 5.63031295e-04
      -2.09437013e-02 3.21162641e-02 -3.94790396e-02 -2.72003058e-02
      -5.82129210e-02 7.03917490e-03 5.60292602e-02 -4.30041999e-02
      -4.76813801e-02 -2.59928741e-02 0. -1.43742375e-02 -1.96408983e-02
      6.93868995e-02 2.90401559e-03 -4.65764441e-02 -2.86570881e-02
      7.44691566e-02 -1.01993233e-01 4.15038737e-03 -2.13074517e-02
      -9.99999978e-03 0. -2.66969148e-02 -3.47467437e-02 1.28744822e-02
      -7.02926517e-02 5.57890683e-02 4.98055927e-02 -2.05298029e-02
      -3.62636596e-02 -1.46341855e-02 -1.14912838e-02 -2.64132600e-02 0.
      -4.64831889e-02 -5.94763309e-02 -4.15601172e-02 -5.95055567e-03
      6.94507882e-02 1.40580265e-02 -1.72883878e-03 -3.06253904e-04
      2.16500945e-02 1.24219107e-02 -1.99999996e-02 0. -6.34131953e-02
      -1.84947073e-01 -3.34183760e-02 3.36848572e-02 6.73968866e-02
      -4.23663389e-03 -7.55864382e-03 -2.73225140e-02 8.10628459e-02
      9.06290933e-02 3.58674023e-03 -1.99999996e-02 -7.15615377e-02
      -2.01435387e-02 -1.18240593e-02 2.70286389e-02 -3.47667038e-02
      1.30598340e-02 -9.77795850e-03 -4.63343449e-02 1.15693100e-01
      1.01627946e-01 6.64170161e-02 0. -2.15063728e-02 1.50841223e-02
      5.21165505e-02 -5.87964877e-02 -4.84541506e-02 -1.78680345e-02
      -1.50683802e-02 6.20355159e-02 9.85050797e-02 6.24814369e-02
      3.21528912e-02 0. 2.58786585e-02 1.41721033e-02 4.39810902e-02
      5.85265420e-02 3.41170169e-02 2.53331289e-02 3.29407863e-02
      8.94690603e-02 1.46990299e-01 1.22212060e-01 4.34309244e-02 0.
      6.77108243e-02 5.55930510e-02 5.07227331e-02 -3.56857143e-02
      -1.39867693e-01 -3.43248732e-02 7.61933625e-02 3.81561518e-02
      2.18218099e-02 5.45746833e-02 1.53843230e-02 0. 3.44245657e-02
      8.78520533e-02 5.29517129e-04 -2.02440284e-02 -3.97823658e-03
      1.68108684e-03 0. -7.47667253e-03 0. 0. 0. 0.</_>
    <_>
      7.93727115e-03 -3.12314439e-03 6.87685562e-03 1.68768559e-02
      1.68768559e-02 -3.12314439e-03 -7.17665069e-03 2.00262992e-03
      6.70976266e-02 5.91352098e-02 2.94227730e-02 1.68768559e-02
      -1.00231322e-03 0. -9.99999978e-03 0. -3.58497910e-02
      -8.78281891e-02 -1.41063914e-01 -4.93083596e-02 -4.00105715e-02
      4.83377278e-02 1.29285678e-01 1.73209701e-02 -1.00231322e-03
      -9.99999978e-03 3.80313199e-04 -7.54458224e-03 -5.13952523e-02
      -1.12139709e-01 -7.60807618e-02 3.92841138e-02 3.15527692e-02
      -5.57168312e-02 9.95099545e-02 9.12376791e-02 -1.00231322e-03
      1.90156599e-04 1.99999996e-02 -4.24795598e-02 -7.61126503e-02
      -5.90033494e-02 6.70798076e-03 7.56251290e-02 -1.10971993e-02
      1.95130557e-02 3.90187837e-03 1.50239198e-02 -1.00231322e-03
      1.03803128e-02 -1.61391671e-03 -9.18753594e-02 -6.71529248e-02
      -7.13185295e-02 1.69058684e-02 -5.89744858e-02 6.75119087e-03
      1.97929516e-02 -3.25914808e-02 -1.08193245e-03 -1.00231322e-03
      1.90156599e-04 -3.82237062e-02 -6.57474324e-02 -1.23666503e-01
      -6.97155669e-02 -3.68763460e-03 1.64759830e-02 -3.72203253e-03
      2.15133410e-02 -3.82937789e-02 3.02718598e-02 -1.00231322e-03 0.
      -6.21881224e-02 -6.69197887e-02 -3.35573778e-02 5.50014619e-03
      2.44757831e-02 -2.28282046e-02 -6.12903107e-03 1.21272765e-02
      -1.77610647e-02 -5.51902503e-02 -1.00231322e-03 -9.99999978e-03
      -6.02585264e-02 -4.78538759e-02 -4.22148779e-02 1.43985180e-02
      7.59785548e-02 5.57112135e-02 -3.33774858e-03 1.12985540e-02
      -3.13674882e-02 -7.60200694e-02 -1.00231322e-03 -1.05011566e-02
      -1.06828243e-01 -3.86766568e-02 -7.49863386e-02 -4.00428101e-02
      3.27956825e-02 -1.08773362e-04 3.64726260e-02 -6.40130490e-02
      -1.51753172e-01 -4.31361720e-02 -1.00231322e-03 -5.34587838e-02
      -1.09910972e-01 4.68950421e-02 -2.60514673e-02 6.46572784e-02
      6.87989816e-02 -6.93538086e-03 -1.29352353e-04 -2.47545559e-02
      -1.32701486e-01 -9.99999978e-03 -1.10023133e-02 -7.71553665e-02
      -8.25050399e-02 -2.15095021e-02 8.46429616e-02 9.28887054e-02
      -4.32544155e-04 -1.65961981e-02 3.33948247e-02 -6.33390695e-02
      -1.09963439e-01 0. -2.06061862e-02 -1.09775856e-01 -1.20144449e-02
      3.62970121e-03 -6.41465839e-03 4.11253646e-02 -1.90312862e-02
      -5.33675998e-02 -1.57564618e-02 -7.15670362e-02 -4.81119417e-02 0.
      -3.89272086e-02 -3.58560979e-02 -7.39524737e-02 2.49573532e-02
      6.68798760e-02 -1.99032146e-02 -7.62243941e-02 -1.61711201e-02
      4.75253575e-02 -1.01927407e-02 1.78130846e-02 0. -2.57553216e-02
      -1.18635399e-02 4.35924269e-02 4.11062650e-02 8.85848515e-03
      -2.60945060e-03 -3.43182720e-02 -2.73692124e-02 -1.57881100e-02
      4.24013026e-02 9.96948853e-02 0. -3.20970006e-02 -2.59080366e-03
      5.08071333e-02 -1.11725554e-02 -5.75152263e-02 4.65956889e-03
      2.32891701e-02 5.81594743e-02 2.69975811e-02 7.11889938e-02
      7.70989507e-02 1.23082282e-04 5.31960949e-02 -1.00755123e-02
      1.65178273e-02 8.04500133e-02 4.82060276e-02 2.76272446e-02
      8.48747119e-02 5.03719263e-02 1.44051909e-01 1.47340581e-01
      5.72097190e-02 0. 3.16543691e-02 2.32636854e-02 1.04333661e-01
      1.01450076e-02 -6.67716339e-02 -3.87757309e-02 -1.77430566e-02
      -3.97595614e-02 8.44771042e-03 7.91035965e-02 1.53364213e-02 0.
      4.79291454e-02 1.13203309e-01 5.95816635e-02 1.29553890e-02
      -2.17946968e-03 -1.66131146e-02 0. 0. 0. -9.90799977e-04 0. 0.</_>
    <_>
      0. 9.99999978e-03 0. -3.09990579e-03 -1.44694233e-02
      -1.92265753e-02 5.94432317e-02 8.58437568e-02 4.45929952e-02
      6.90525817e-03 -1.80587941e-03 0. 0. 1.99999996e-02 7.79523328e-03
      -8.96490589e-02 -1.35654390e-01 -5.16474596e-04 -2.21389899e-04
      1.62609480e-02 1.17196754e-01 -3.37971859e-02 -1.21822372e-01
      -9.07482859e-03 0. -1.97737813e-02 -1.47223905e-01 -1.77805141e-01
      -4.31406833e-02 2.69193444e-02 -8.45716372e-02 -2.68510766e-02
      -2.52216030e-02 3.87886465e-02 -3.38750370e-02 -2.31716204e-02
      -1.84165947e-02 -6.38680831e-02 -1.21112958e-01 -5.92723489e-02
      2.81840283e-02 6.74263854e-03 -1.32816732e-02 -2.32655704e-02
      -6.54991120e-02 1.05652353e-02 8.52848142e-02 2.57953331e-02
      -7.04707811e-03 -5.41273952e-02 -1.13140024e-01 3.58928256e-02
      -8.15275684e-02 1.38133680e-02 3.13372388e-02 5.74420653e-02
      -4.38819155e-02 -1.28848264e-02 -2.33832262e-02 2.64997166e-02 0.
      -6.04585670e-02 -5.68939038e-02 1.46366498e-02 -6.78635091e-02
      2.93111801e-02 2.98621487e-02 1.68575626e-02 9.44881514e-02
      -5.78809232e-02 2.10850090e-02 7.18684494e-02 0. -4.55850735e-02
      -9.24252644e-02 -6.33663908e-02 -1.07855797e-01 -6.96155652e-02
      8.63171462e-03 9.73498002e-02 6.10674126e-03 -5.73643446e-02
      1.26890928e-01 -8.48229900e-02 0. -7.70305023e-02 -1.70958657e-02
      -4.60636988e-02 -5.81614524e-02 4.59687710e-02 1.08266398e-01
      2.66923998e-02 -8.67477581e-02 -6.60514906e-02 1.04327559e-01
      -3.86729352e-02 -9.99999978e-03 -3.08314171e-02 -6.73701912e-02
      -7.82112684e-03 1.50402877e-02 1.05912752e-01 1.16137832e-01
      -5.17064054e-03 5.16857160e-03 1.28308628e-02 -1.53334104e-02
      -3.99999991e-02 1.73719358e-02 2.88340952e-02 -5.89063624e-03
      -8.56980607e-02 6.37641773e-02 6.22292086e-02 -7.96253905e-02
      1.09407341e-03 1.11402467e-01 -2.35933717e-02 -9.76730138e-02
      -9.99999978e-03 8.68596788e-03 1.69996209e-02 7.34008700e-02
      1.19588166e-01 1.02855295e-01 -2.16738191e-02 3.52751762e-02
      2.61508860e-02 2.05697659e-02 -1.02603406e-01 -1.36771202e-01 0.
      -7.07497001e-02 -7.37172440e-02 1.28305614e-01 1.19386487e-01
      1.79992631e-01 9.68977883e-02 8.87947604e-02 -1.23184636e-01
      -1.12289481e-01 -2.34072413e-02 -1.53878644e-01 6.67483499e-03
      -1.91465430e-02 -5.25334515e-02 1.36766657e-01 -1.08096972e-02
      9.09182653e-02 -6.87652603e-02 -6.67924210e-02 -1.38415813e-01
      4.46170494e-02 8.18808898e-02 -1.10330395e-01 0. -7.37832263e-02
      4.17080559e-02 7.78610855e-02 -5.72785735e-03 -3.79583314e-02
      -1.05394952e-01 -3.75954881e-02 3.30826789e-02 1.28808757e-02
      -2.63182912e-03 2.20197756e-02 0. 3.25992778e-02 1.01742357e-01
      -1.62673164e-02 4.49101850e-02 -1.15005728e-02 3.44960503e-02
      -4.88902852e-02 -9.57363751e-03 1.81508567e-02 6.42279238e-02
      6.96160719e-02 -9.99999978e-03 1.95101827e-01 6.93895966e-02
      5.44001674e-03 -4.04063165e-02 -1.01143252e-02 -3.38701792e-02
      7.07708597e-02 3.70633672e-03 1.19222142e-01 1.90888256e-01
      7.11636394e-02 -9.99999978e-03 8.41355175e-02 6.63305297e-02
      2.61072163e-02 8.52996856e-03 -3.78570631e-02 -3.73395234e-02
      6.54003397e-02 6.66067600e-02 1.44954503e-01 6.72264472e-02
      2.12147739e-02 1.99999996e-02 0. -1.24771772e-02 -8.95283148e-02
      -9.53901466e-03 -1.40567599e-02 -6.70705922e-03 1.12311887e-02
      2.06155945e-02 -1.99999996e-02 0. 0. 9.99999978e-03</_>
    <_>
      2.49654149e-05 1.00499308e-02 4.99308298e-05 4.99308298e-05
      4.99308298e-05 -1.95776168e-02 -7.97832664e-03 4.51927520e-02
      2.04821955e-02 -5.13140112e-03 -7.54073495e-03 4.99308298e-05 0.
      1.23250429e-02 2.23250426e-02 9.99999978e-03 -6.01079464e-02
      -3.58379483e-02 3.98563072e-02 4.35961224e-02 1.11248560e-01
      1.28229216e-01 -7.27801491e-03 0. 0. 1.23250429e-02
      -9.99999978e-03 3.51571664e-03 -1.91228427e-02 9.12647098e-02
      -1.86867211e-02 -7.58614950e-03 -2.46686637e-02 8.22655763e-03
      9.04442891e-02 1.15841385e-02 -1.99999996e-02 -1.51243526e-03
      -1.99999996e-02 6.82294741e-02 4.79390435e-02 6.44636378e-02
      4.03531175e-03 -1.37720136e-02 -1.31297093e-02 -6.07916974e-02
      4.84716892e-02 4.48037013e-02 -2.99999993e-02 -2.52656229e-02
      -4.31900378e-03 -3.61389965e-02 -7.69951195e-02 6.28305674e-02
      2.38272902e-02 2.69329902e-02 1.64606776e-02 -4.87776436e-02
      -1.50726838e-02 4.80286870e-03 -1.75906662e-02 -1.99546441e-02
      -6.56195078e-03 5.05967392e-03 3.48887779e-02 2.03649644e-02
      -7.64750782e-03 -1.26755554e-02 7.37600699e-02 -3.24110836e-02
      5.02105653e-02 -6.92060441e-02 0. -5.47554232e-02 1.45146623e-02
      -1.64476801e-02 -4.37355749e-02 1.11217061e-02 -9.43528786e-02
      -3.00549716e-02 2.03707404e-02 -3.80477458e-02 -1.57014579e-02
      2.46991832e-02 0. -9.62912291e-02 5.97747369e-03 -1.08418297e-02
      4.43820320e-02 2.82018390e-02 4.75482158e-02 -9.07165185e-03
      2.85722148e-02 -5.21291941e-02 5.52309193e-02 -1.93792693e-02 0.
      -1.00361750e-01 -5.73091246e-02 -2.28689313e-02 -4.81278114e-02
      -3.42443027e-02 8.23345408e-03 4.64206226e-02 4.19650748e-02
      1.00401985e-02 -3.21608409e-02 -6.40998408e-03 3.26023102e-02
      -1.77212313e-01 -5.42713255e-02 -5.93970828e-02 6.71612918e-02
      3.45822833e-02 5.20934425e-02 -5.44147147e-03 -4.98605482e-02
      -8.01455304e-02 -1.51870430e-01 -6.61403388e-02 -2.87820492e-02
      -1.25813752e-01 2.38215405e-04 -1.36245750e-02 -2.26064399e-02
      -1.99888106e-02 1.96348149e-02 2.79142130e-02 -2.00213995e-02
      -1.24656402e-01 -1.36276439e-01 -7.49568343e-02 -7.81860426e-02
      -1.83827132e-01 -1.28656451e-03 -4.84216064e-02 -1.91353576e-03
      2.57992446e-02 5.59561290e-02 -2.44047865e-02 -5.63530438e-02
      1.53845260e-02 -1.17725074e-01 -3.20528634e-02 -5.52346185e-02
      -1.22418087e-02 5.56055158e-02 -5.01913130e-02 -5.58518358e-02
      -7.16692507e-02 1.25285669e-03 -3.69305983e-02 6.81308331e-03
      1.44747794e-01 5.25052063e-02 0. -2.55565122e-02 1.47263259e-01
      3.36091742e-02 2.44211517e-02 -1.15605360e-02 9.51810915e-04
      5.40911146e-02 3.25974338e-02 2.04469655e-02 1.31528810e-01
      4.79313359e-02 0. 1.10335864e-01 2.14965597e-01 3.05439695e-04
      6.46696910e-02 -1.21816956e-02 2.47113481e-02 4.19361740e-02
      2.91038360e-02 -2.53893752e-02 1.09329708e-01 7.37794191e-02
      -1.47129288e-02 1.56618595e-01 1.38819367e-01 6.22929521e-02
      2.57618595e-02 3.45468492e-04 6.29244149e-02 3.88941392e-02
      -3.07460572e-03 1.06324419e-01 1.45118520e-01 6.55433163e-02
      4.90695890e-03 8.79434571e-02 1.38674065e-01 4.19366471e-02
      6.41329661e-02 -3.81576195e-02 4.44493107e-02 -1.44564137e-02
      3.09559461e-02 1.04522578e-01 4.49640751e-02 1.71703827e-02
      2.22634245e-02 2.49654149e-05 1.89369339e-02 -6.37296364e-02
      -3.71962339e-02 -3.61280032e-02 -5.16906865e-02 -7.08514228e-02
      -7.32663646e-02 -5.74422181e-02 0. 0. 9.99999978e-03</_>
    <_>
      0. -1.99999996e-02 -9.99999978e-03 0. -1.11455917e-02
      8.99324441e-05 2.09770184e-02 4.76931259e-02 3.85285057e-02
      3.65061685e-02 0. 0. -9.99999978e-03 0. 0. -3.61973494e-02
      -1.18778661e-01 -3.89001630e-02 2.77956445e-02 -4.71061952e-02
      2.63565890e-02 -5.30323572e-02 -1.15803503e-01 -3.83229852e-02 0.
      0. 0. -8.39509815e-02 -7.14569092e-02 -3.37228514e-02
      -1.81399379e-02 8.25209823e-03 -2.14076582e-02 6.44758418e-02
      -7.50466734e-02 -5.91085218e-02 0. 0. 0. -5.52738309e-02
      2.37526167e-02 4.90174489e-03 9.09012649e-03 2.04335861e-02
      -4.29665446e-02 -4.74343672e-02 -4.53040414e-02 -1.02100810e-02 0.
      0. 3.21257748e-02 -4.39867005e-02 2.67993454e-02 4.38968651e-02
      -3.10476702e-02 3.13096419e-02 -1.34650646e-02 -3.12071331e-02
      -9.89425406e-02 -6.29790872e-02 0. 0. 7.33168349e-02
      -1.47511410e-02 -3.05728633e-02 -3.78104695e-03 -8.87907818e-02
      -7.63178151e-03 3.64919007e-02 -2.07765354e-03 -3.69565026e-03
      -4.35599573e-02 0. 0. 1.15171641e-01 -5.54259345e-02
      3.33395414e-02 7.34393001e-02 -7.92009011e-02 2.08312944e-02
      2.97018420e-02 1.77102499e-02 2.93164477e-02 1.76435430e-02 0.
      -6.57137670e-03 1.10049047e-01 -7.18037859e-02 4.11119461e-02
      5.31589128e-02 2.72587780e-02 -1.12522542e-01 1.46053331e-02
      7.79620707e-02 5.83356544e-02 -3.84353586e-02 0. 8.50564055e-03
      6.08643666e-02 6.31758496e-02 6.22967072e-02 5.58400229e-02
      9.33437496e-02 6.15448831e-03 -3.08319693e-03 1.04164317e-01
      8.87492206e-03 0. 7.26067447e-05 -9.65234917e-03 -1.17528234e-02
      -7.48051004e-03 5.71650043e-02 -1.91454217e-02 8.66773352e-03
      7.74715692e-02 -3.60488966e-02 1.14426441e-01 1.82648387e-03
      -9.99999978e-03 1.08118902e-03 2.69580772e-03 1.14046551e-01
      9.75795686e-02 3.75560187e-02 -1.90817453e-02 -3.79218534e-02
      1.04525656e-01 1.07513908e-02 2.86578387e-02 1.09132417e-02 0.
      -1.75979827e-02 1.13881510e-02 1.14148118e-01 1.07270151e-01
      5.90523630e-02 2.71882769e-02 -7.18376711e-02 -7.87007436e-03
      -1.90786179e-02 6.43176436e-02 1.99999996e-02 0. -3.44646797e-02
      2.17978060e-02 1.32407382e-01 5.17934933e-02 1.70801114e-02
      -4.76761162e-03 1.58653199e-03 -1.30733941e-02 3.93903814e-02
      1.72948316e-01 1.91239100e-02 0. -1.03113212e-01 1.21170446e-01
      9.18188468e-02 4.31325324e-02 -1.66588388e-02 -3.03648338e-02
      -3.57690826e-02 -4.97988053e-03 8.90192538e-02 1.07231423e-01
      6.40332326e-02 0. -5.76573499e-02 3.39421034e-02 -1.19301518e-02
      -3.78339365e-02 -3.18365432e-02 -1.55291297e-02 7.96617416e-04
      -1.87322684e-02 9.78800803e-02 1.31661713e-01 7.48174489e-02 0.
      8.56532902e-02 4.33006845e-02 -2.98039019e-02 -3.74142528e-02
      -4.93952772e-03 -4.30969931e-02 2.66551645e-03 1.11494631e-01
      1.50865987e-01 1.71041593e-01 2.44318042e-02 0. 5.87550178e-02
      2.70633791e-02 -2.61643268e-02 2.27607638e-02 -1.84945762e-02
      -5.35623953e-02 1.29976884e-01 9.27075222e-02 7.70903453e-02
      6.63048923e-02 0. 0. 0. 5.23738144e-03 -2.20239237e-02
      -9.91206989e-03 -1.78590964e-03 3.81038599e-02 1.64704993e-02
      1.99999996e-02 0. 0. 0. 0.</_>
    <_>
      -1.81672908e-02 -1.63345803e-02 -1.63345803e-02 -1.63345803e-02
      -1.63345803e-02 -1.63345803e-02 1.34073598e-02 3.77853960e-02
      2.22885367e-02 3.71068786e-03 -1.63345803e-02 -1.63345803e-02
      -1.99999996e-02 0. -9.14269499e-03 0. 6.67052669e-03
      4.16791998e-02 4.05787379e-02 5.99495284e-02 3.16805318e-02
      -2.11685356e-02 -9.14466530e-02 -7.60880206e-03 -1.99999996e-02 0.
      -9.14269499e-03 7.24007841e-03 4.15669866e-02 7.15103224e-02
      -1.21580780e-01 -9.30814911e-03 -2.41124760e-02 3.98503579e-02
      -5.59553094e-02 -3.23657840e-02 -1.99999996e-02 -9.14269499e-03 0.
      -1.83214042e-02 5.44142462e-02 2.10450497e-03 -5.11070341e-03
      -2.62755211e-02 -1.64323933e-02 -2.93230396e-02 -2.88340021e-02
      -2.41374839e-02 -1.99999996e-02 -9.14269499e-03 1.25787668e-02
      -2.17344724e-02 -1.36952419e-02 3.51735167e-02 -3.63086276e-02
      4.58507463e-02 1.25704892e-02 -8.13686252e-02 -8.83934496e-04
      -3.72460485e-02 -1.99999996e-02 -4.21163975e-04 -2.93357242e-02
      -7.39366421e-03 3.63814365e-03 1.12882676e-03 -4.59426753e-02
      -1.75534422e-03 1.05272245e-03 -2.51913145e-02 -5.03076874e-02
      -2.61091404e-02 -3.99999991e-02 -6.99389279e-02 2.41219513e-02
      -3.17374244e-02 -1.35778248e-01 -7.09499195e-02 -7.72688538e-02
      -1.91089623e-02 5.22932261e-02 4.26206887e-02 2.37843078e-02
      -8.34950432e-03 -3.99999991e-02 -1.14826135e-01 4.65622451e-03
      -7.99507573e-02 -3.29720154e-02 1.63294096e-02 6.22876454e-03
      -6.74475804e-02 2.32337266e-02 8.69147032e-02 4.99325618e-02
      -6.77903965e-02 -4.25364673e-02 -1.36199176e-01 -1.80559643e-02
      3.04832608e-02 1.95986778e-02 4.32789139e-02 8.93767849e-02
      3.51491803e-03 -6.44839332e-02 9.71825123e-02 5.90834394e-02
      -9.99999978e-03 -2.54709348e-02 -1.54568389e-01 -2.80640442e-02
      -1.73212048e-02 -3.85676138e-02 2.98724622e-02 3.38294134e-02
      5.64172938e-02 -1.07513359e-02 2.80428529e-02 2.00248361e-02 0.
      -3.38499174e-02 -1.59632504e-01 -1.33881653e-02 3.35816294e-02
      -5.44235716e-03 -7.62548894e-02 7.21994461e-03 7.74715692e-02
      2.78616473e-02 -9.70918760e-02 1.56798661e-02 0. -9.39567313e-02
      -1.15534812e-01 2.52104457e-02 -8.03818833e-03 7.01623932e-02
      8.18722025e-02 -1.15964599e-02 9.26892310e-02 -2.85558105e-02
      3.64230759e-02 2.18783375e-02 0. -1.17659070e-01 3.78585868e-02
      7.63601363e-02 1.54301515e-02 -8.96423869e-03 1.50538376e-03
      1.31983245e-02 5.69312796e-02 -6.88301027e-02 1.06239371e-01
      2.77975313e-02 0. -4.76848334e-02 9.52813327e-02 3.77315246e-02
      3.51068527e-02 -2.68411636e-02 4.69897427e-02 7.23082125e-02
      7.58977383e-02 4.24890742e-02 7.28393495e-02 8.19633976e-02 0.
      2.17332337e-02 3.93208787e-02 -1.81320906e-02 -1.04026208e-02
      3.32963318e-02 3.14447321e-02 4.24763858e-02 1.15291793e-02
      6.49579018e-02 1.40194118e-01 1.01674363e-01 0. 1.10307388e-01
      4.95846160e-02 4.00179438e-02 7.27171972e-02 -2.25715805e-03
      -4.97994572e-02 3.94387878e-02 1.83708563e-01 1.80897951e-01
      1.33002385e-01 5.64991385e-02 1.48397051e-02 5.99882491e-02
      1.14632376e-01 7.27408379e-02 -3.06952745e-02 -9.49036255e-02
      3.84794362e-02 1.26349121e-01 7.23267347e-02 8.72683600e-02
      7.12596774e-02 2.96794102e-02 2.48397049e-02 -1.81672908e-02
      9.90157016e-03 -1.48558607e-02 -5.42514659e-02 -1.82890929e-02
      1.13795586e-02 2.64232755e-02 2.36654207e-02 1.83271000e-03 0. 0.
      9.99999978e-03</_>
    <_>
      -5.57963224e-03 -8.79716221e-03 -1.11592645e-02 -3.45881246e-02
      -4.90070581e-02 -1.25988331e-02 2.81025958e-03 2.17208005e-02
      6.10364601e-03 3.56273231e-04 -1.11592645e-02 -1.11592645e-02 0.
      -9.99999978e-03 -5.80791607e-02 -8.73147249e-02 -1.11205325e-01
      -3.67916375e-02 3.08138337e-02 3.56855802e-02 8.78556669e-02
      5.87030165e-02 -1.02066547e-02 -1.02066547e-02 -9.99999978e-03
      -2.02848483e-02 -4.44863290e-02 -8.59844536e-02 -1.14124184e-02
      2.42773276e-02 -2.75706574e-02 -1.23311309e-02 -1.36718331e-02
      2.30314843e-02 1.87378787e-02 -9.99999978e-03 0. -2.10342612e-02
      -5.39187230e-02 -7.56426007e-02 3.77273671e-02 3.34831770e-03
      -1.61266569e-02 -7.71767134e-03 1.05776731e-02 -1.20702628e-02
      -4.29136604e-02 -2.76804287e-02 0. 0. -1.25469668e-02
      3.22225578e-02 -2.02016812e-02 1.44050876e-02 2.89881825e-02
      5.09397946e-02 4.61351563e-04 -7.06319064e-02 -1.36638596e-03
      -4.73930947e-02 0. -6.95368880e-03 -1.78478807e-02 3.29548530e-02
      1.81749603e-03 1.69260113e-03 -1.99526791e-02 1.14365686e-02
      5.88395633e-03 6.48129964e-03 -7.17086671e-03 -5.93380556e-02 0.
      -2.74661966e-02 4.99824435e-02 4.21263576e-02 1.98323093e-03
      -5.35566211e-02 -6.46502897e-02 -3.97576056e-02 1.41360033e-02
      -3.04864980e-02 -5.10748476e-03 -4.15476598e-02 0. 0.
      1.26100481e-01 4.32229340e-02 6.25938550e-02 -2.87840329e-02
      2.06046831e-03 -1.69746839e-02 1.95015911e-02 -6.45565167e-02
      1.47113642e-02 6.05634646e-03 0. -1.99999996e-02 1.37840226e-01
      7.97720626e-02 -2.98516713e-02 -4.01017144e-02 2.53632776e-02
      -1.91865601e-02 -5.46639860e-02 7.51264468e-02 4.29359153e-02 0.
      -9.99999978e-03 -8.23634397e-03 9.30378586e-02 1.58221368e-02
      -2.99759544e-02 9.30191483e-03 9.27560404e-03 5.20711485e-03
      7.95808062e-03 6.17364831e-02 -9.99999978e-03 -9.99999978e-03
      -9.99999978e-03 -1.89040788e-03 6.02517761e-02 -2.82604918e-02
      -1.74198784e-02 -3.09321228e-02 5.61112426e-02 6.85062557e-02
      8.21254104e-02 2.90131662e-03 -5.59545076e-03 0. -1.25183128e-02
      6.83970051e-03 1.46698132e-02 2.69385800e-02 2.32933220e-02
      1.99502315e-02 -9.50841419e-03 7.48853981e-02 4.45991792e-02
      3.81545387e-02 4.08489397e-03 0. 1.39496112e-02 4.06084843e-02
      5.89119121e-02 4.02373150e-02 8.83186329e-03 5.27292863e-02
      6.00339286e-02 8.83800238e-02 2.27540806e-02 1.05787411e-01
      7.29016308e-03 0. 4.95095225e-03 7.22351000e-02 -5.59568452e-03
      7.92426895e-03 6.14934741e-03 -8.87066871e-03 4.21428569e-02
      1.09921090e-01 8.84291530e-02 1.01603650e-01 1.63145326e-02 0.
      3.34329605e-02 3.66995670e-02 5.66092245e-02 2.36303196e-03
      1.90520845e-02 1.11171706e-02 1.13890141e-01 6.29849136e-02
      6.32424355e-02 9.69621986e-02 5.30955717e-02 0. 2.53839400e-02
      5.14687672e-02 5.89894317e-02 3.88074592e-02 1.33314868e-02
      5.93479946e-02 1.41131490e-01 1.05292276e-01 1.01522572e-01
      8.11828077e-02 3.78815159e-02 3.06131947e-03 1.37474248e-02
      4.21262905e-02 1.41545366e-02 -1.25905415e-02 2.30094958e-02
      8.80918503e-02 1.30782261e-01 5.20373620e-02 7.77456239e-02
      5.40850721e-02 6.12263894e-03 6.12263894e-03 -1.86624434e-02
      -4.51532006e-02 -3.17252018e-02 -3.85824181e-02 1.31147383e-02
      2.38870550e-02 2.72095185e-02 1.29256295e-02 4.42036754e-03 0. 0.
      3.06131947e-03</_>
    <_>
      -9.79092671e-04 3.66306934e-03 3.66306934e-03 3.66306934e-03
      3.66306934e-03 4.41967364e-04 -3.66524644e-02 -1.00095458e-02
      2.09434871e-02 3.12336646e-02 3.66306934e-03 3.66306934e-03 0. 0.
      -9.99999978e-03 0. -1.73189528e-02 1.75814033e-02 2.35232692e-02
      -6.36243299e-02 -3.28079594e-04 4.26720381e-02 -1.18807992e-02 0.
      0. -9.99999978e-03 -1.99999996e-02 1.05093177e-02 -1.39116403e-02
      -1.58305336e-02 6.40919665e-03 4.21033837e-02 3.73624079e-03
      3.48400474e-02 -3.85462716e-02 -1.77203789e-02 0. -9.99999978e-03
      0. -4.26491909e-02 -1.82099827e-02 -1.01182787e-02 6.96360294e-05
      -2.35487614e-02 -8.05513784e-02 1.17981611e-02 -5.71042560e-02
      -4.50102352e-02 0. -1.99999996e-02 4.09132894e-03 -2.30080187e-02
      -7.44365305e-02 5.27635217e-02 -3.94028462e-02 7.61569440e-02
      1.90540403e-02 -2.39159316e-02 -2.29318440e-02 -4.01739255e-02 0.
      -1.19387871e-02 7.33980015e-02 6.17467128e-02 -1.65178329e-02
      -7.04514189e-03 -5.82251064e-02 6.99937949e-03 1.49421347e-02
      9.89489034e-02 9.52532608e-03 -1.35931810e-02 0. -1.86504405e-02
      1.15048639e-01 1.68897584e-02 -4.75289077e-02 1.63650215e-02
      -1.06218696e-01 8.42014141e-03 -2.13415921e-02 2.61181481e-02
      -1.48676755e-02 -2.60168780e-02 -2.13634316e-03 -2.89652459e-02
      1.38715088e-01 -4.02730443e-02 1.95798371e-02 3.44011113e-02
      3.43267620e-02 -4.50899713e-02 -2.19366830e-02 -4.03991193e-02
      5.42329848e-02 2.42010765e-02 -2.49967445e-03 -3.48035917e-02
      1.73122764e-01 2.21986547e-02 -5.39575815e-02 -1.38133103e-02
      -1.08927377e-02 7.77214617e-02 -1.33238852e-01 2.69863401e-02
      6.36140630e-02 0. -9.99999978e-03 -4.13294025e-02 2.22798549e-02
      -5.96314482e-03 2.49969698e-02 -2.52967863e-03 5.20021394e-02
      -2.13711392e-02 -2.46291403e-02 3.79872732e-02 8.11571907e-03 0.
      -4.73589562e-02 -8.82041678e-02 -1.42423520e-02 2.00010501e-02
      9.72228125e-02 -1.53874112e-02 -2.29911394e-02 2.26951018e-02
      7.87834376e-02 -1.18283462e-02 1.01214880e-02 0. -6.48069531e-02
      -1.28977433e-01 3.43475752e-02 9.94500145e-02 7.88446516e-02
      6.79675043e-02 9.96763539e-03 -6.02195831e-03 4.85620052e-02
      8.16757083e-02 7.73574132e-03 0. -5.04170097e-02 -8.25390816e-02
      1.97054178e-01 6.81679398e-02 -8.79246742e-03 1.00313611e-02
      -2.15008128e-02 -3.48886177e-02 1.17091618e-01 1.89555466e-01
      5.55457249e-02 -1.99999996e-02 -6.07285351e-02 1.08993754e-01
      6.45733699e-02 -3.34773734e-02 -6.85254708e-02 -2.63336059e-02
      4.20723967e-02 2.31628101e-02 1.60360649e-01 1.35072365e-01
      6.92952499e-02 0. -4.43553850e-02 2.74568833e-02 6.96144924e-02
      -6.24084808e-02 -6.37791753e-02 3.66648380e-03 -6.66373922e-03
      5.49181439e-02 1.24140568e-01 2.11551249e-01 7.58669451e-02 0.
      7.33968839e-02 1.79707296e-02 3.00801974e-02 2.64728535e-03
      -3.01703773e-02 -2.79776976e-02 2.20846757e-02 2.09961429e-01
      1.99097484e-01 2.24256471e-01 2.65241154e-02 3.52826086e-03
      8.89800116e-02 5.65805323e-02 -2.33326927e-02 -3.62647474e-02
      -4.75122966e-02 3.34891453e-02 1.44556001e-01 1.22766346e-01
      1.28043041e-01 6.84378818e-02 7.05652172e-03 3.58898332e-03
      -2.18674052e-03 -5.55080082e-03 -4.83045354e-02 -4.17531915e-02
      -4.43266676e-04 4.34978493e-02 2.34978478e-02 2.56265197e-02
      7.81325996e-03 0. 0. 6.07224429e-05</_>
    <_>
      -4.48119314e-03 -1.25355385e-02 -8.05692375e-03 1.94307661e-03
      -8.05692375e-03 -2.69426387e-02 2.87698917e-02 -6.86833775e-03
      3.09293400e-02 1.92969404e-02 1.94307661e-03 1.94307661e-03
      -1.09054632e-02 1.99999996e-02 1.69003010e-02 6.90030074e-03
      -5.00387922e-02 4.18332554e-02 1.95572935e-02 1.74095090e-02
      -2.73243990e-02 1.95491388e-02 -1.14937061e-02 -9.99999978e-03
      -1.09054632e-02 9.99999978e-03 2.75783124e-03 4.16866243e-02
      -2.06416398e-02 -2.31692567e-02 -1.06831826e-01 4.17555450e-03
      -1.69872437e-02 -8.00171925e-04 -7.35758385e-03 -2.88907457e-02
      -1.09054632e-02 2.99999993e-02 2.75783124e-03 5.72463907e-02
      -1.15000624e-02 -2.89388690e-02 3.31711140e-03 1.46136153e-02
      -9.66556147e-02 -7.41133019e-02 5.00260182e-02 1.41897914e-03
      -1.09054632e-02 1.99999996e-02 -2.65705585e-02 -8.90283138e-02
      -7.07594529e-02 -3.93012911e-02 -3.36962529e-02 3.79336961e-02
      2.95737796e-02 -2.11541653e-02 -9.09805298e-02 -4.38534841e-03
      -1.09054632e-02 3.99999991e-02 -2.06087921e-02 -1.69555955e-02
      -7.05027208e-02 1.02333296e-02 -1.04776569e-01 8.76926184e-02
      1.08454622e-01 -3.29621546e-02 -1.86890382e-02 -7.23393857e-02
      -1.09054632e-02 3.11436947e-03 -1.40106073e-02 -6.12266846e-02
      -1.04864463e-01 -3.21281664e-02 -5.81148006e-02 -1.06605627e-01
      -3.04635037e-02 -3.74170281e-02 1.21390475e-02 -5.36907911e-02
      -1.09054632e-02 -3.37772109e-02 -1.17566017e-03 -3.44764479e-02
      -9.49733425e-03 1.24385096e-02 2.22212106e-01 3.36849988e-02
      2.72527561e-02 -1.47933373e-02 -3.54064144e-02 -5.02281748e-02
      -1.09054632e-02 -5.81224076e-03 -8.85925218e-02 3.17468271e-02
      -1.32473474e-02 2.11969372e-02 1.42236397e-01 -7.97429774e-03
      2.97652688e-02 4.46891375e-02 -1.38918057e-01 -5.86506613e-02
      -9.05462832e-04 -1.22712543e-02 -1.88904241e-01 3.28070857e-02
      1.27164096e-01 2.01170042e-01 -2.77609378e-03 1.38182370e-02
      6.02633832e-03 -4.10995306e-03 -1.47704080e-01 -9.99999978e-03
      2.21052114e-02 -9.65855420e-02 6.50122575e-03 5.00827059e-02
      1.11238107e-01 -4.52354411e-03 -2.38872170e-02 5.75874820e-02
      9.97560620e-02 -1.14181869e-01 -1.44505635e-01 0. -1.02763511e-02
      -1.12437800e-01 1.97543934e-01 1.10729203e-01 1.49930548e-02
      2.84400564e-02 6.24949904e-03 -4.71235439e-02 -7.67579749e-02
      -1.12740025e-01 -2.42039692e-02 0. -6.37690583e-03 4.81062941e-02
      1.75597310e-01 7.81409070e-02 7.43741030e-03 -3.67920101e-02
      -5.36906943e-02 -7.99590051e-02 -2.93651316e-02 8.27061534e-02
      2.79248040e-02 0. -8.61037374e-02 6.20737039e-02 6.16681799e-02
      2.01340076e-02 -4.69363555e-02 -9.60155874e-02 -3.33399395e-03
      3.26379612e-02 -5.87983318e-02 8.62459764e-02 9.71890464e-02 0.
      -1.08306892e-02 2.28000730e-02 2.82378308e-02 6.70799427e-03
      3.30148004e-02 5.98457493e-02 1.31240776e-02 2.39554290e-02
      -4.33392450e-02 2.21089512e-01 1.37210041e-01 0. 3.65912393e-02
      4.93512750e-02 5.06822579e-02 8.60225111e-02 2.04996150e-02
      2.41513345e-02 6.81483448e-02 1.88551713e-02 2.32469097e-01
      2.72088170e-01 7.09507540e-02 1.94205549e-02 1.33339360e-01
      3.01594306e-02 -2.80741951e-04 1.66779086e-02 -4.12034467e-02
      2.21755598e-02 8.97733122e-02 8.45259801e-02 2.14479446e-01
      1.16179563e-01 3.88411097e-02 2.94205546e-02 -1.44811934e-02
      -3.41563933e-02 -7.47643486e-02 -5.24340235e-02 4.42363601e-03
      1.44157279e-02 4.22247313e-02 3.36862989e-02 6.42426964e-03
      -9.99999978e-03 0. 9.99999978e-03</_>
    <_>
      0. -9.32508614e-04 -9.32508614e-04 9.87552758e-03 1.00712720e-02
      -1.64024085e-02 2.54857019e-02 -7.73327937e-03 -1.07225152e-02
      -7.22515571e-04 -9.99999978e-03 0. 0. -4.66254307e-04
      2.95337457e-02 8.33129212e-02 3.34972137e-04 -4.36034836e-02
      -3.41504663e-02 2.95743383e-02 6.26285300e-02 1.06263384e-01
      8.39061961e-02 0. 4.42167139e-03 4.63937782e-02 1.46423921e-01
      1.43277556e-01 -2.09365953e-02 2.68568154e-02 2.93625388e-02
      4.25314568e-02 -5.69849350e-02 1.77591629e-02 8.41132477e-02
      5.92979603e-02 1.80847459e-02 5.01477905e-02 1.23445176e-01
      6.10518754e-02 -1.17524685e-02 6.86586052e-02 9.00779758e-03
      1.56122621e-03 -6.70612277e-03 -5.96371740e-02 -5.29570319e-02
      7.59159476e-02 -1.98522098e-02 4.46195900e-02 8.41592178e-02
      -1.69255659e-02 7.29590794e-03 4.31583785e-02 4.67319489e-02
      -3.10586113e-03 6.40556333e-04 5.93808014e-03 -5.95836639e-02
      -2.52618138e-02 -1.99999996e-02 6.67982101e-02 -1.20654600e-02
      -7.89658725e-03 1.36689208e-02 9.88408178e-03 -2.20062528e-02
      -6.46554157e-02 -5.40847741e-02 4.80692573e-02 -5.21740764e-02
      -6.43850192e-02 0. -6.58097118e-02 3.27224866e-03 2.22877227e-02
      5.90877756e-02 5.08027524e-02 -5.69279864e-02 -6.19676486e-02
      2.20051426e-02 2.39970945e-02 -6.13354407e-02 1.41959721e-02
      -9.99999978e-03 -5.31252697e-02 -7.25912899e-02 3.08735408e-02
      5.23964055e-02 -9.50286631e-03 -5.06245717e-02 -2.72470303e-02
      1.03002109e-01 -2.18531992e-02 -4.41975594e-02 3.96397598e-02
      -1.28763393e-02 -1.60168439e-01 -2.65004840e-02 3.06885801e-02
      -6.15749843e-02 -9.58485752e-02 -9.00690779e-02 5.01388833e-02
      2.70991269e-02 -1.73572209e-02 3.40155810e-02 3.41533460e-02
      -2.25715376e-02 -2.42916659e-01 -4.96568047e-02 -1.76642258e-02
      3.47859450e-02 -6.75261915e-02 8.94718096e-02 3.74891646e-02
      -1.23792849e-01 -7.71793127e-02 -1.21064372e-01 -6.85795993e-02
      -3.04207057e-02 -2.23145589e-01 -4.25025709e-02 -9.05908421e-02
      -1.04324676e-01 1.44246118e-02 1.53937582e-02 3.42899701e-04
      -3.53286192e-02 -3.91355678e-02 -8.21265951e-02 -7.04662576e-02
      -1.73650105e-02 -1.14460051e-01 -4.34699580e-02 -1.30059063e-01
      -4.13577966e-02 1.21649308e-03 -2.30148062e-02 5.76557517e-02
      -4.41258587e-02 -2.36030463e-02 1.24254907e-02 -2.99999993e-02
      -4.97942232e-02 3.77734452e-02 -8.09020400e-02 -4.53737825e-02
      -4.19548787e-02 4.53207344e-02 9.54598095e-03 6.16408363e-02
      4.56908494e-02 1.55619904e-01 1.16921149e-01 0. 5.14360592e-02
      4.49333042e-02 7.30644772e-03 1.88118499e-02 1.92417689e-02
      6.21756390e-02 6.12214208e-02 2.08822377e-02 5.27581014e-02
      1.36585936e-01 5.71603924e-02 0. 8.93951952e-02 2.19805568e-01
      8.71765986e-02 6.91770464e-02 1.75538119e-02 3.18809301e-02
      5.45750335e-02 -3.07718129e-03 4.24609669e-02 9.95899588e-02 0. 0.
      2.68890895e-02 1.26337633e-01 5.26976585e-02 4.45107706e-02
      -7.34115690e-02 5.18594384e-02 -6.04531467e-02 -5.75583652e-02
      2.44720634e-02 1.92846283e-02 0. 0. 3.59215937e-03 1.21967711e-01
      -1.81503762e-02 1.93528626e-02 -5.01356181e-03 3.87363173e-02
      -1.04467787e-01 -5.86942062e-02 -2.08119173e-02 -5.00000007e-02 0.
      0. 0. 9.99999978e-03 -1.14815664e-02 -3.69192357e-03
      -9.63425860e-02 -9.34833065e-02 -9.32039022e-02 -9.18192044e-02
      -2.77248435e-02 0. 0. 0.</_>
    <_>
      0. -9.41340160e-03 -2.57718638e-02 -1.31710153e-02 1.58940572e-02
      7.59004802e-02 -1.66248213e-02 -3.83854099e-02 -2.10482795e-02
      1.37668997e-02 9.99999978e-03 0. -4.70670080e-03 0. 1.15498924e-03
      8.20861161e-02 -1.56007828e-02 1.85790472e-02 -5.05636865e-03
      -9.78342909e-03 -8.80062580e-03 -3.71769369e-02 -5.79180904e-02
      -1.54561875e-02 3.37028829e-03 2.96508018e-02 1.54589787e-01
      5.24957441e-02 2.47218683e-02 -2.53269840e-02 -8.92976858e-03
      1.28704421e-02 -4.96490486e-02 9.26139113e-03 -1.17832221e-01
      -7.53247291e-02 1.43052535e-02 6.94858134e-02 1.21473894e-01
      5.00179008e-02 4.13373299e-02 5.07324077e-02 1.22299008e-02
      3.42365429e-02 -5.80164120e-02 -6.12834804e-02 -8.67971033e-02
      -3.80991437e-02 2.99519883e-03 7.91185945e-02 1.88363731e-01
      2.52197962e-02 2.66223634e-03 7.62091428e-02 -8.93277526e-02
      6.39167652e-02 -2.58800015e-03 -4.51430343e-02 -9.66274589e-02
      -8.77800584e-02 0. 9.43931565e-02 2.00052395e-01 -6.06970340e-02
      1.14906162e-01 2.34248471e-02 -1.00828946e-01 -3.10654212e-02
      4.37940797e-03 3.15065347e-02 -5.48684485e-02 -1.71004515e-02 0.
      6.47789165e-02 1.79124251e-01 -6.07191911e-03 1.28411904e-01
      4.83689234e-02 -1.05288915e-01 4.18311134e-02 9.45205614e-02
      9.19016674e-02 -8.97862017e-02 -2.12911777e-02 0. 7.12432340e-02
      1.10241860e-01 2.74157282e-02 9.19198245e-02 6.06605038e-02
      -6.96394369e-02 -7.11398497e-02 8.18572342e-02 1.59057632e-01
      2.15512421e-03 -2.85331509e-03 0. 3.05583738e-02 8.43750089e-02
      -1.03157517e-02 3.42571773e-02 -5.45347072e-02 3.29381451e-02
      6.45121038e-02 1.00326333e-02 1.07878171e-01 7.42724910e-02
      2.06185244e-02 -1.50854979e-02 -3.50854993e-02 8.14651996e-02
      3.26426588e-02 -1.39371986e-02 -7.52658471e-02 5.78496419e-02
      5.18919379e-02 -2.06089020e-02 5.51229492e-02 9.78922322e-02
      9.99999978e-03 9.84280650e-03 -2.88598873e-02 6.71475902e-02
      -1.38560608e-02 -1.59957409e-02 -2.74896696e-02 -3.84882204e-02
      8.88416916e-02 -1.44151617e-02 6.22330643e-02 8.90849307e-02 0.
      4.27771322e-02 8.19123536e-02 6.05161190e-02 4.45951521e-02
      -6.72086850e-02 -3.03455386e-02 -7.66670853e-02 7.79526904e-02
      2.24008560e-02 7.95711204e-02 5.17185256e-02 -7.32100243e-03
      -7.94748310e-03 1.00152576e-02 3.68086770e-02 -2.83154212e-02
      1.86913200e-02 4.38699126e-02 8.42383783e-03 4.83432189e-02
      7.03857094e-02 1.42409131e-01 5.52558191e-02 0. -3.96391265e-02
      8.54304358e-02 2.44875457e-02 1.25102410e-02 -2.27549896e-02
      2.34622210e-02 -4.69950959e-02 -7.18195960e-02 9.69871357e-02
      1.39438778e-01 2.10798569e-02 0. -5.96905425e-02 -7.43647367e-02
      -2.79288553e-02 -1.69182681e-02 3.43618449e-03 -3.81843522e-02
      -3.12416982e-02 6.92822337e-02 1.18545480e-01 1.04459204e-01 0. 0.
      -1.12935059e-01 -2.24851482e-02 -5.23340888e-02 2.06534211e-02
      -4.83824909e-02 -5.81021868e-02 -3.45572121e-02 7.54662156e-02
      1.05798051e-01 1.91782601e-02 0. 0. -1.53118717e-02
      -3.61284725e-02 -1.96961649e-02 -4.79722992e-02 -5.46894362e-03
      3.39772739e-02 6.63583875e-02 7.97162652e-02 -1.08737461e-02 0. 0.
      0. 0. -4.82623233e-03 -2.06296537e-02 -1.94853507e-02
      -2.31418200e-02 6.18525199e-04 0. 0. 0. 0. 0. 0.</_>
    <_>
      -1.12824282e-02 -1.12824282e-02 -1.12824282e-02 -9.47627798e-03
      5.58688259e-03 -7.35054631e-03 9.95150767e-04 -2.74184812e-02
      1.32578239e-02 -1.27060397e-03 -3.30549944e-03 -1.12824282e-02
      -1.12824282e-02 0. 2.26809811e-02 8.91630948e-02 1.12338684e-01
      5.26796915e-02 2.10712198e-02 -1.59691684e-02 -6.51854873e-02
      -2.09378395e-02 -2.20132545e-02 1.78800169e-02 -4.15667053e-03
      4.14461344e-02 1.14032358e-01 1.33938223e-01 6.37176409e-02
      1.85857844e-02 -3.56190167e-02 2.93717515e-02 -9.12295748e-03
      -1.84539817e-02 -1.08540170e-01 -6.54336531e-03 2.61417939e-03
      7.89365396e-02 1.42541975e-01 1.85296927e-02 3.24356258e-02
      2.90044490e-03 -3.83870713e-02 2.03981753e-02 5.05643301e-02
      -1.85777061e-02 -4.48283814e-02 -3.58633907e-03 1.60784018e-03
      6.66872784e-02 1.08502828e-01 -4.13085595e-02 -7.95088336e-03
      3.70260254e-02 -3.83082442e-02 1.92008149e-02 -1.70768630e-02
      -3.60791273e-02 2.11875495e-02 -3.83295678e-02 -1.12824282e-02
      7.93817714e-02 6.56760111e-02 -6.71441257e-02 2.63954699e-02
      -7.18077645e-02 7.95351155e-03 -6.74920529e-02 -6.37163296e-02
      2.96183955e-02 -6.98194355e-02 -4.75582145e-02 -2.12824289e-02
      -3.63133587e-02 6.43127635e-02 2.58106012e-02 -1.49573619e-02
      -6.53161928e-02 -5.89816421e-02 -3.87807228e-02 1.04183204e-01
      6.07734323e-02 -4.60811593e-02 -1.05988728e-02 -2.24956516e-02
      -1.81516837e-02 5.92175014e-02 1.68869756e-02 2.51081064e-02
      -9.87031125e-03 -1.25915274e-01 -4.45714891e-02 4.73767668e-02
      1.08202383e-01 3.32287028e-02 2.75912019e-03 -1.07593322e-02
      -1.31376654e-01 -4.25580405e-02 -6.64021680e-03 7.89408479e-03
      -1.99647676e-02 1.61299370e-02 6.08833283e-02 -3.19400728e-02
      6.78005069e-02 5.87701611e-02 1.40382629e-02 -4.02821265e-02
      -1.97150871e-01 -3.12899947e-02 2.85404623e-02 -7.17368871e-02
      -9.89395529e-02 6.92787617e-02 7.08364621e-02 -6.20806776e-02
      2.32370682e-02 3.73165607e-02 9.99999978e-03 -5.68147562e-02
      -1.94383398e-01 -5.38659766e-02 -6.57447651e-02 -7.59880915e-02
      -6.44645318e-02 -1.21268341e-02 2.53064558e-02 2.92738955e-02
      -1.18818963e-02 6.67700320e-02 0. -2.48161703e-02 -2.36607082e-02
      -1.31098963e-02 -5.19308187e-02 -2.59781182e-02 3.88081633e-02
      -2.62733661e-02 1.40993088e-01 2.10111924e-02 4.59650997e-03
      4.67593186e-02 0. -1.15749530e-01 3.69673781e-02 -4.88156416e-02
      -2.71899849e-02 -9.22949112e-04 1.02667846e-01 5.46478294e-02
      1.88015327e-01 -6.27970397e-02 9.78701860e-02 3.99953462e-02 0.
      3.50512005e-03 9.11564082e-02 1.22092906e-02 -1.29754352e-03
      5.52277174e-03 1.11841626e-01 1.25499293e-01 6.80277646e-02
      -2.25969851e-02 5.73035106e-02 1.53790843e-02 0. 3.38065409e-04
      -2.92144381e-02 -2.18291022e-02 1.99265894e-03 5.60925715e-02
      4.17599529e-02 5.86964823e-02 -8.49551801e-03 1.31867707e-01
      1.03848159e-01 0. 0. -5.79249598e-02 2.13355348e-02
      -3.34828324e-03 8.15257654e-02 5.52499713e-03 -2.18808278e-02
      1.98745187e-02 9.29482281e-02 1.00640297e-01 -9.87346051e-04 0. 0.
      -3.37056853e-02 1.64243672e-02 2.63819303e-02 -1.92389432e-02
      -2.20112987e-02 6.63949475e-02 7.89149031e-02 6.18941039e-02
      8.02530814e-03 -9.87346051e-04 0. 0. -1.12824282e-02
      -7.96326064e-03 3.35858925e-03 -3.42073739e-02 -4.02863324e-02
      -6.69672433e-03 -5.64121408e-03 -7.23013561e-03 -7.23013561e-03
      -7.23013561e-03 0. -7.23013561e-03</_>
    <_>
      -9.99999978e-03 -1.99999996e-02 -1.33749479e-02 -3.54538821e-02
      -4.22224514e-02 1.18457116e-02 5.82212768e-03 -2.25643627e-02
      -1.99999996e-02 -1.99999996e-02 -1.99999996e-02 -1.99999996e-02 0.
      -9.99999978e-03 -3.08015756e-02 -4.46302220e-02 -4.43867855e-02
      -2.77860556e-02 2.82044075e-02 2.43885536e-02 3.79497483e-02
      3.45442668e-02 2.50551123e-02 -7.34355208e-03 -9.99999978e-03
      3.43325548e-02 1.80180017e-02 2.08336581e-02 2.30528191e-02
      1.15230661e-02 1.19949793e-02 8.94236937e-03 -4.08504829e-02
      -3.64125744e-02 2.56546102e-02 2.52958317e-03 2.45544445e-02
      5.40948436e-02 2.33579464e-02 -2.24486683e-02 3.95902097e-02
      6.68541109e-03 2.06223316e-02 -2.22219285e-02 -1.14610316e-02
      -4.04157862e-02 -4.39081118e-02 -3.12471073e-02 1.22772222e-02
      4.67539802e-02 7.66413808e-02 2.46228296e-02 3.52741294e-02
      2.97835581e-02 9.24560055e-03 2.03156602e-02 1.78072955e-02
      -2.40645465e-02 -4.71737236e-02 -8.16744473e-03 0. 6.43810704e-02
      7.81677812e-02 5.15344255e-02 1.71492472e-02 -2.82986760e-02
      3.94964265e-03 1.64534412e-02 -1.85995437e-02 -1.81738641e-02
      -2.53989454e-02 -6.70939609e-02 0. 5.92294428e-03 7.04665780e-02
      9.04092044e-02 6.26208931e-02 -4.39920723e-02 -4.29752544e-02
      -1.02439292e-01 1.81057304e-02 -2.74588205e-02 -9.69315022e-02
      -3.29713803e-03 0. 2.73444727e-02 1.34954423e-01 8.17921311e-02
      5.50759770e-02 -6.58718124e-02 -4.78325635e-02 -2.21524630e-02
      1.90991927e-02 -6.81562535e-03 -6.32061958e-02 -7.19569158e-04 0.
      -1.15547758e-02 1.23201944e-01 1.32135317e-01 -4.46451716e-02
      -5.79728261e-02 -6.94097728e-02 6.39928551e-03 -2.64816377e-02
      5.53531796e-02 2.90703662e-02 2.08079852e-02 -9.99999978e-03
      -9.99999978e-03 6.05778880e-02 4.16679420e-02 -4.20567282e-02
      -9.01882630e-03 3.01324446e-02 -1.76450573e-02 -6.65880293e-02
      -1.32202357e-03 6.24026284e-02 -1.37565320e-03 -6.96301553e-03
      7.48440949e-03 2.09457055e-02 -1.60589013e-02 -4.83899973e-02
      -3.35714445e-02 1.69587452e-02 1.19752642e-02 4.44096932e-03
      1.74842998e-02 7.46695176e-02 0. 2.57174037e-02 1.01284608e-01
      -3.35496338e-03 -9.34619084e-03 -1.04327071e-02 -7.42705772e-03
      -8.46577808e-03 1.09102458e-01 5.36613315e-02 4.40334529e-02
      5.58306947e-02 0. -3.72411800e-04 4.50048186e-02 -3.69143263e-02
      1.34163070e-02 -1.62304416e-02 7.86449239e-02 3.03483773e-02
      1.26204506e-01 4.39091958e-02 1.17206760e-01 1.48486951e-02 0.
      1.16223479e-02 1.05217891e-02 -1.77850295e-02 1.40249794e-02
      3.80370952e-02 3.77668627e-02 1.03268623e-01 6.29715100e-02
      4.52481173e-02 8.53286833e-02 7.82105699e-03 0. 1.16417147e-02
      -5.07117361e-02 3.14484164e-02 3.17429826e-02 7.64691234e-02
      2.85100769e-02 1.29236072e-01 7.76948333e-02 1.00083023e-01
      9.80586708e-02 7.11858412e-03 0. -6.37662113e-02 1.46763981e-03
      4.81285080e-02 1.22961989e-02 -5.11413291e-02 3.02089397e-02
      6.35262728e-02 4.36570160e-02 1.01189978e-01 1.06123900e-02
      3.55929206e-03 0. -4.23247628e-02 -5.82457595e-02 -5.30864783e-02
      7.63827050e-03 6.11490756e-02 9.33634043e-02 8.13300461e-02
      4.06110771e-02 4.34596790e-03 3.55929206e-03 0. 0. -2.87274625e-02
      -7.85053745e-02 -4.11134139e-02 1.11803357e-02 1.41198970e-02
      9.99999978e-03 -7.77101959e-04 3.55929206e-03 7.11858412e-03 0. 0.
      0.</_>
    <_>
      0. 0. 0. 7.38033839e-03 -5.85164549e-03 4.20232639e-02
      -1.22313816e-02 -6.50382638e-02 -7.44615821e-03 1.40885292e-02
      9.99999978e-03 0. 0. 0. 3.02908700e-02 1.25257343e-01
      1.10753618e-01 6.81845397e-02 -3.22095752e-02 -9.07815546e-02
      -5.19480631e-02 4.36051330e-03 7.26630986e-02 3.99999991e-02 0.
      3.49390656e-02 1.12051010e-01 1.54536471e-01 8.57612118e-03
      -4.26980481e-02 1.05922250e-02 7.59367049e-02 -1.75090339e-02
      -5.00155725e-02 -6.79229200e-02 8.88997968e-03 1.90108605e-02
      7.41916522e-02 1.19018406e-01 5.38391061e-02 -2.32003611e-02
      -8.68095737e-03 -1.39674786e-02 5.83775155e-02 5.09696198e-04
      -1.85419675e-02 -8.93172398e-02 -2.18788981e-02 9.50543024e-03
      4.89176027e-02 1.60998687e-01 -2.33971849e-02 3.05225793e-03
      4.17776257e-02 -3.10846455e-02 4.41360213e-02 1.15393065e-02
      -2.00765654e-02 -1.28381494e-02 -4.15794700e-02 0. 6.06839322e-02
      8.79945159e-02 -1.79503504e-02 2.43868176e-02 -1.45941470e-02
      -8.17106888e-02 -2.12007444e-02 -1.58140790e-02 1.06286548e-01
      1.61879137e-02 -3.81899849e-02 0. 4.28507775e-02 1.66897237e-01
      4.48304676e-02 4.52722721e-02 -1.83862168e-02 -9.31252986e-02
      -6.40849844e-02 7.06061870e-02 6.48915023e-02 -1.64877892e-01
      2.91153900e-02 0. 5.23558334e-02 1.66331947e-01 2.52125617e-02
      5.02035581e-02 1.57582643e-03 -7.39505365e-02 3.77688222e-02
      2.60785371e-02 2.23191660e-02 -2.52624433e-02 7.03982934e-02
      9.99999978e-03 -7.58437021e-03 1.58411130e-01 3.39466296e-02
      -8.71824194e-03 -1.50119960e-01 -4.46331091e-02 7.59997740e-02
      -5.90333492e-02 1.97567418e-02 4.34655920e-02 2.32301522e-02
      -3.84683721e-02 -6.18716739e-02 -1.69356484e-02 -3.70243713e-02
      1.42539125e-02 -8.26116428e-02 7.09691644e-02 -8.47222935e-03
      -2.62017138e-02 3.81134404e-03 4.20261063e-02 9.99999978e-03
      -5.92553429e-02 -1.33259311e-01 -5.13556711e-02 -2.82340851e-02
      3.36612687e-02 -1.80564299e-02 -1.37844561e-02 -2.22835988e-02
      4.76002730e-02 2.59864293e-02 7.08744526e-02 -9.99999978e-03
      -1.23792151e-02 -3.74605022e-02 -4.32488210e-02 8.22227448e-03
      -2.66650636e-02 -1.72417541e-03 -2.73305532e-02 1.02351010e-01
      5.73633239e-02 1.08318448e-01 2.06162389e-02 0. -9.92462039e-02
      -4.09191363e-02 2.04919442e-03 1.39304968e-02 -2.08039097e-02
      6.63619787e-02 3.44213732e-02 7.43056387e-02 1.06798045e-01
      1.62059307e-01 5.10977879e-02 -1.99999996e-02 2.27644350e-02
      4.85945754e-02 4.65621166e-02 -2.73054224e-02 -1.52328825e-02
      4.83090542e-02 1.56701300e-02 5.38249500e-02 1.41724974e-01
      1.27228901e-01 8.73558596e-03 0. -8.09706151e-02 -5.13160601e-02
      3.79956625e-02 -2.82066017e-02 4.15249960e-03 1.73654035e-03
      -1.66581832e-02 9.53660980e-02 1.47014737e-01 1.15087077e-01
      -2.29693763e-03 0. -1.02750279e-01 1.86375808e-02 5.90214580e-02
      4.16370593e-02 -6.94313347e-02 -5.99916745e-03 -1.55341392e-02
      6.46849498e-02 1.07018225e-01 2.75892988e-02 -2.29693763e-03 0.
      -2.43751444e-02 -7.02379271e-02 -5.83632961e-02 5.19496901e-03
      -1.33699030e-02 7.02046510e-03 9.96556878e-02 1.10321440e-01
      1.77030619e-02 7.70306215e-03 0. 0. -8.90177209e-03
      -2.39512380e-02 -2.78305952e-02 -5.49946316e-02 -9.98989679e-03
      5.00505138e-03 0. -2.29693763e-03 0. 0. 0. 0.</_>
    <_>
      3.75242159e-03 -1.24951564e-02 -2.49515660e-03 1.57697089e-02
      1.60279255e-02 2.25181915e-02 -2.77998112e-03 -4.14757542e-02
      -7.78340874e-03 3.75048444e-02 1.12572648e-02 7.50484318e-03 0. 0.
      1.99999996e-02 1.75317392e-01 1.08583204e-01 1.11421704e-01
      -1.12911828e-01 -6.25321567e-02 -8.28813091e-02 8.06813873e-03
      1.44976974e-01 -1.41872454e-03 0. 1.58643685e-02 2.39343941e-01
      2.47102961e-01 5.94486371e-02 -1.53006632e-02 -2.40431707e-02
      -8.29754490e-03 -2.48597506e-02 -6.00599125e-02 5.35877533e-02
      2.95788981e-02 0. 1.19330212e-01 1.95608407e-01 1.72531009e-01
      -2.96233669e-02 1.05519732e-02 -4.01641130e-02 9.29433405e-02
      -4.87967581e-02 1.67343076e-02 2.37498023e-02 2.73873215e-03 0.
      1.43405452e-01 1.88175485e-01 -5.52046262e-02 3.69061194e-02
      -5.07263206e-02 -6.21297918e-02 2.33000773e-03 5.32479733e-02
      6.55794665e-02 -6.36566281e-02 1.34685813e-02 0. 1.63599923e-01
      7.06257671e-02 -3.53348888e-02 -3.69398892e-02 -1.14672489e-01
      -6.17176667e-02 2.33079288e-02 -9.25535895e-03 8.23523402e-02
      -2.24659089e-02 -6.11989982e-02 0. 1.06218159e-01 6.25939742e-02
      -1.22027481e-02 4.73696962e-02 -1.67793669e-02 -1.29549801e-02
      -1.23072706e-01 2.98082866e-02 1.83539037e-02 -1.52340665e-01
      -8.12165067e-02 0. 5.81732132e-02 -1.37619590e-02 1.64053906e-02
      4.05157432e-02 3.65608931e-02 2.01675538e-02 7.24805221e-02
      1.67112887e-01 4.95933406e-02 -1.31517008e-01 -2.15361845e-02
      9.99999978e-03 2.62309741e-02 -1.02208093e-01 -2.33272221e-02
      -3.06125879e-02 -7.34260306e-02 6.58138096e-02 8.44663233e-02
      3.96522693e-02 -1.87630467e-02 -9.50149968e-02 -7.24787787e-02
      -9.99999978e-03 -9.80080962e-02 -2.09170520e-01 5.93365915e-02
      9.51362997e-02 9.23122093e-02 1.01697065e-01 1.07330039e-01
      -1.38471052e-01 -6.35418072e-02 -7.09983110e-02 -9.99999978e-03
      3.98770440e-03 -1.74313962e-01 -7.77065679e-02 9.46670864e-03
      -5.74309044e-02 2.02619378e-02 -2.87656151e-02 1.58970319e-02
      -1.53172743e-02 -4.90536503e-02 3.15838307e-02 0. 2.00796518e-02
      5.67889996e-02 1.26597032e-01 2.44196095e-02 -1.16074853e-01
      -8.20700005e-02 -1.56184867e-01 -6.93992653e-04 -2.79596299e-02
      -8.13279673e-02 8.58622119e-02 0. 2.36599846e-03 7.27409944e-02
      -1.09649869e-02 4.19394784e-02 -1.05840065e-01 5.08293435e-02
      -7.14108571e-02 9.07213017e-02 -3.98640372e-02 1.03246525e-01
      1.41386747e-01 0. 2.25115903e-02 8.44847597e-03 -6.24629967e-02
      -3.30023319e-02 4.20084372e-02 7.44625553e-02 -2.32551694e-02
      -2.87585743e-02 -6.60051852e-02 1.26381487e-01 3.08610853e-02 0.
      -4.38758768e-02 -1.28923506e-01 2.79760249e-02 -3.30169313e-02
      5.30126616e-02 8.82166147e-04 1.18772008e-01 6.89742491e-02
      1.54008254e-01 1.74518019e-01 1.93729158e-02 0. -2.59488463e-01
      9.59187895e-02 4.63218690e-04 1.09738752e-01 2.02814620e-02
      6.22693747e-02 7.73516223e-02 -4.37393552e-03 1.08478107e-01
      8.28000531e-03 -6.27083878e-04 0. -8.88179541e-02 -9.72017422e-02
      9.45248920e-03 -4.40426469e-02 1.20298825e-02 1.07014358e-01
      3.01623568e-02 5.30548505e-02 3.82677317e-02 -2.03135423e-02 0. 0.
      -9.99999978e-03 -1.99999996e-02 8.73756036e-02 1.35408929e-02
      -6.32745400e-03 1.09468736e-02 0. 9.99999978e-03 1.99999996e-02
      -9.99999978e-03 0. 0.</_>
    <_>
      0. -1.99999996e-02 -9.99999978e-03 -1.31192748e-02 -2.41725659e-03
      3.58284339e-02 -4.17355448e-03 8.30526557e-03 -1.41099570e-02 0.
      -2.33689416e-03 0. -9.99999978e-03 0. 0. -2.24876981e-02
      -2.34076455e-02 2.15268899e-02 1.92591641e-02 -4.35823537e-02
      -8.98400843e-02 -9.73476171e-02 -9.15111676e-02 -2.43807752e-02 0.
      0. 4.95884521e-03 -6.17044196e-02 -2.81458218e-02 -3.90913747e-02
      -1.81813315e-02 -1.99989006e-02 6.37337565e-03 2.90059857e-02
      -6.00779429e-02 -8.36136267e-02 1.56324115e-02 7.81620573e-03
      1.26380927e-03 -1.90488677e-02 -5.56050707e-03 -1.20676858e-02
      -2.30539385e-02 2.15028436e-03 -4.85410541e-02 1.13537703e-02
      -2.34436467e-02 -4.27255593e-02 1.56324115e-02 1.49049796e-03
      3.14994529e-02 1.41930860e-03 4.10014242e-02 1.74379833e-02
      -6.63016811e-02 -8.27917270e-03 -3.72817065e-03 -1.71788223e-02
      -3.53632234e-02 -5.74907437e-02 7.81620573e-03 7.81620573e-03
      1.02814600e-01 4.46613645e-03 -2.94942167e-02 5.57303382e-03
      -3.33180726e-02 -2.37388592e-02 -1.53089873e-02 -1.60296671e-02
      -1.73776802e-02 -4.75145318e-03 0. 5.06372750e-02 1.16831355e-01
      -8.04898795e-03 6.19001221e-03 7.57281035e-02 -2.85799475e-03
      2.39492189e-02 4.43211868e-02 5.02350777e-02 -8.54095910e-03
      -1.14293173e-02 5.64227626e-03 7.13506714e-02 8.01366270e-02
      -4.78765890e-02 5.53186648e-02 6.64897412e-02 -7.65704596e-03
      -1.14463158e-01 -1.92081078e-03 1.34947255e-01 6.71463879e-03
      -3.05095334e-02 5.64227626e-03 9.43966731e-02 7.02965036e-02
      1.28794489e-02 7.91266635e-02 2.05006469e-02 5.44793569e-02
      -2.59822719e-02 -2.56924685e-02 6.40543178e-02 1.99310817e-02
      1.22614973e-03 5.14255511e-03 1.12228766e-01 1.57508776e-02
      1.82684772e-02 6.13943767e-03 -3.01867630e-02 -3.27916071e-02
      3.60229649e-02 -9.08081885e-03 1.37198582e-01 1.34773299e-01
      3.71565744e-02 2.29502451e-02 1.22253500e-01 6.44460842e-02
      5.31889275e-02 4.20462042e-02 -1.15747750e-02 -3.34123969e-02
      5.67798577e-02 3.38714570e-02 1.47936434e-01 9.47870985e-02
      3.10911965e-02 -1.66109595e-02 1.14521705e-01 8.32534060e-02
      9.10791680e-02 2.38697995e-02 -3.33622582e-02 -4.38470840e-02
      2.31156275e-02 2.96380725e-02 9.79376435e-02 5.75868636e-02 0.
      -2.34813727e-02 1.16031924e-02 4.04105447e-02 3.54937725e-02
      8.27390794e-03 -2.80396617e-03 -1.02237165e-02 2.62717586e-02
      -1.52113731e-03 1.65117811e-02 1.97716095e-02 0. -6.10199161e-02
      3.85620184e-02 2.58061625e-02 6.64139772e-03 -2.61310637e-02
      -1.46837505e-02 -8.04988369e-02 -4.47972156e-02 2.67694537e-02
      3.62242386e-02 6.71828445e-03 0. -8.81621987e-02 -1.46272928e-01
      -1.33634452e-02 -4.83822934e-02 1.64449867e-02 -3.61366123e-02
      -3.67635600e-02 1.84687637e-02 9.57833380e-02 3.83037813e-02
      1.34365689e-02 0. -6.44681677e-02 -1.00826427e-01 -2.30022445e-02
      -2.25178618e-02 2.33413209e-03 -7.32896626e-02 -1.94375478e-02
      3.64058279e-02 3.73234786e-02 2.23506950e-02 6.71828445e-03 0.
      -1.70369204e-02 -5.60630262e-02 -2.28302814e-02 -5.82175590e-02
      -9.10348538e-03 -4.88675945e-02 1.08683109e-01 4.35643084e-02
      1.85222290e-02 2.12527737e-02 0. 0. 0. -9.99999978e-03
      -1.51947299e-02 5.16109690e-02 2.50925217e-02 7.90731087e-02
      3.93179245e-02 2.24669948e-02 1.46507882e-02 0. 0. 0.</_>
    <_>
      -1.30725652e-02 -1.30725652e-02 -1.30725652e-02 -1.30725652e-02
      -1.09430896e-02 3.67663354e-02 7.29307020e-03 -6.56505600e-02
      -5.55237532e-02 -3.42333466e-02 -1.30725652e-02 -1.30725652e-02
      -1.30725652e-02 0. -9.99999978e-03 4.18604538e-02 1.24533549e-01
      1.27905264e-01 5.65202460e-02 -3.97229977e-02 -1.35218114e-01
      -1.53303400e-01 -1.54835641e-01 0. -1.30725652e-02 -1.99999996e-02
      9.24584083e-03 5.31024821e-02 9.58506316e-02 -3.23608369e-02
      -3.36539932e-02 -1.00579299e-02 -4.72212434e-02 -3.66839394e-02
      -1.32250741e-01 -9.79602709e-03 -1.30725652e-02 8.30610283e-04
      -1.09592471e-02 -4.45095673e-02 -2.01846994e-02 -9.07595232e-02
      -6.86324909e-02 -7.82799870e-02 5.42140976e-02 -3.61389928e-02
      -6.67295605e-02 -4.78143990e-02 7.75804510e-03 1.08306101e-02
      3.14964354e-02 6.24741875e-02 4.52723578e-02 -2.52362452e-02
      -3.77676338e-02 -1.98274478e-03 1.53796887e-02 -3.09098773e-02
      2.82298010e-02 -4.48040664e-02 6.92743529e-03 1.32401353e-02
      6.01213351e-02 2.03193109e-02 7.12163821e-02 -2.92357914e-02
      -1.78588484e-03 -4.73790132e-02 -3.08208037e-02 8.69104117e-02
      -6.20684810e-02 -5.18256910e-02 -1.36833824e-02 1.92349572e-02
      6.56023920e-02 -7.60856047e-02 -8.57291967e-02 -9.23122745e-03
      -2.46232450e-02 -4.15114649e-02 -3.03597450e-02 4.83446158e-02
      3.92692760e-02 -5.73442206e-02 -2.11253725e-02 2.28921091e-03
      6.25948906e-02 -6.12772964e-02 -4.36517261e-02 -1.67937689e-02
      -8.34652409e-02 -1.04820073e-01 1.24341613e-02 1.47366047e-01
      4.77138609e-02 -3.30136381e-02 -4.49354462e-02 2.40582377e-02
      -2.45744977e-02 4.36716937e-02 6.33524954e-02 1.02908909e-01
      8.00784007e-02 -8.03737715e-02 -6.01911247e-02 6.82246611e-02
      9.79844704e-02 6.09217165e-03 -4.58485261e-02 2.91165467e-02
      -6.10203221e-02 6.21534623e-02 -7.41998702e-02 9.49197784e-02
      -3.01615032e-03 -3.42616029e-02 1.76418908e-02 8.04941207e-02
      2.21068233e-01 8.70105997e-02 1.51931755e-02 -5.98019809e-02
      -5.24996445e-02 4.27802764e-02 5.57270534e-02 -4.30654548e-02
      -3.24329995e-02 7.06053749e-02 2.12126337e-02 -1.69903953e-02
      1.43421724e-01 6.43773302e-02 -7.01610893e-02 -1.90610846e-03
      -5.74704399e-03 2.82977745e-02 1.12238921e-01 6.68610334e-02
      -4.00845036e-02 1.72269687e-01 3.16559188e-02 3.84500511e-02
      6.76361546e-02 9.99999978e-03 -2.06457805e-02 -3.74714434e-02
      -1.96331162e-02 6.86235651e-02 2.35974584e-02 4.46693115e-02
      -1.11275734e-02 1.11472733e-01 -8.12588856e-02 -4.67212275e-02
      -8.01510364e-03 -8.01510364e-03 -6.15425184e-02 4.26526517e-02
      6.13322444e-02 2.33084857e-02 -4.89063449e-02 4.12468761e-02
      -9.11679864e-03 3.00937667e-02 -4.67117652e-02 -1.78734213e-02
      4.45758831e-03 0. -1.27612099e-01 -2.03755260e-01 -6.03634380e-02
      2.40935609e-02 1.07493684e-01 -6.68810774e-03 -3.83534580e-02
      -2.52894349e-02 1.38635725e-01 3.50794904e-02 8.91517662e-03 0.
      -1.03544973e-01 -2.86584467e-01 1.29084161e-03 9.86130014e-02
      8.89140740e-02 -1.35887459e-01 -1.01619260e-02 1.77452132e-01
      5.94442748e-02 3.81636396e-02 4.45758831e-03 0. -3.12028732e-02
      -1.47509590e-01 2.52827443e-02 -4.76733744e-02 -1.88608170e-02
      -1.23207609e-03 2.20208555e-01 9.07905325e-02 1.00571597e-02
      8.68264027e-03 0. 0. -1.30725652e-02 9.99999978e-03 7.19753653e-02
      -1.43811982e-02 -9.59769730e-03 1.42895252e-01 7.63592348e-02
      5.78284971e-02 1.99999996e-02 0. 0. 0.</_>
    <_>
      -9.99999978e-03 -1.85574163e-02 -2.17335932e-02 -5.14041930e-02
      -4.93202880e-02 3.01493867e-03 -2.64958628e-02 -1.99999996e-02
      -1.99395698e-02 -1.42784901e-02 -1.71392448e-02 -1.99999996e-02 0.
      -9.27870814e-03 -4.36598137e-02 -7.81175345e-02 -7.65623525e-02
      -3.94458435e-02 -1.43925082e-02 1.68034453e-02 2.29068436e-02
      1.22721475e-02 9.41139273e-03 0. -9.99999978e-03 -9.99999978e-03
      -1.97579358e-02 -9.95592773e-02 2.33728681e-02 -2.55822651e-02
      -2.75056865e-02 -4.62764092e-02 -4.17997874e-02 -9.74608306e-03
      3.79667021e-02 0. 1.99999996e-02 -9.99999978e-03 -3.66918668e-02
      -4.32347693e-02 -1.10691674e-02 -3.42301726e-02 2.09475234e-02
      -4.36418764e-02 -2.68376246e-03 -3.23947743e-02 -3.88228297e-02
      -4.13347371e-02 1.99999996e-02 2.28607543e-02 1.14469565e-02
      3.44164036e-02 1.24737583e-02 -4.78657149e-02 -3.08012832e-02
      -6.46220054e-04 -5.26543241e-03 -2.34747231e-02 -3.02342698e-02
      -4.14388143e-02 1.28607554e-02 -1.08576706e-02 1.48346024e-02
      2.45119203e-02 -1.99520625e-02 7.18540419e-03 -1.33133112e-02
      -6.33648830e-03 2.08385233e-02 3.39842178e-02 -1.05027237e-03
      -9.55781993e-03 0. 2.84932479e-02 5.87593913e-02 3.76730822e-02
      -7.43268011e-03 -1.36848371e-02 -1.25171868e-02 -5.83001878e-03
      -2.98053268e-02 -4.89427336e-02 -4.79668491e-02 -4.87173833e-02 0.
      9.96407494e-02 1.01678558e-01 -7.23063108e-03 5.82291819e-02
      -6.00411706e-02 -3.06118634e-02 -4.89031486e-02 -2.29512323e-02
      -6.58516353e-03 -4.17901278e-02 -2.55349651e-02 0. 9.72481519e-02
      1.10146776e-01 5.57702631e-02 2.57479995e-02 -4.37948368e-02
      2.27121282e-02 -5.71479611e-02 -4.96619679e-02 4.65989187e-02
      2.65188105e-02 0. -7.32363015e-03 1.47932559e-01 7.00076073e-02
      4.76710759e-02 -2.09277309e-02 2.56709643e-02 -4.36149649e-02
      -5.68733066e-02 1.69646330e-02 7.29496703e-02 9.61830243e-02
      1.71605349e-02 1.10442312e-02 8.05974603e-02 6.58205152e-02
      2.46649026e-03 -1.39115481e-02 -1.63876824e-02 3.91106345e-02
      2.06349255e-03 5.89522310e-02 8.26597139e-02 9.07192305e-02
      2.68433373e-02 1.19731277e-02 1.60429552e-01 2.75778919e-02
      7.17798471e-02 7.44306389e-03 7.07273046e-03 1.68619584e-02
      9.27403048e-02 9.33890045e-02 8.34489465e-02 3.93853560e-02
      3.26128933e-03 4.78640571e-02 5.79791963e-02 3.03064473e-02
      9.39092413e-02 -2.17243358e-02 5.31765521e-02 3.24958712e-02
      7.16386512e-02 4.81394753e-02 2.18173228e-02 1.31012751e-02 0.
      7.47064501e-03 1.76237021e-02 6.31775409e-02 1.36292884e-02
      2.06826311e-02 1.43820029e-02 -3.69669758e-02 4.38125655e-02
      5.43093570e-02 2.85499711e-02 9.51023321e-05 0. -4.06041853e-02
      -1.17300794e-01 4.61620465e-02 3.34136635e-02 5.35406061e-02
      -4.11583073e-02 6.12181053e-02 9.45305079e-02 5.99330626e-02
      4.02124599e-02 1.90204664e-04 0. -1.01849943e-01 -7.43884668e-02
      -7.80104951e-04 5.18214144e-02 2.91349106e-02 -8.67948309e-03
      6.41923472e-02 5.56294806e-02 3.47419456e-02 2.62171477e-02
      9.51023321e-05 0. -7.45113045e-02 -9.74816754e-02 -3.70451398e-02
      -3.44269313e-02 7.99709037e-02 4.69426960e-02 8.72015730e-02
      3.71660367e-02 1.14078335e-02 1.02506354e-02 0. 0. -1.24854548e-02
      -9.56360847e-02 -1.53554641e-02 4.68948204e-03 1.94703508e-02
      4.52333428e-02 2.49439012e-02 5.24127409e-02 1.91232525e-02 0. 0.
      0.</_>
    <_>
      0. 0. 0. 0. -1.99999996e-02 5.08853011e-02 -1.21252798e-02
      -3.08890603e-02 -1.50066148e-02 -9.99999978e-03 0. 0. 0. 0.
      -9.99999978e-03 6.55988790e-03 6.28229752e-02 4.59995726e-03
      -9.20423120e-03 -8.38003457e-02 -1.53317720e-01 -7.15998113e-02
      -7.81756453e-03 0. 0. -5.54138049e-03 -1.33411458e-03
      8.80387053e-03 2.57218927e-02 -8.81535336e-02 5.98435337e-03
      1.27971387e-02 4.33568805e-02 -5.76961748e-02 -8.33558589e-02
      -1.99999996e-02 1.99999996e-02 4.45861975e-03 9.96841677e-03
      -3.67697775e-02 -2.27034707e-02 -5.82939722e-02 7.65868172e-04
      -2.83977985e-02 2.29546819e-02 3.05590741e-02 -4.23441976e-02
      -4.64607328e-02 1.99999996e-02 8.91723949e-03 1.94060188e-02
      9.47292056e-03 3.61266546e-02 -2.14128681e-02 -5.66802099e-02
      -2.87218969e-02 -1.97251998e-02 -8.41351971e-03 -5.83554385e-03
      -2.31321752e-02 9.99999978e-03 -1.08276086e-03 1.08806491e-01
      5.93609316e-03 -2.55789533e-02 5.68875065e-03 -3.65036316e-02
      -2.82675354e-03 -1.32359425e-02 1.03549980e-01 -9.10458446e-04
      1.44781861e-02 0. 4.47727107e-02 9.77205187e-02 2.39114873e-02
      -3.00546903e-02 2.85527334e-02 -2.35927198e-02 -2.42831446e-02
      -2.09835283e-02 6.34689927e-02 -6.68057427e-02 1.28221500e-03 0.
      7.52080381e-02 1.24033391e-01 -2.34791748e-02 2.99244327e-03
      9.59530193e-03 8.39631353e-03 -3.20727378e-02 -2.34506745e-02
      3.42901493e-03 -4.55926470e-02 4.10097726e-02 2.34352192e-03
      1.00193754e-01 1.52256325e-01 2.25548111e-02 2.23924518e-02
      -2.13521495e-02 -1.68004427e-02 -1.50164524e-02 -6.82745874e-02
      5.05820103e-03 7.46662170e-02 8.68391618e-03 -6.00443594e-03
      1.29838064e-01 2.26625744e-02 6.10653497e-02 -1.35531453e-02
      -1.88623220e-02 -1.97706874e-02 -9.12615582e-02 -6.08783099e-04
      9.39722434e-02 1.27664149e-01 6.92428276e-02 -2.63885837e-02
      6.31560534e-02 -1.34177106e-02 6.20086975e-02 8.82708952e-02
      -1.46839889e-02 -2.39576567e-02 8.32089689e-04 5.96676245e-02
      1.14323035e-01 1.02703139e-01 2.74559278e-02 -3.94993648e-02
      8.88716653e-02 6.08485453e-02 1.21203013e-01 1.00710899e-01
      1.87724158e-02 -2.07791328e-02 3.73417214e-02 4.41213809e-02
      8.95458311e-02 2.71922927e-02 0. 1.00118779e-02 -6.44116178e-02
      1.11686170e-01 6.98737353e-02 -2.39462163e-02 9.71106160e-03
      1.80951282e-02 1.06887594e-02 9.71520394e-02 1.84435770e-02
      1.15223024e-02 -1.99999996e-02 -4.75982390e-02 -3.02480366e-02
      1.50944898e-02 -4.08507101e-02 -1.76396929e-02 -2.11675894e-02
      -5.57424277e-02 2.82934885e-02 7.11160749e-02 3.52848135e-02
      -9.99999978e-03 0. -1.27984613e-01 -1.53575793e-01 3.91685031e-02
      -7.39582554e-02 8.89265444e-03 -5.54626286e-02 -5.02729192e-02
      6.52089417e-02 1.34886071e-01 4.52848151e-02 1.94599573e-02 0.
      -1.14013247e-01 -9.35292244e-02 -3.81818898e-02 1.62699576e-02
      2.76702046e-02 -1.28358722e-01 -3.48266587e-03 1.37135923e-01
      4.38508131e-02 2.94599570e-02 9.45995748e-03 0. -3.26588899e-02
      -1.62328288e-01 -6.96561411e-02 -6.36604130e-02 -1.28879286e-02
      -1.23660937e-02 1.26748160e-01 6.38757944e-02 3.63196768e-02
      2.94599570e-02 0. 0. 2.34352192e-03 -1.86487846e-02 9.62573942e-03
      1.14503857e-02 4.28642929e-02 6.49096593e-02 5.99965677e-02
      5.41320704e-02 1.99999996e-02 0. 0. 0.</_>
    <_>
      0. -1.99999996e-02 -9.99999978e-03 0. -9.99999978e-03
      2.12918911e-02 2.54373513e-02 -4.48796079e-02 5.29248454e-03
      5.54535817e-03 9.99999978e-03 0. 0. 0. -9.99999978e-03
      2.64267977e-02 3.00225168e-02 9.87352282e-02 -6.33996055e-02
      -7.07704481e-03 -1.18995994e-01 -1.35801658e-01 5.64379059e-03
      -5.80500253e-03 0. -9.99999978e-03 9.99999978e-03 3.77479270e-02
      7.57645816e-02 -2.35295910e-02 -3.14126685e-02 -5.68558574e-02
      5.20725735e-03 -2.61916723e-02 -3.64177898e-02 -1.30113801e-02
      1.99999996e-02 9.99999978e-03 9.99999978e-03 -6.10114029e-03
      -3.10179666e-02 -1.03525326e-01 -3.65741625e-02 1.44524584e-02
      -9.12890397e-03 3.08061130e-02 -3.47295194e-03 -8.51166025e-02
      1.99999996e-02 2.99999993e-02 2.20528077e-02 -2.48701554e-02
      3.94977257e-02 -5.81957623e-02 -9.09321830e-02 3.57228070e-02
      3.13525759e-02 9.26110614e-03 -2.39522904e-02 1.98147516e-03
      1.99999996e-02 2.99999993e-02 3.04751229e-02 2.37497333e-02
      -8.02219585e-02 -4.77955043e-02 -2.45897397e-02 5.48442788e-02
      2.23673433e-02 1.68039538e-02 -7.26390630e-02 -1.17072149e-03 0.
      9.00000036e-02 3.52355763e-02 -1.77698527e-02 -1.15455016e-02
      -5.87254912e-02 4.20974232e-02 -5.42198569e-02 -5.43324202e-02
      -6.05258756e-05 -3.74496952e-02 -6.49072006e-02 0. 6.59800321e-02
      2.41350029e-02 -6.76160380e-02 -1.53265717e-02 -9.47019272e-03
      7.02421218e-02 6.42048940e-02 1.23427883e-02 9.13037509e-02
      -7.09980428e-02 -4.46275286e-02 0. 1.64261296e-01 -1.88536607e-02
      1.61521900e-02 2.58234106e-02 2.38711182e-02 4.15230319e-02
      -2.37968508e-02 -1.04687009e-02 -5.61216089e-04 -1.87215004e-02
      -4.78797294e-02 4.52498794e-02 2.36663610e-01 -3.70921306e-02
      7.32064694e-02 4.28736955e-02 1.19401790e-01 -5.28125986e-02
      2.18917448e-02 7.47945309e-02 2.61568949e-02 6.03401959e-02
      1.12736091e-01 7.32658803e-02 1.24828547e-01 8.81750789e-03
      6.32287711e-02 7.28591979e-02 2.50650533e-02 -7.24998489e-02
      1.99597925e-02 8.10379237e-02 -2.83044185e-02 9.06661004e-02
      8.83510336e-02 -3.44447815e-03 1.96260512e-01 1.65911078e-01
      1.82478175e-01 -2.32914872e-02 -4.65710536e-02 -2.09897459e-02
      -1.32001257e-02 2.95455679e-02 -1.42463967e-02 1.08306900e-01
      2.02063154e-02 7.75677934e-02 -2.02147802e-03 7.15244338e-02
      8.49771872e-02 -1.32273519e-02 1.86460018e-02 -2.25220751e-02
      -5.66331577e-03 -1.69240292e-02 -1.94193557e-01 1.69130135e-02 0.
      -2.89639961e-02 -3.09278537e-02 -1.50175234e-02 -7.90655091e-02
      -2.78472528e-03 -3.94287519e-02 -5.09188659e-02 1.03837876e-02
      -9.13879722e-02 -7.56055117e-02 -2.96548824e-03 0. -2.23978713e-01
      -2.18393356e-01 -3.37728970e-02 -3.73673551e-02 3.39709148e-02
      4.70192730e-03 1.90637342e-03 2.27442589e-02 3.09700612e-02
      3.68693620e-02 1.68031808e-02 0. -2.18961731e-01 -1.77279100e-01
      -1.13922372e-01 3.37545946e-02 4.70810458e-02 -4.66500930e-02
      3.70387957e-02 1.00604810e-01 3.19738500e-02 4.67732474e-02
      1.91884651e-03 0. -1.14853680e-01 -2.06160173e-01 -2.70498637e-02
      -9.01060328e-02 9.26063024e-03 -4.46111709e-03 1.13225088e-01
      8.16362351e-02 5.86329214e-02 2.34736037e-02 0. 0. -4.88433475e-03
      -1.43690556e-02 2.89061759e-03 2.94931550e-02 6.49991110e-02
      1.17258862e-01 1.40086204e-01 9.18646380e-02 5.02063148e-02
      -3.45104188e-03 0. 0.</_>
    <_>
      -9.99999978e-03 1.99999996e-02 9.99999978e-03 1.45776765e-02
      9.99999978e-03 0. 1.62695479e-02 2.03155749e-03 -2.49287183e-03
      -4.58358116e-02 -8.04949610e-04 0. -9.99999978e-03 0.
      -9.99999978e-03 1.82009563e-02 1.31136492e-01 1.15679488e-01
      4.49333638e-02 5.12812799e-03 -2.69444380e-02 3.11097484e-02
      6.17819838e-02 1.57696847e-02 -1.99999996e-02 0. -8.81196093e-03
      1.26163036e-01 1.46782115e-01 4.23573889e-02 -9.75389928e-02
      1.27205728e-02 4.41376194e-02 2.70768651e-03 -5.00714071e-02
      8.73022452e-02 -1.99999996e-02 -8.81196093e-03 9.99999978e-03
      4.76307087e-02 -2.33204216e-02 -6.45182356e-02 -7.44294524e-02
      4.33961041e-02 8.02352503e-02 6.72875568e-02 2.32164487e-02
      6.29947633e-02 -1.99999996e-02 -5.48187178e-03 -1.06673792e-03
      -3.09097227e-02 -2.92312820e-02 -4.07199673e-02 1.30165983e-02
      -3.13149742e-03 1.61750126e-03 -3.22136693e-02 1.19818494e-01
      -3.47742531e-03 -1.99999996e-02 3.92410904e-03 -1.69110611e-01
      -1.54572045e-02 2.48760991e-02 -5.21693528e-02 6.49334863e-02
      -3.91668547e-03 -5.75164147e-02 4.23601754e-02 -1.63784381e-02
      6.43655937e-03 -2.96786651e-02 -3.84567156e-02 -1.28521204e-01
      3.10150324e-03 -1.57150045e-01 -1.54005468e-01 -7.00491294e-02
      -5.66810519e-02 -1.55176502e-02 -1.50980772e-02 -2.90204324e-02
      5.88480383e-03 -3.12478654e-02 -1.48725212e-01 -9.53122601e-02
      2.96594836e-02 -1.09410696e-01 -3.66484709e-02 -2.97381971e-02
      3.88718024e-02 1.63023416e-02 -2.55216025e-02 2.03891825e-02
      -8.58727936e-03 -4.04061340e-02 -2.07558781e-01 -1.22457467e-01
      8.46676063e-03 -7.81976432e-02 2.99245641e-02 -2.48263851e-02
      -1.66929117e-03 -5.51566891e-02 4.00475860e-02 4.56231833e-02
      -9.99999978e-03 -2.82718912e-02 -1.51568338e-01 -3.34125049e-02
      -1.96557418e-02 -2.51062140e-02 -1.10685062e-02 1.81152462e-03
      -8.12265202e-02 1.57693140e-02 -7.77379423e-02 -8.82251468e-03 0.
      -4.65799719e-02 -2.09749132e-01 -7.52554238e-02 -3.63817364e-02
      -2.36432292e-02 -4.80224192e-02 4.77612875e-02 8.48070532e-03
      3.87553051e-02 -1.73026428e-01 -4.23631212e-03 0. -9.84349847e-02
      -1.57929540e-01 7.82456773e-04 -1.23857319e-01 2.99437810e-02
      7.42434636e-02 -1.44328119e-03 1.07814677e-01 -2.69233156e-02
      -8.55442658e-02 0. 0. -1.05394624e-01 -2.32133660e-02
      1.79655887e-02 3.12710218e-02 4.47957776e-02 1.40233859e-01
      1.65050980e-02 6.86704889e-02 -9.25015658e-02 -2.24037282e-02 0.
      0. 2.69879866e-02 -6.86721429e-02 4.44009602e-02 6.29122928e-02
      4.59227450e-02 5.14096804e-02 1.21087812e-01 8.01381692e-02
      -9.01783481e-02 -3.30090187e-02 0. 0. 6.20016679e-02
      1.02807507e-02 3.65119167e-02 -4.10214588e-02 6.31173700e-02
      5.98553307e-02 2.94006467e-02 -1.57976570e-03 -3.26734930e-02 0.
      0. 0. 4.28998321e-02 2.13529579e-02 -2.67667081e-02 7.70853907e-02
      2.11685989e-02 -9.16632358e-03 2.93488577e-02 6.92042261e-02 0.
      -2.63350573e-03 0. 0. 1.57702602e-02 1.18570089e-01 4.39648479e-02
      -3.01150586e-02 -1.89030170e-02 1.09123953e-01 2.45626215e-02
      1.45306345e-04 -5.26701147e-03 -2.63350573e-03 0. 0.
      -1.99999996e-02 9.79146454e-03 3.00916415e-02 -7.07488582e-02
      2.30953819e-03 -2.33084187e-02 -7.78215984e-03 0. 0. 0. 0. 0.</_>
    <_>
      -9.52628441e-03 -8.18455243e-04 -7.69669656e-03 -3.75027023e-02
      -5.03844246e-02 -3.66487028e-03 -8.99978075e-03 2.70426064e-03
      1.63621269e-02 -3.63787380e-03 -8.63249693e-03 -3.63787380e-03
      -2.44396459e-03 -9.99999978e-03 -6.07508942e-02 -7.99499601e-02
      -3.31432819e-02 -5.00897318e-02 1.40054356e-02 7.16644302e-02
      4.95317094e-02 8.20972323e-02 1.28626034e-01 2.33147517e-02
      -1.77073479e-02 -1.73722915e-02 -6.89894557e-02 -4.30480614e-02
      2.23449320e-02 2.16454118e-02 -1.90801714e-02 -3.37033309e-02
      -1.39859400e-03 -1.97706968e-02 6.38972074e-02 5.73129393e-02
      -7.70734763e-03 -2.52477154e-02 -8.89107063e-02 -5.31070344e-02
      -2.15020087e-02 1.82351116e-02 -1.07365651e-02 -8.63107573e-03
      -6.25256798e-04 1.86286774e-02 -1.29981840e-03 1.65318958e-02
      -7.70734763e-03 0. -2.79260185e-02 -1.36711737e-02 -2.39923000e-02
      -7.00492412e-02 8.74928981e-02 1.58096235e-02 3.59540805e-02
      -1.63654964e-02 3.90727684e-04 -1.81160718e-02 -7.70734763e-03
      -9.99999978e-03 -2.84731332e-02 5.20358942e-02 5.23141287e-02
      -7.61796068e-03 2.54723784e-02 3.71092595e-02 2.42982749e-02
      -2.53061093e-02 -3.88899520e-02 -4.34332006e-02 -7.70734763e-03
      -6.08779397e-03 -1.28832432e-02 8.59142914e-02 5.09406254e-02
      -8.25469494e-02 -4.09140065e-02 -4.56662625e-02 -3.47844101e-02
      -9.07099769e-02 -3.61833014e-02 -2.98267715e-02 -7.70734763e-03
      2.78168893e-03 2.94521116e-02 1.39592245e-01 1.70245976e-03
      -8.97493437e-02 2.40151212e-03 5.45394607e-02 -1.75654162e-02
      -1.50973111e-01 -3.47161964e-02 9.13163926e-03 -7.70734763e-03
      -1.72183104e-02 7.08959401e-02 4.69304249e-02 -8.03149939e-02
      -5.26567176e-02 -9.30648521e-02 -3.99397425e-02 -1.93018075e-02
      2.68027186e-03 4.67274971e-02 0. 2.29265215e-03 5.56337787e-03
      5.99295534e-02 1.16658378e-02 -4.47621495e-02 3.03826411e-03
      -1.60286576e-02 -9.41681266e-02 3.59186699e-04 -1.44347409e-02
      -3.84004996e-03 -3.84004996e-03 -7.70734763e-03 2.27816887e-02
      -1.55081684e-02 -2.55772788e-02 -1.73031520e-02 -2.36573797e-02
      7.84684718e-02 -5.32508865e-02 6.83198348e-02 -1.82766709e-02
      -3.84004996e-03 0. -8.58352426e-03 1.17546087e-02 -4.86134589e-02
      -6.65118620e-02 1.23945232e-02 4.37664129e-02 2.33299639e-02
      6.88084215e-02 5.03881238e-02 -3.84004996e-03 0. 0. 4.93488684e-02
      1.88018009e-02 -5.62011190e-02 1.18672149e-02 -2.64862496e-02
      6.37182966e-02 4.22957130e-02 9.01663899e-02 8.56810715e-03 0. 0.
      0. 5.34592345e-02 -2.72663981e-02 -3.35902423e-02 -8.62859562e-03
      7.39650354e-02 3.01007601e-03 1.13310173e-01 1.57303438e-01
      2.33084559e-02 0. 0. 0. 1.05305366e-01 -1.59027465e-02
      4.86454032e-02 3.95671353e-02 5.82325645e-02 2.71699075e-02
      1.32828996e-01 1.04548551e-01 2.68788135e-04 0. 0. 0.
      2.57060174e-02 -1.01184286e-02 3.15273665e-02 6.07081763e-02
      1.57630276e-02 1.02010384e-01 1.21969759e-01 2.53226776e-02 0. 0.
      0. 0. -5.18027619e-02 1.42670022e-02 -3.14650387e-02
      -1.39279524e-02 8.09124708e-02 1.51718199e-01 4.40317132e-02
      -1.97312124e-02 0. 0. 0. 0. -2.06273869e-02 -6.89689815e-02
      -1.78578347e-02 1.26458053e-02 1.87511053e-02 -3.43521801e-03
      6.05924521e-03 0. 0. 0. 0. 0.</_>
    <_>
      1.11557066e-03 -5.91070391e-03 -1.75406411e-03 1.82459354e-02
      1.08053926e-02 3.49980802e-03 -3.76560837e-02 -1.16143174e-01
      1.77694093e-02 7.54916249e-03 2.49077640e-02 -5.91070391e-03 0. 0.
      -4.58433591e-02 2.17909962e-02 1.37426272e-01 2.37436946e-02
      -5.01061268e-02 -9.53963026e-02 -7.58123100e-02 8.25081021e-02
      1.71208918e-01 6.74824268e-02 0. -2.88902153e-03 2.71109790e-02
      1.47099569e-01 8.87561068e-02 -6.94178119e-02 3.34552629e-03
      3.78713124e-02 7.40454942e-02 -7.37668723e-02 1.05738468e-01
      1.72717318e-01 0. 1.71109792e-02 2.99999993e-02 4.79461662e-02
      -8.83351490e-02 4.30392437e-02 -9.72165540e-02 -2.53815968e-02
      1.16721258e-01 4.17587943e-02 -5.53960586e-03 2.34712642e-02 0.
      1.42219570e-02 -3.99999991e-02 1.16982218e-02 -8.38785395e-02
      -7.06741260e-03 2.63779908e-02 3.37786861e-02 3.94247584e-02
      1.35320187e-01 1.03555903e-01 -7.02376142e-02 0. 4.22195671e-03
      -9.99999978e-03 7.35153928e-02 1.23192472e-02 4.26484011e-02
      1.28054700e-03 6.10137396e-02 -5.85412532e-02 7.19619021e-02
      1.36836972e-02 -4.32210639e-02 -1.99999996e-02 -1.99999996e-02
      -2.75788866e-02 2.92565152e-02 -1.00441501e-01 -1.05369061e-01
      -5.55942394e-02 -8.50050896e-02 -1.55564070e-01 1.00836456e-02
      -1.47951782e-01 2.81206723e-02 -3.99999991e-02 -1.99999996e-02
      3.31746712e-02 8.42259228e-02 -7.06669167e-02 -1.05913892e-01
      5.57155237e-02 1.63745642e-01 -3.86686325e-02 -2.16972828e-01
      -1.97602510e-02 1.45107508e-01 0. -2.99999993e-02 7.98478797e-02
      6.31184503e-02 -1.51689023e-01 -1.36425003e-01 -8.92902017e-02
      3.63010056e-02 -2.01723069e-01 -1.58987418e-01 5.28157651e-02
      5.80420997e-03 -1.44958496e-02 1.55041497e-02 -8.61442536e-02
      -3.43506075e-02 1.71566550e-02 -1.77459326e-02 5.60503360e-03
      -1.83466747e-01 5.83568849e-02 -6.51494190e-02 -2.99999993e-02
      9.99999978e-03 -7.14105964e-02 -1.54188305e-01 -2.14547068e-01
      -5.08753508e-02 8.17335472e-02 -6.41201437e-02 4.11939323e-02
      -1.02430113e-01 8.68633538e-02 -4.89916988e-02 -2.99999993e-02 0.
      -9.19548944e-02 -2.46062696e-01 -2.56685615e-01 -1.71018299e-02
      8.20105821e-02 3.57640870e-02 4.15438302e-02 4.69221734e-02
      -5.42108482e-03 -2.99999993e-02 -1.99999996e-02 2.55301199e-03
      5.41286543e-03 -1.51782125e-01 6.99594691e-02 -2.04028748e-02
      -7.32946908e-04 9.21612754e-02 2.67930422e-02 8.43422934e-02
      1.03173025e-01 -3.99999991e-02 0. -1.99999996e-02 -3.34801488e-02
      -8.82797092e-02 -5.14702611e-02 -2.17407532e-02 2.08163280e-02
      8.15924164e-03 6.81216195e-02 7.54956156e-02 4.60239686e-02
      -9.99999978e-03 -1.99999996e-02 0. -1.08166961e-02 7.68094212e-02
      5.67055792e-02 -1.76423506e-04 1.94323994e-02 2.61061639e-02
      5.67339640e-03 1.41241685e-01 0. 0. -9.99999978e-03 0.
      1.40244961e-02 -1.44458767e-02 1.41135916e-01 9.57483351e-02
      1.57524105e-02 7.09467679e-02 2.71601193e-02 -1.51997022e-02 0.
      -9.99999978e-03 -9.99999978e-03 0. 3.82442400e-02 -2.03817319e-02
      -2.38465816e-02 8.84702057e-03 2.56558862e-02 7.83043429e-02
      -9.13748443e-02 -1.99999996e-02 -9.99999978e-03 -9.99999978e-03 0.
      0. -2.64388369e-03 1.09718507e-02 8.18967354e-03 8.39089602e-03
      3.61959822e-02 0. 0. -9.99999978e-03 0. 0. 0. 0.</_>
    <_>
      -5.79251023e-03 -4.91560996e-03 -2.29109940e-03 1.60296063e-03
