<?xml version="1.0"?>
<opencv_storage>
<opencv_ml_svm>
  <format>3</format>
  <svmType>C_SVC</svmType>
  <kernel>
    <type>LINEAR</type></kernel>
  <C>1.0000000000000000e-02</C>
  <term_criteria><iterations>3000</iterations></term_criteria>
  <var_count>216</var_count>
  <class_count>9</class_count>
  <class_labels type_id="opencv-matrix">
    <rows>9</rows>
    <cols>1</cols>
    <dt>i</dt>
    <data>
      1 2 3 4 5 6 7 8 9</data></class_labels>
  <sv_total>36</sv_total>
  <support_vectors>
    <_>
      0. 0. 0. 0. 0. 0. 0. 0. 0. 1.27549074e-03 0. 0. 0. 0. 0. 0.
      -8.30926653e-03 -1.39813926e-02 -1.62789878e-02 -2.52801199e-02
      2.07704548e-02 7.14131296e-02 6.37745368e-04 6.48335414e-03 0. 0.
      0. 0. -3.38543542e-02 -1.03948601e-01 -1.02300450e-01
      -3.87061276e-02 -7.82040041e-03 5.49639389e-02 6.01196103e-02
      6.48335414e-03 0. -9.99999978e-03 -9.99999978e-03 -1.83092654e-02
      -6.20177686e-02 -1.30275875e-01 -9.30969138e-03 3.96941453e-02
      2.59794015e-02 -3.01573686e-02 8.71534552e-03 0. 0.
      -9.99999978e-03 -3.16833938e-03 -4.42738160e-02 -1.25752017e-01
      -8.15037712e-02 -2.65033618e-02 2.54153386e-02 3.04680541e-02
      3.19925845e-02 2.76837703e-02 0. -1.99999996e-02 0.
      -1.77616626e-02 -7.83030689e-02 -6.49664998e-02 -2.02320218e-02
      2.10960358e-02 1.91350002e-02 2.99253985e-02 3.48322354e-02
      -5.80981709e-02 0. -9.99999978e-03 -3.99999991e-02 -1.66876297e-02
      -7.58219138e-02 4.11307476e-02 6.61962479e-03 5.16600758e-02
      9.44651198e-03 5.16625047e-02 6.43999688e-03 -4.33005728e-02 0. 0.
      -4.12609279e-02 -2.05568895e-02 3.06631867e-02 3.52783799e-02
      -6.72828481e-02 7.93178193e-03 -3.54413986e-02 2.40821019e-03
      -3.55604030e-02 -4.99426797e-02 0. 0. -8.33743345e-03
      2.87262183e-02 -3.09529845e-02 -1.86308622e-02 -4.89378683e-02
      -1.21612540e-02 -1.60400495e-02 2.48016920e-02 -7.79445544e-02 0.
      0. 0. 0. 1.00314179e-02 6.80756047e-02 1.59332603e-02
      2.59885378e-03 8.71816557e-03 -3.97562869e-02 -1.99797601e-02
      -1.74099747e-02 0. 6.48335414e-03 0. 0. -2.59645507e-02
      -1.04656734e-01 -2.62168590e-02 6.81853434e-03 -5.23565821e-02
      3.17639264e-04 -1.82211734e-02 6.48335414e-03 0. 0. 0. 0.
      -9.46887806e-02 -5.53998947e-02 -6.33867038e-03 3.27026146e-03
      -3.16130347e-03 9.04678274e-03 -1.04087358e-02 -2.18601543e-02 0.
      6.48335414e-03 0. -2.16530804e-02 -8.29914287e-02 1.44567173e-02
      -6.15329072e-02 -3.80717800e-03 1.91612281e-02 1.40299378e-02
      4.60990658e-03 1.14919255e-02 4.19018231e-03 0. 0. 2.02096589e-02
      8.46507773e-03 8.77638161e-02 -2.12837793e-02 6.45331061e-03
      -3.25034186e-02 -2.06163973e-02 -3.31418738e-02 2.98162028e-02
      -5.61380154e-03 0. 0. 7.32412515e-03 -2.17287689e-02
      -6.27516732e-02 1.05500710e-03 2.21533347e-02 3.18131559e-02
      7.01757101e-03 -1.10798506e-02 -3.32212225e-02 1.16787609e-02 0.
      7.69776874e-04 3.45765315e-02 4.56051230e-02 5.02225524e-03
      -4.05735299e-02 -4.78044599e-02 -6.22344054e-02 -8.25273618e-02
      -5.15685640e-02 -7.31159840e-03 0. 0. 0. 3.51889431e-02
      8.72693807e-02 1.07422611e-02 -3.02291680e-02 -3.66140828e-02
      -3.97824235e-02 -3.65869068e-02 -8.32926203e-03 -1.11431303e-02
      -2.28626118e-03 0. 0. 0. 0. 6.48335414e-03 1.29667083e-02
      6.48335414e-03 6.48335414e-03 1.29667083e-02 0. 4.27179085e-03
      4.27179085e-03 0.</_>
    <_>
      0. 0. 0. 0. 0. 0. 0. 0. 0. 0. 0. 0. 0. 0. 0. 0. -1.03176311e-02
      -5.82005410e-03 2.28182366e-03 1.09918090e-02 2.60582510e-02
      5.89886233e-02 0. 7.83035904e-03 0. 0. 0. -5.73862679e-02
      -1.03938058e-01 -9.95896310e-02 -5.04427366e-02 -3.76921482e-02
      1.22381281e-02 2.21540891e-02 2.52953321e-02 7.83035904e-03 0.
      -1.72447953e-02 -7.60954842e-02 -7.36314133e-02 -5.40459119e-02
      -6.35592863e-02 -4.17739116e-02 2.56619677e-02 1.47401718e-02
      2.02471055e-02 -3.28805707e-02 0. 0. -3.62752266e-02
      -6.19670525e-02 -4.12721299e-02 -6.11488074e-02 -5.69091700e-02
      -2.96981976e-04 4.34253141e-02 1.73271708e-02 2.69223545e-02
      -3.90812233e-02 0. 0. -3.89792002e-03 -7.90730119e-02
      -3.50173824e-02 -2.48606373e-02 6.41408795e-03 3.70420218e-02
      3.00046466e-02 8.21644999e-03 -6.64962176e-03 -3.58192697e-02 0.
      0. -4.65998519e-03 -6.35332242e-02 -4.54028398e-02 2.46716023e-04
      4.41501960e-02 4.41946685e-02 3.45000811e-02 4.67968732e-03
      -5.72741637e-03 0. 0. 0. -3.29845920e-02 1.74016748e-02
      -1.31156622e-02 -1.94923952e-03 8.79405532e-03 1.81263294e-02
      2.87015922e-02 -5.71521185e-03 -4.31794673e-03 -5.64110558e-03 0.
      0. -1.04091177e-02 1.87848546e-02 -1.31649682e-02 3.96894962e-02
      1.86223239e-02 1.99336465e-02 2.19907369e-02 3.24653685e-02
      -4.50557061e-02 -9.60930903e-03 0. 0. -9.99999978e-03
      1.49016778e-04 -2.29593106e-02 2.49016527e-02 -4.87951841e-03
      1.26483748e-02 -3.36111896e-02 2.15966627e-03 -6.80469275e-02
      -2.89323274e-02 7.83035904e-03 0. 0. -8.86344630e-03
      -3.01354993e-02 2.05718130e-02 4.23313417e-02 5.83576458e-03
      -2.87156384e-02 -3.53163294e-02 -3.16948593e-02 -3.23059484e-02 0.
      0. -4.55170870e-02 -3.88667472e-02 1.91305298e-03 7.37224668e-02
      4.58580069e-02 -4.30748053e-02 -1.32197058e-02 -3.09470054e-02
      -3.43144387e-02 -2.46599857e-02 7.83035904e-03 0. -9.77516919e-02
      -3.97394262e-02 3.08331400e-02 -9.16550402e-04 -1.99362021e-02
      6.37384923e-03 2.19238177e-02 3.94576192e-02 -2.57896110e-02
      9.21831094e-03 0. 0. 9.55473073e-03 4.24955599e-02 -9.48332995e-03
      -3.93890925e-02 -1.60076823e-02 -2.77617890e-02 -1.44819058e-02
      -2.06572358e-02 4.15108502e-02 2.07830239e-02 0. 0. 2.07273308e-02
      -1.11630196e-02 1.25140408e-02 3.03859413e-02 3.32845971e-02
      1.70491152e-02 1.28303841e-02 -6.10344997e-03 5.45596704e-02
      1.62212122e-02 0. 0. 1.02126636e-01 4.95414669e-03 1.25208925e-02
      -2.93612462e-02 -5.84796071e-02 -9.65115950e-02 -4.11253944e-02
      2.68929694e-02 8.34918097e-02 0. 0. 0. 4.64492775e-02
      5.87410852e-02 2.34618620e-03 -2.70538218e-02 -2.54239403e-02
      -3.01392144e-03 0. 0. 0. 0. 0. -5.64110558e-03 0. 0.
      7.83035904e-03 1.56607181e-02 7.83035904e-03 7.83035904e-03
      1.56607181e-02 0. 0. 0. 0.</_>
    <_>
      0. 0. 0. 0. 0. 0. 0. 0. 0. 0. -9.99999978e-03 0. 0. 0. 0. 0.
      -1.86810065e-02 -4.59803715e-02 -1.83795616e-02 -3.49336080e-02
      3.00373696e-02 4.76041399e-02 -1.99999996e-02 4.98355879e-03 0. 0.
      0. -9.34050325e-03 -3.42889316e-02 -4.25772816e-02 -7.10387230e-02
      -7.55556161e-03 1.64741017e-02 4.39328328e-02 3.58703174e-02
      4.98355879e-03 0. 0. 0. -5.11359714e-04 -4.39284630e-02
      -5.33126062e-03 -9.68073774e-03 3.05742808e-02 2.08535735e-02
      -2.53309812e-02 7.50363851e-03 0. 0. 0. 0. -4.58971150e-02
      -3.16225998e-02 -1.13055548e-02 9.46846977e-03 4.96319756e-02
      2.97048073e-02 -5.09459246e-03 -8.90748634e-04 0. 0. 0.
      -2.06378251e-02 -6.13051951e-02 -1.33664943e-02 -1.31765613e-02
      1.89595316e-02 8.34065489e-03 -5.33829769e-03 1.41030522e-02
      -2.78994218e-02 0. 0. -3.33730951e-02 -3.59672010e-02
      -3.40395011e-02 -1.56123657e-03 3.35326628e-03 -1.74632971e-03
      -6.05328532e-04 2.62209363e-02 -3.31487251e-03 -4.23519388e-02 0.
      0. -5.16992509e-02 -3.03997379e-02 3.59644368e-02 2.24741045e-02
      -3.64413261e-02 1.34590250e-02 -1.91926304e-03 -1.97196510e-02
      -3.55502516e-02 -1.22017162e-02 0. 0. -2.92014442e-02
      -2.47823838e-02 2.62726955e-02 -6.42155623e-03 1.14537627e-02
      1.86162104e-03 -3.29300165e-02 7.60635361e-03 -6.39379993e-02
      -2.10139770e-02 0. 0. -1.15502533e-02 -6.26298711e-02
      2.98771122e-03 4.20139022e-02 -1.06444703e-02 -3.81970475e-03
      -5.91499312e-03 -3.82300019e-02 -7.44961128e-02 -5.25068752e-02
      4.98355879e-03 0. -3.01923119e-02 -5.44938259e-02 -3.27137448e-02
      -2.23064516e-03 -1.95493661e-02 -1.43852271e-02 -3.05420104e-02
      -4.57546264e-02 -7.67725334e-02 -3.34272496e-02 0. 0.
      -2.86212135e-02 -5.76698892e-02 -5.83166396e-03 2.94508711e-02
      5.54191973e-03 -1.01709571e-02 -2.40552123e-03 -4.05998826e-02
      -3.41117196e-02 0. 4.98355879e-03 0. -3.94307869e-03
      1.46542732e-02 1.05050933e-02 -1.34990169e-02 -1.37109421e-02
      1.17638204e-02 -3.75809632e-02 2.73940526e-02 6.47953898e-02
      9.27251671e-03 0. 0. 5.64286560e-02 8.93334597e-02 2.59704180e-02
      2.10916698e-02 1.98199451e-02 -5.96728874e-03 -1.37063321e-02
      -5.61028160e-03 5.50886802e-02 1.50475828e-02 0. 0. 6.88271597e-02
      2.05449127e-02 9.44080763e-03 1.81359369e-02 3.36640216e-02
      4.19116765e-03 3.04654296e-02 1.43333692e-02 4.81043458e-02
      7.02936063e-03 0. 0. 9.11504701e-02 7.45224208e-02 6.80207014e-02
      -2.40109768e-03 -5.58754755e-03 -6.61990196e-02 -3.88270393e-02
      4.36863583e-03 4.88245152e-02 4.19184100e-03 0. 0. 3.44520621e-02
      7.35560060e-02 6.34677615e-03 -3.58629785e-02 -3.86400446e-02
      -4.74144295e-02 -4.27969880e-02 -1.99999996e-02 0. 0. 0. 0. 0. 0.
      4.98355879e-03 9.96711757e-03 4.98355879e-03 4.98355879e-03
      9.96711757e-03 0. 0. 0. 0.</_>
    <_>
      0. 0. 0. 0. 0. 0. 0. 0. 0. 0. 0. 0. 0. 0. 0. 0. 0. -3.52711207e-03
      -1.63396616e-02 -1.53871635e-02 8.73498560e-04 9.57451463e-02
      -9.99999978e-03 9.39307082e-03 0. -1.16055959e-03 -2.56125489e-03
      -1.35271121e-02 -7.71714970e-02 -1.26286238e-01 -8.75144005e-02
      -3.49712223e-02 -1.40353991e-02 -1.54310642e-02 -2.33687703e-02
      9.39307082e-03 0. -2.56125489e-03 -2.56125489e-03 -5.13550080e-02
      -9.91836712e-02 -5.90102114e-02 -3.84930708e-02 3.67084518e-02
      1.48051027e-02 5.08631172e-04 -3.24432254e-02 0. 0.
      -5.12250978e-03 0. -7.82422498e-02 -6.01026602e-02 -8.47732648e-02
      3.45065142e-03 3.39631215e-02 -5.31695737e-03 1.88335730e-03
      -4.21989225e-02 0. 0. -2.56125489e-03 0. -5.27632535e-02
      -9.18195583e-03 5.42142875e-02 -1.52185773e-02 -1.07421940e-02
      -3.90825532e-02 -1.47845121e-02 -4.88408469e-02 0. 0. 0.
      -7.14674406e-03 -1.63764320e-02 3.01053356e-02 6.48052692e-02
      -2.21283343e-02 4.25323062e-02 7.56417215e-02 6.72046840e-02 0. 0.
      0. -3.33436318e-02 2.81151049e-02 2.36928798e-02 4.92017493e-02
      3.56151583e-03 -3.13291065e-02 -2.91012949e-03 9.22440067e-02
      4.29942124e-02 0. 0. -5.56741050e-03 -9.00612772e-03
      3.88233289e-02 2.42031273e-02 2.16488745e-02 2.07267981e-02
      7.22666904e-02 -1.57803074e-02 7.06932172e-02 -5.76689700e-03
      -9.99999978e-03 0. 0. -3.64192873e-02 -3.76978889e-03
      1.49419038e-02 2.00765282e-02 -2.98729353e-02 4.44378965e-02
      1.71591509e-02 -1.45270396e-02 8.78614187e-03 -1.99999996e-02
      9.39307082e-03 0. -2.56125489e-03 -5.12250978e-03 -7.39025325e-02
      3.86870862e-03 3.37431766e-02 -1.22159468e-02 -1.76774561e-02
      -1.99563932e-02 -1.06069287e-02 0. 0. 0. 0. -1.23822484e-02
      3.83812264e-02 8.80577490e-02 1.41017744e-02 -1.00020971e-02
      -1.86003242e-02 -4.07731067e-03 2.16658023e-04 0. 9.39307082e-03
      -1.71562601e-02 -8.31728056e-02 -2.61459742e-02 2.68307813e-02
      2.44568009e-02 2.78789224e-03 2.20949482e-02 2.04000548e-02
      4.72684763e-02 7.43212104e-02 1.50566902e-02 0. -2.43946221e-02
      -1.37792034e-02 1.04605351e-02 -3.00122816e-02 -2.71998625e-03
      -1.99948507e-03 -1.48610873e-02 3.05327331e-03 3.74863632e-02
      7.71853626e-02 3.53107080e-02 0. -1.62725057e-02 1.21741672e-03
      -2.67101582e-02 2.48340424e-02 2.98001245e-02 1.90486722e-02
      1.37784285e-02 5.06611317e-02 6.39763176e-02 6.99255764e-02
      1.61124170e-02 0. 0. 6.55871853e-02 1.27705727e-02 4.38451301e-03
      -2.24765111e-02 -7.04009160e-02 -7.07429945e-02 2.13880725e-02
      7.47034997e-02 8.58694687e-02 0. 0. 0. 4.87436466e-02
      5.27456328e-02 -2.30851080e-02 -4.86042053e-02 -1.63375419e-02
      -5.12250978e-03 -5.12250978e-03 -5.12250978e-03 -5.12250978e-03
      -2.56125489e-03 0. 0. 0. -1.99999996e-02 9.39307082e-03
      1.87861416e-02 9.39307082e-03 9.39307082e-03 1.87861416e-02 0.
      -2.56125489e-03 -5.12250978e-03 0.</_>
    <_>
      0. 0. 0. 0. 0. 0. 0. 0. 0. 0. 0. 0. 0. 0. 0. 0. 0. -5.96925337e-03
      4.03074687e-03 -1.38210161e-02 1.13681897e-04 -4.36887331e-03 0.
      4.78035724e-03 0. 0. 0. 0. -1.19385067e-02 -3.18493322e-02
      -6.80847690e-02 -1.30683668e-02 8.38533137e-03 -3.56319137e-02
      -1.90692674e-02 4.78035724e-03 0. 0. 0. -5.96925337e-03
      -4.09966297e-02 -8.37672651e-02 -6.12790883e-02 2.49346113e-03
      3.40394229e-02 -2.01186072e-02 -2.02898346e-02 0. 0. 0. 0.
      -1.97051242e-02 -7.13446140e-02 -7.35985339e-02 -1.01521965e-02
      5.80415130e-02 -1.84536129e-02 -9.97738913e-03 -2.05646660e-02 0.
      0. 0. -8.93270317e-03 -7.56285116e-02 -5.29887080e-02
      -1.63807608e-02 1.77645292e-02 -6.32213720e-04 -9.03701130e-03
      -8.47276766e-03 -7.05427006e-02 0. 0. -3.88951711e-02
      -4.00994197e-02 -4.16675732e-02 -1.89542193e-02 -3.43149193e-02
      -4.39074971e-02 -3.03467177e-02 3.56427804e-02 2.02732123e-02
      -3.08542978e-02 -2.96344934e-03 0. -6.10395633e-02 -4.79741283e-02
      4.64812107e-02 -1.33458627e-02 -1.85902212e-02 8.90624337e-03
      -1.17771886e-02 5.56334592e-02 3.35694812e-02 -5.96925337e-03
      -2.96344934e-03 0. -5.40708080e-02 -2.52126940e-02 -8.83707590e-03
      -4.45770808e-02 4.58339258e-04 7.47555420e-02 9.88023076e-03
      -6.62996387e-03 7.85125128e-04 0. 0. 0. -4.24490049e-02
      3.26562766e-03 2.45181173e-02 2.53438372e-02 -2.37095985e-04
      -4.44239355e-04 2.06333585e-03 -1.51190795e-02 -5.49636856e-02 0.
      4.78035724e-03 0. -4.69299704e-02 -1.09840762e-02 -3.22896205e-02
      2.41867229e-02 -1.90999091e-03 -3.41704153e-02 6.73064031e-03
      -2.05234122e-02 -7.81800970e-02 0. 0. 0. -4.62833419e-02
      -9.44629963e-03 -3.81556675e-02 1.07755467e-01 3.96965444e-02
      1.84138082e-02 1.29163656e-02 -1.68992076e-02 -1.17309103e-02 0.
      4.78035724e-03 0. -5.15258461e-02 3.15269120e-02 -1.22155389e-02
      2.64198743e-02 3.93800344e-03 1.00918785e-02 1.20300455e-02
      1.28709450e-02 3.78710181e-02 4.28062677e-03 0. 0. 4.23122011e-02
      4.37424481e-02 1.67216189e-04 -8.67598504e-03 -1.02655599e-02
      -1.89299677e-02 1.76396538e-02 -1.40121467e-02 6.37991950e-02
      9.67318937e-03 0. 0. 7.34779015e-02 -2.54763234e-02 8.08021054e-03
      1.78284440e-02 5.32442592e-02 5.25353886e-02 3.08879353e-02
      7.38816708e-02 5.60799800e-02 0. 0. 0. 1.16190143e-01
      1.06057383e-01 3.45857888e-02 -1.61887314e-02 -5.98938130e-02
      -5.67822866e-02 -9.57467407e-03 6.20015785e-02 6.85431361e-02 0.
      0. 0. 5.31025752e-02 9.77380723e-02 1.52030997e-02 -3.92708443e-02
      -2.76286472e-02 -1.50077185e-02 0. 0. 0. 0. 0. 0. 0. 0.
      4.78035724e-03 9.56071448e-03 4.78035724e-03 4.78035724e-03
      9.56071448e-03 0. 0. 0. 0.</_>
    <_>
      0. 0. 0. 0. -8.87297839e-03 0. 0. 0. 0. 0. 0. 0. 0. 0.
      -1.02892490e-02 -6.12061433e-02 -7.69027844e-02 -7.29766935e-02
      -2.88053639e-02 1.68563984e-02 4.03323732e-02 5.86236082e-02 0.
      7.92873092e-03 0. 0. -1.73917729e-02 -5.15516847e-02
      -6.08211495e-02 -9.61708203e-02 -7.42250979e-02 -3.06938123e-03
      3.48984413e-02 6.88480809e-02 6.00588135e-02 7.92873092e-03 0. 0.
      -3.15100700e-02 -3.45994867e-02 -4.25470807e-02 -3.63798924e-02
      -3.80015485e-02 3.17503698e-04 2.16205902e-02 -2.58166548e-02
      3.87287838e-03 0. 0. 0. -1.30233252e-02 -4.08116654e-02
      -7.75417462e-02 -1.25714233e-02 5.26022650e-02 9.64431185e-03
      1.95332952e-02 -2.04598233e-02 -1.43174622e-02 0. 0. 0. 0.
      -2.30834377e-03 -3.74913216e-02 -1.51744029e-02 -3.82217299e-03
      3.42455544e-02 -8.27441271e-03 -1.75246596e-03 -6.60361797e-02 0.
      0. -2.37489417e-02 -1.65910448e-03 1.16272243e-02 6.18216097e-02
      4.47117500e-02 4.67850501e-03 8.27830285e-03 7.54612824e-03
      -2.55265329e-02 -5.27432859e-02 0. 0. -7.89652914e-02
      9.17641632e-03 8.63809958e-02 6.88132495e-02 -2.26407051e-02
      -8.71994998e-03 -8.34576041e-03 -2.31684446e-02 -1.12959649e-02
      -2.00454108e-02 0. 0. -1.06771477e-02 1.61670763e-02
      6.54235408e-02 2.08434206e-03 -3.46099623e-02 2.69968575e-03
      -1.25319241e-02 -1.87627729e-02 -1.21561112e-02 0. 0. 0. 0.
      4.82292613e-04 5.04281037e-02 4.98037674e-02 1.38968108e-02
      3.29478420e-02 -1.75157059e-02 1.29485773e-02 5.85746253e-03 0.
      7.92873092e-03 0. 0. -1.08871581e-02 -4.35924977e-02
      8.89585074e-03 4.07337472e-02 3.35012749e-03 -1.01071680e-02
      2.71170158e-02 7.92873092e-03 0. 0. 0. -2.30834377e-03
      -2.71365475e-02 -3.77718583e-02 8.01771805e-02 2.27122623e-02
      2.67546973e-03 1.01538515e-03 2.77416762e-02 1.96164250e-02 0.
      -1.70238811e-04 0. -3.02332523e-03 -1.10190418e-02 4.98064384e-02
      2.65817270e-02 -1.27590308e-02 3.11645679e-02 2.60822363e-02
      1.05926007e-01 7.19278082e-02 1.16876941e-02 -8.09897017e-03 0.
      6.07303903e-02 1.79638211e-02 3.41571644e-02 2.05518375e-03
      4.93736763e-04 1.65670167e-03 5.19126132e-02 3.98101807e-02
      5.45824170e-02 2.64620986e-02 0. -1.17192119e-02 2.95893271e-02
      -8.98688938e-03 -2.97967345e-02 2.87858676e-02 2.67817620e-02
      5.65087982e-02 8.23620558e-02 8.53642821e-02 6.57578558e-02
      5.39109064e-03 0. -1.50495674e-02 2.39973571e-02 5.25352359e-02
      5.28389728e-03 -3.71712558e-02 -1.44027863e-02 1.02411462e-02
      2.43787970e-02 3.76312360e-02 5.60992733e-02 0. 0. -7.14981637e-04
      2.93330420e-02 2.96288505e-02 -3.14030647e-02 -4.10278328e-02
      -9.40562598e-03 0. 0. 0. 0. 0. 0. 0. 0. 0. 7.92873092e-03
      1.58574618e-02 7.92873092e-03 7.92873092e-03 1.58574618e-02 0. 0.
      0. 0.</_>
    <_>
      0. 0. 0. 0. 0. 0. 0. 0. 0. 9.86980833e-03 0. 0. 0. 0. 0. 0. 0.
      -1.74215510e-02 -1.01944990e-03 -5.51900789e-02 -9.99687146e-03
      7.17021078e-02 4.93490417e-03 6.73983060e-03 0. 0. 0. 0.
      -1.71350539e-02 -5.55035844e-02 -7.85460174e-02 -3.31073254e-02
      -2.08830442e-02 7.44322315e-03 6.73527271e-02 6.73983060e-03 0. 0.
      0. -1.14313755e-02 -8.12037364e-02 -8.86001810e-02 -5.78508042e-02
      3.46501470e-02 4.72787805e-02 -2.85199806e-02 -6.37144744e-02
      -3.14740930e-03 0. 0. 0. -3.76357138e-02 -8.37482512e-02
      -5.08063920e-02 -3.65490317e-02 2.59360503e-02 -1.59371924e-03
      4.70999666e-02 -1.35366498e-02 -3.14740930e-03 0. 0. 0.
      -6.40160739e-02 -2.67097801e-02 1.96499769e-02 -1.33974254e-02
      4.22820672e-02 -1.50287254e-02 3.36642303e-02 -5.41952364e-02 0.
      0. 0. 0. -3.10763232e-02 -1.92005038e-02 1.61749274e-02
      -3.53346840e-02 5.40720206e-03 6.10073730e-02 3.25215119e-03
      -7.39667341e-02 0. -8.28423165e-03 -7.74391741e-02 3.21403965e-02
      3.89177613e-02 4.39532101e-02 -5.91766834e-02 3.92708788e-03
      -3.14933732e-02 3.19960415e-02 -7.58394748e-02 -8.21446255e-02 0.
      0. -6.10546879e-02 4.14881036e-02 4.94949482e-02 -2.92829946e-02
      -3.29757035e-02 -9.52226017e-03 -1.70927262e-03 2.47976594e-02
      -6.18566945e-02 -8.34963750e-04 0. 0. -3.79481958e-03
      -2.69131706e-04 4.15493138e-02 5.99269047e-02 -3.25773703e-03
      1.32669173e-02 -2.92409700e-03 2.79641734e-03 9.47948638e-03 0.
      6.73983060e-03 0. -1.04861073e-02 -1.11671001e-01 -2.39372700e-02
      2.03452632e-02 3.48326713e-02 -1.96651779e-02 5.31464862e-03
      2.74251755e-02 2.94501125e-03 0. 0. 0. -6.89910129e-02
      -7.08837584e-02 -5.26247881e-02 4.49854098e-02 3.89787951e-03
      -2.26539485e-02 1.27738528e-02 -1.40087260e-03 1.44073153e-02 0.
      6.73983060e-03 -9.99999978e-03 -5.10955416e-02 5.47344610e-03
      7.58287497e-03 1.38944266e-02 -8.77263676e-03 2.95044072e-02
      3.03935781e-02 7.03722909e-02 9.66925621e-02 1.40178259e-02 0.
      -1.44259809e-02 3.69283371e-02 1.04935467e-01 -2.15453375e-02
      -1.27868950e-02 -1.91516709e-02 -2.30065044e-02 -1.55451056e-02
      5.45337573e-02 7.38521069e-02 4.38827947e-02 0. -1.44259809e-02
      3.29774059e-02 6.19391613e-02 1.56927053e-02 1.42036900e-02
      1.96185149e-02 7.74478400e-03 4.19087932e-02 9.53074768e-02
      7.02501386e-02 1.25753311e-02 0. -9.99999978e-03 7.58360997e-02
      5.08007184e-02 4.58479077e-02 -3.91101092e-02 -5.76680675e-02
      -6.46110848e-02 -6.97942078e-03 7.69721270e-02 8.51523653e-02 0.
      0. 0. 6.22813031e-02 8.40393305e-02 -1.69430841e-02
      -6.04491644e-02 -6.51093721e-02 -9.99999978e-03 0. 0. 0. 0. 0. 0.
      0. 0. 6.73983060e-03 1.34796612e-02 6.73983060e-03 6.73983060e-03
      1.34796612e-02 0. 0. 0. 0.</_>
    <_>
      0. 0. 0. 0. 0. 0. 0. 0. 0. 1.87451849e-04 0. 0. 0. 0. 0. 0. 0. 0.
      3.17214290e-03 -1.72055699e-02 2.25841794e-02 5.95036112e-02
      9.37259247e-05 9.99999978e-03 0. 0. 0. 0. -4.03817520e-02
      -5.45926727e-02 -1.05395630e-01 -2.65954789e-02 -1.83763297e-03
      3.51396985e-02 4.78292294e-02 9.99999978e-03 0. 0. -1.49636148e-02
      -1.74818076e-02 -4.47778367e-02 -8.37910846e-02 -2.06731558e-02
      1.31229032e-02 -7.25084776e-03 -2.99516562e-02 -3.95847671e-02 0.
      0. 0. -1.49636148e-02 -2.78232880e-02 -8.31678435e-02
      -7.90101290e-02 -8.57675076e-03 2.97571812e-02 1.14855152e-02
      2.92169005e-02 1.09625561e-02 0. 0. 0. -2.57824007e-02
      -7.48013705e-02 -9.54383463e-02 -2.75759622e-02 -2.21153852e-04
      2.75515653e-02 3.02173756e-02 -6.43283222e-03 -5.95096573e-02 0.
      0. -7.48180738e-03 -3.18785422e-02 -8.21859688e-02 -2.32177489e-02
      1.73327830e-02 2.21480615e-02 2.10620742e-02 4.39321138e-02
      1.76459495e-02 -6.62916377e-02 0. 0. -6.66809455e-02
      -1.04192337e-02 -9.73130856e-03 2.97035221e-02 -9.40673240e-03
      7.23345354e-02 1.74745955e-02 2.70238277e-02 -3.47702689e-02
      -4.04089317e-02 0. 0. -4.16704118e-02 1.44400243e-02
      1.92598365e-02 1.38624413e-02 6.17425255e-02 4.26032767e-02
      5.05313044e-03 1.17624039e-02 -7.62312785e-02 -6.43981397e-02 0.
      0. -1.49636148e-02 -2.79784631e-02 4.04130407e-02 5.49689941e-02
      3.56540531e-02 3.53178717e-02 1.87599158e-03 -1.57310732e-03
      -4.38159667e-02 -2.17100009e-02 9.99999978e-03 0. 0.
      -3.34481485e-02 -7.42401183e-02 1.67229809e-02 1.33803124e-02
      1.07774092e-02 -1.04888678e-02 -1.88395251e-02 -7.72600174e-02
      -7.23049091e-03 0. 0. -1.29943318e-03 -8.78124032e-03
      2.05085776e-03 6.72109723e-02 3.01264487e-02 -1.88152976e-02
      -2.98802815e-02 -4.44522761e-02 -3.88745368e-02 0. 9.99999978e-03
      -7.48180738e-03 -4.08103690e-02 -4.21003671e-03 5.65674044e-02
      6.17817370e-03 1.11716834e-03 1.78502314e-02 -4.55678254e-03
      2.50689965e-02 4.34465632e-02 8.68972950e-03 0. -1.49636148e-02
      1.37192449e-02 4.26574275e-02 -3.88424620e-02 5.74663922e-04
      -7.23832706e-03 -7.33474316e-03 8.78295302e-03 -3.81977111e-02
      6.97277933e-02 4.38914262e-02 0. -7.48180738e-03 1.37900067e-02
      -1.72327571e-02 -3.19374315e-02 2.64799036e-02 4.46641222e-02
      5.58680147e-02 3.55428681e-02 1.66164842e-02 5.45583554e-02
      1.90107860e-02 0. -9.48769599e-03 4.69510294e-02 2.41399240e-02
      2.95147914e-02 -1.10406606e-02 -5.64004853e-02 -6.06339090e-02
      -3.33332606e-02 4.01490331e-02 7.94358104e-02 0. 0. 0.
      5.67704067e-02 7.22526312e-02 -1.96977127e-02 -2.25403998e-02
      -1.52587974e-02 -3.44609804e-02 -7.23049091e-03 0. 0. 0. 0. 0. 0.
      0. 9.99999978e-03 1.99999996e-02 9.99999978e-03 9.99999978e-03
      1.87354479e-02 0. 0. 0. 0.</_>
    <_>
      0. 0. 0. 0. 0. 0. 0. 0. 0. 0. 0. 0. 0. 0. 0. 0. 4.82908869e-03
      1.63245574e-02 1.94069254e-03 4.04696018e-02 3.54072526e-02
      -5.34095615e-03 0. 0. 0. 0. -1.57870278e-02 -8.66740718e-02
      -7.95286670e-02 -1.50192715e-02 2.30866447e-02 9.90593107e-04
      2.66102795e-03 -2.53705457e-02 -4.02355529e-02 0. 0.
      5.33148926e-03 -8.73533189e-02 -7.07050562e-02 -7.93602690e-03
      -2.39227824e-02 -5.58242649e-02 -9.95067973e-03 -1.68229435e-02
      5.38406298e-02 -4.48034592e-02 0. 0. -4.97102924e-03
      -8.89834091e-02 -2.63636503e-02 5.68377669e-04 -2.20959317e-02
      -1.33211014e-03 2.83480491e-02 -2.01305281e-02 1.17915543e-02
      -1.97904203e-02 0. 1.06629785e-02 -2.44148113e-02 -9.41566899e-02
      -8.26545153e-03 -1.82330254e-02 2.02199612e-02 5.08242566e-03
      6.94515649e-03 -1.47251636e-02 -4.85011004e-02 9.65427666e-04 0.
      5.33148926e-03 9.92975943e-03 -1.98455248e-02 -2.02733576e-02
      -4.53971215e-02 4.09194604e-02 1.53968427e-02 7.89861456e-02
      -4.51058559e-02 -6.72670230e-02 2.83489712e-02 0. 0.
      3.63570009e-03 2.50568520e-02 -3.01329084e-02 -1.30771510e-02
      4.10404056e-02 7.85468221e-02 9.33209509e-02 -2.89668534e-02
      -2.47735213e-02 3.16555426e-02 0. -1.28791656e-03 3.86174978e-03
      4.35312130e-02 3.08632962e-02 1.05613686e-01 4.25534956e-02
      2.26161559e-03 6.04057126e-02 2.75454801e-02 1.29622109e-02
      -1.38754854e-02 0. 0. -1.12879165e-02 -1.04169799e-02
      -6.20794520e-02 2.45884024e-02 -1.12309828e-02 -1.87448394e-02
      7.11388607e-03 3.99312638e-02 -5.50922044e-02 -4.27734032e-02 0.
      -1.28791656e-03 1.74969260e-03 4.82284240e-02 6.78567812e-02
      5.54160699e-02 2.27874704e-02 1.91304851e-02 -5.44564333e-03
      -4.92480909e-03 -9.04254168e-02 -5.22666201e-02 0. -1.28791656e-03
      -4.22755219e-02 7.54716620e-02 7.11360574e-02 1.56716347e-01
      5.87512180e-02 -2.65869796e-02 -1.25278570e-02 -5.45169599e-02
      -2.23044287e-02 -3.99999991e-02 0. -4.31725639e-04 -1.00041188e-01
      5.26785068e-02 3.51656228e-02 4.18114439e-02 -6.05368242e-02
      -7.50131486e-03 -1.00813052e-02 4.50166725e-02 -3.51230949e-02 0.
      0. -4.31725639e-04 -3.46133858e-03 3.14729735e-02 -5.04452251e-02
      -4.41697463e-02 -4.72340994e-02 -1.68352795e-03 2.04952043e-02
      -2.19408497e-02 -1.60122830e-02 2.90101743e-04 0. 0.
      2.25453414e-02 3.06642260e-02 5.58333099e-02 4.25686166e-02
      -2.79868655e-02 -5.44989780e-02 -1.89474076e-02 9.38646728e-04
      8.46731067e-02 0. 0. 0. 7.83026069e-02 -7.41367228e-03
      1.64623198e-03 -8.26159550e-04 2.53647417e-02 -9.49013978e-03
      6.27148077e-02 1.04652055e-01 7.01171532e-02 0. 0. 0.
      8.18766747e-03 1.72711834e-02 -1.12922005e-02 -1.16160547e-03
      5.68203256e-03 4.50878143e-02 2.06549317e-02 3.03760916e-03
      9.01308283e-03 0. 0. -1.63116436e-02 0. 0. 5.41599281e-03 0. 0. 0.
      0. 0. 0. 0. 0.</_>
    <_>
      0. 0. 0. 0. 0. 0. 0. -9.95113794e-03 0. 0. -9.99999978e-03 0. 0.
      0. 0. 0. -8.56040511e-03 -9.34414193e-02 -1.25214467e-02
      3.28729339e-02 3.00488621e-02 0. -1.99999996e-02 0. 0. 0. 0.
      -1.76757351e-02 -5.78636602e-02 1.62173193e-02 4.39313659e-03
      3.54003012e-02 4.79979254e-02 2.91216280e-02 0. 0. 0. 0. 0.
      2.01785229e-02 2.30306550e-03 6.01156503e-02 -1.29998385e-04
      6.46534888e-03 -1.39135625e-02 -3.74548277e-03 3.38543877e-02 0.
      0. 0. 1.00143375e-02 5.94775937e-03 2.30665114e-02 1.79790482e-02
      2.54168380e-02 8.64904895e-02 2.52962373e-02 -1.13651007e-02
      2.36855708e-02 0. 0. 0. 1.51387006e-02 -2.32560895e-02
      -3.65368463e-03 1.07656559e-02 -1.36261601e-02 3.96365579e-03
      1.24411481e-02 -2.34809797e-02 -1.69860907e-02 0. 0.
      -1.65643841e-02 -2.66462788e-02 -8.04271735e-03 -3.25228721e-02
      1.46692386e-02 -3.02890781e-02 3.54307325e-04 -1.82299688e-02
      -3.19086425e-02 -1.70580074e-02 0. 0. -4.14491817e-02
      -1.69118345e-02 1.23138605e-02 2.18355823e-02 -3.60185392e-02
      5.37076928e-02 2.05188915e-02 -1.70923006e-02 -5.09133711e-02
      3.32177952e-02 0. 0. -2.49930415e-02 -5.41796014e-02
      8.33047032e-02 1.40284409e-03 5.13757393e-02 -9.74672474e-03
      1.40726855e-02 -5.15402248e-03 -5.02423495e-02 -3.53256501e-02 0.
      0. -1.37686068e-02 -8.25144872e-02 -3.21924239e-02 5.77517860e-02
      8.23200680e-03 -1.33661469e-02 1.54688964e-02 -5.96441561e-03
      -7.99961463e-02 -9.24673229e-02 0. 0. -5.48831262e-02
      -5.23688979e-02 4.29617278e-02 -4.72452529e-02 -1.11900913e-02
      -1.52640799e-02 -1.43713248e-03 -4.33328450e-02 -1.02930821e-01
      -7.26574063e-02 0. 0. -4.53980975e-02 3.66596319e-02
      2.82355845e-02 6.36044517e-03 1.91245656e-02 2.18932610e-03
      -1.39521752e-02 -5.31985387e-02 -6.62183613e-02 -4.16646386e-03 0.
      0. 3.77621651e-02 1.06449850e-01 3.11379004e-02 1.26716830e-02
      -3.97748910e-02 7.51439901e-03 -3.14148962e-02 6.03624173e-02
      1.14328764e-01 0. 0. 0. 6.68357015e-02 1.31671116e-01
      3.62794362e-02 4.17837538e-02 -1.91962179e-02 -2.68521812e-02
      -2.80703958e-02 2.75440868e-02 6.99012801e-02 0. 0. 0.
      8.54470506e-02 1.16043754e-01 5.10920435e-02 1.49056930e-02
      -1.29891448e-02 -4.08336669e-02 1.12076551e-02 5.54029532e-02
      1.09731779e-01 0. 0. 0. 5.68640381e-02 1.04563981e-01
      9.81680490e-03 2.02796655e-03 8.41943324e-02 -2.50200555e-02
      2.93580219e-02 8.27110335e-02 6.63830712e-02 0. 0. 0.
      1.90523155e-02 2.26772390e-02 3.86794209e-02 -1.07045034e-02
      -2.95211803e-02 1.01753848e-03 -1.36104692e-02 -1.57956332e-02
      9.99999978e-03 0. 0. 0. 0. 0. 0. 0. 0. 0. 0. 0. 0. 0. 0.</_>
    <_>
      0. 0. 0. 0. 0. 0. 0. 0. 0. 0. 0. 0. 0. 0. 0. 0. 5.56904823e-03
      6.28952542e-03 9.69921332e-03 1.37296307e-03 1.76151637e-02
      -1.04368050e-02 0. 0. 0. -2.62825424e-03 -6.42617885e-03
      -2.74462234e-02 -5.13174869e-02 -8.91292002e-03 -5.18726604e-03
      -1.21738035e-02 -3.67556736e-02 -2.28977613e-02 -9.22679380e-02 0.
      0. 3.63862771e-03 -2.45365053e-02 -2.34952345e-02 -2.10758299e-02
      6.77683717e-03 -1.61838699e-02 -1.84825435e-02 -2.81847231e-02
      3.24452259e-02 -2.45149583e-02 0. 0. -2.64742528e-03
      -1.44021921e-02 -9.14710481e-03 1.35296606e-03 -2.98998002e-02
      3.93067263e-02 3.03687975e-02 -4.38537858e-02 -2.06794292e-02
      -4.20123190e-02 0. 1.98493619e-02 -6.28605299e-03 2.84981802e-02
      7.16974214e-03 2.58506611e-02 6.60578161e-02 -2.84552500e-02
      -7.06115514e-02 -3.47230360e-02 -4.74637784e-02 1.14851892e-02 0.
      9.92468093e-03 3.73157859e-02 2.77896896e-02 -4.74527851e-03
      1.15099102e-02 1.93324350e-02 -5.98846972e-02 4.84384932e-02
      2.60103680e-02 2.85557844e-02 5.07050902e-02 0. 0. 2.27242913e-02
      3.45329531e-02 -1.35087157e-02 3.68775390e-02 2.14765556e-02
      2.42251344e-02 2.57988051e-02 4.92147058e-02 6.43703490e-02
      5.46710417e-02 0. -9.99999978e-03 1.57785844e-02 2.22586878e-02
      6.92195371e-02 8.36679339e-02 6.70874566e-02 5.28075248e-02
      4.18080539e-02 4.03708443e-02 6.45053461e-02 -9.99999978e-03 0. 0.
      -4.46967073e-02 -9.59098060e-03 -6.32380992e-02 4.08128649e-02
      -2.88522001e-02 3.53845097e-02 3.89623754e-02 3.29659181e-03
      2.33794097e-02 -1.99999996e-02 0. 0. -9.44726728e-03
      1.29159242e-02 2.83110738e-02 2.01339182e-02 7.73166120e-03
      -3.02612297e-02 -5.19950967e-03 -9.68625303e-03 -1.72000974e-02 0.
      0. 0. -8.92890245e-03 9.05194208e-02 1.04021177e-01 1.21198766e-01
      -8.93045217e-03 1.24197407e-02 -2.40289848e-02 9.45807248e-03
      1.40935630e-02 0. 0. -1.02678789e-02 -6.74524456e-02
      7.52688199e-02 6.02816092e-03 4.29127477e-02 -2.20656916e-02
      -1.88042112e-02 7.01479148e-04 3.70786823e-02 8.11212361e-02 0. 0.
      -2.55555157e-02 -7.19914865e-03 -1.88852660e-02 -6.42063469e-02
      -1.77634172e-02 -2.46848036e-02 -1.85600743e-02 -8.32092948e-03
      6.25560433e-02 3.29782367e-02 0. 0. 0. -2.61350945e-02
      3.24685983e-02 2.64560357e-02 2.70198006e-02 -5.36495633e-02
      -4.90719192e-02 2.48336289e-02 7.96332583e-02 6.86639026e-02 0. 0.
      0. 4.08612229e-02 -6.93055848e-03 -2.17919853e-02 1.80569887e-02
      1.75808445e-02 1.19156437e-02 8.21160898e-02 1.12473600e-01
      6.97692260e-02 0. 0. 0. 2.19758600e-02 -5.04528405e-03
      -4.05984931e-02 -1.75222065e-02 1.08270589e-02 3.31028998e-02
      1.33677491e-03 -8.91913753e-03 -2.57210596e-03 -6.28605299e-03 0.
      0. 0. -1.00014918e-03 3.32062435e-03 0. 0. 0. 0. 0.
      -6.28605299e-03 -1.25721060e-02 0.</_>
    <_>
      0. 0. 0. 0. 0. 0. 0. 0. 0. 0. 0. 0. 0. 0. 0. 0. 8.55003018e-03
      8.55003018e-03 2.24031340e-02 8.22790898e-03 8.51911958e-03
      -3.80907133e-02 0. 0. 0. 0. 0. 0. 2.45151632e-02 8.08418170e-02
      3.63064781e-02 1.29974680e-02 4.35493775e-02 -7.63926357e-02
      -5.07042110e-02 0. 0. 4.57705045e-03 4.57705045e-03 1.85500309e-02
      1.73673164e-02 -1.97896566e-02 -4.15095687e-02 -6.32545650e-02
      -2.23175883e-02 3.88535708e-02 -2.09629498e-02 0. 0.
      4.57705045e-03 2.74033775e-03 3.62768099e-02 3.38165909e-02
      9.56648204e-04 2.69892402e-02 4.52918150e-02 -2.80545261e-02
      -3.87331657e-02 -3.18026282e-02 0. 9.15410090e-03 0.
      2.43432503e-02 -1.95822213e-02 -1.27438558e-02 5.00220200e-03
      -4.32588868e-02 -5.54035679e-02 -2.28764564e-02 -4.69156206e-02
      -2.76345462e-02 0. 4.57705045e-03 -2.13584770e-02 -9.94134787e-03
      -2.30904408e-02 -5.33683114e-02 -5.64586669e-02 -7.60876238e-02
      -3.24329436e-02 2.19700951e-02 3.35672200e-02 1.18710240e-02 0. 0.
      -3.66936438e-02 -7.75497481e-02 -1.27596306e-02 -2.91707888e-02
      2.38568205e-02 3.67174111e-02 2.48915851e-02 5.16731478e-02
      5.80129288e-02 4.05375510e-02 0. 0. -4.26530503e-02
      -2.73309369e-02 2.17522811e-02 4.33791578e-02 6.66311830e-02
      7.60008916e-02 4.34520245e-02 -2.90371533e-02 6.42435402e-02 0. 0.
      0. -4.76061180e-02 -3.03959176e-02 -2.99550854e-02 8.32446665e-03
      -3.19227688e-02 -4.79132682e-02 2.49985196e-02 -1.42611482e-03
      -1.69455260e-02 0. 0. 0. -3.82032953e-02 7.34965829e-03
      2.75453627e-02 -5.04703587e-03 -1.75882690e-02 -2.88178790e-02
      3.58316377e-02 7.94815307e-04 -5.87284304e-02 0. 0. 0.
      -6.44751042e-02 4.72456217e-02 -3.13874856e-02 9.78562981e-02
      3.58146019e-02 1.75528340e-02 7.71092670e-03 -4.98300008e-02
      8.55647679e-03 0. 0. -1.63465680e-03 -3.49920318e-02
      9.47534740e-02 1.91320628e-02 6.35165721e-02 1.40316514e-02
      1.72357503e-02 1.88454129e-02 -2.24989206e-02 6.95906579e-02 0. 0.
      0. 1.27225043e-02 4.47397567e-02 -1.71583518e-02 8.78192484e-03
      -1.64540187e-02 2.71775406e-02 1.76282842e-02 2.61000209e-02
      5.35301119e-02 0. 0. 0. 6.38907328e-02 2.05486417e-02
      2.93253809e-02 4.55111563e-02 1.69429276e-03 1.05540932e-03
      5.60141122e-03 8.74118805e-02 8.32830444e-02 0. 0. 0.
      7.96959326e-02 7.26827011e-02 -2.37652734e-02 -1.49641670e-02
      -4.36582370e-03 4.15403321e-02 8.11769143e-02 1.12451084e-01
      6.07881732e-02 0. 0. 0. 1.54990833e-02 2.66687144e-02
      4.08293493e-02 -1.17312120e-02 -6.90044230e-03 3.62293683e-02
      1.98361166e-02 8.92067328e-03 6.95373444e-03 0. 0. 0. 0. 0. 0. 0.
      0. 0. 0. 0. 0. 0. 0.</_>
    <_>
      0. 0. 0. 0. -1.42969878e-03 0. 0. 0. 0. 0. 0. 0. 0. 0.
      -1.32815149e-02 -4.61221524e-02 -4.89245988e-02 -5.74024022e-02
      -6.50285371e-03 9.61443502e-03 2.19315495e-02 0. 0. 0. 0. 0.
      -1.33993747e-02 -3.86959538e-02 -2.59674415e-02 -2.70043034e-03
      8.52385722e-03 2.68416088e-02 5.71649037e-02 1.10212946e-02
      6.33604452e-03 0. 0. 0. -1.53448926e-02 -2.78383773e-02
      1.15914904e-02 1.49033787e-02 -1.56794228e-02 -3.44290063e-02
      -4.45601568e-02 1.55203370e-02 3.51891853e-02 0. 0. 0.
      -8.41208547e-03 4.79386467e-03 1.06086452e-02 5.62951574e-03
      5.72572649e-02 1.91008504e-02 1.06167151e-02 -3.95914614e-02
      -1.44030433e-02 0. 0. 0. 2.57957652e-02 5.85937575e-02
      -8.08605272e-03 -3.51225063e-02 -5.10632023e-02 1.09307207e-02
      -3.63737680e-02 -1.91619841e-03 -1.00971293e-02 0. 0.
      -8.29971395e-03 1.47789940e-02 5.46878539e-02 4.40309532e-02
      9.90462489e-04 -1.23034418e-02 3.17196385e-03 -2.21040603e-02
      -3.90943252e-02 -3.12961414e-02 0. 0. -6.41830564e-02
      3.22047286e-02 6.08550124e-02 4.75548618e-02 -5.74484933e-03
      2.60607675e-02 1.18267760e-02 -3.87903191e-02 2.96516321e-03
      4.13392372e-02 0. 0. 3.25182080e-02 1.30384704e-02 1.45309061e-01
      2.25064233e-02 3.24651301e-02 2.48054136e-03 1.21233035e-02
      -4.38078791e-02 6.92064613e-02 0. 0. 0. 0. 1.56170689e-03
      1.29027003e-02 7.79167385e-05 -3.29434522e-03 3.49334953e-03
      5.70160476e-03 6.23523910e-03 1.12259639e-02 0. 0. 0.
      1.56170689e-03 1.55130099e-03 2.32307073e-02 -4.99312114e-03
      3.84719335e-02 -2.74115484e-02 4.96643037e-03 2.59826817e-02
      2.88565969e-03 0. 0. 0. -2.00539245e-03 1.77181605e-02
      3.00111473e-02 6.40235767e-02 2.51293778e-02 3.94044556e-02
      5.77144139e-03 3.32092196e-02 1.06687183e-02 0. -2.82984460e-03 0.
      3.09192073e-02 6.58177882e-02 3.69835906e-02 7.48068243e-02
      -3.31091471e-02 -2.62476201e-03 2.24233624e-02 8.51379484e-02
      6.33472726e-02 0. -2.82984460e-03 0. 1.80417281e-02 1.93717971e-03
      1.02455579e-02 -9.95078404e-03 1.54049881e-02 1.63883083e-02
      9.47787762e-02 6.54273108e-02 3.32787968e-02 2.05450822e-02 0.
      -1.09757632e-02 1.27399545e-02 4.47104834e-02 1.06254651e-03
      -3.45861568e-04 -3.83529514e-02 6.65919762e-03 8.71358216e-02
      6.62555322e-02 8.19399580e-02 0. 0. -1.03565697e-02 6.35855319e-03
      2.29445398e-02 -2.80578844e-02 2.05888115e-02 5.94154820e-02
      1.04069009e-01 9.18171406e-02 1.23794407e-01 5.18533550e-02 0. 0.
      -3.05353734e-03 -1.05734617e-02 -5.16635878e-03 -1.04473066e-02
      -6.57085702e-03 2.49690395e-02 3.66002060e-02 2.16389410e-02
      1.13314493e-02 1.72433467e-03 0. 0. 0. 0. -4.75627690e-04
      -9.51255381e-04 0. 0. 0. 0. 0. 0. 0. 0.</_>
    <_>
      0. 0. 0. 0. 0. 0. 0. 0. 0. 0. 0. 0. 0. 0. 0. 0. 9.99999978e-03
      3.30128614e-03 3.98881771e-02 -1.33440103e-02 -2.14016307e-02 0.
      0. 0. 0. 0. 0. 0. 3.24734002e-02 5.82628548e-02 2.66233087e-02
      -2.79435003e-03 -5.35454042e-03 -4.15556468e-02 -5.47891110e-03 0.
      0. 9.99999978e-03 9.99999978e-03 2.99999993e-02 -6.29909104e-03
      4.34816873e-04 -3.94646525e-02 -2.63403933e-02 -2.59260237e-02
      1.83272399e-02 2.03282747e-04 -7.43175251e-03 0. 9.99999978e-03 0.
      5.43749072e-02 1.22255608e-02 1.84833594e-02 -1.55193650e-03
      2.27757022e-02 -1.83034129e-02 -1.97133608e-02 -8.30842182e-03
      -2.20053270e-03 1.99999996e-02 0. 3.72968800e-02 1.53273102e-02
      -1.03749689e-02 4.75009345e-03 -4.35786396e-02 1.23801259e-02
      -3.42826801e-03 -4.00971808e-02 3.04934382e-03 -2.20053270e-03
      9.99999978e-03 3.78641151e-02 6.03185669e-02 2.39298251e-02
      -2.71424763e-02 -3.52105661e-03 -9.47023034e-02 2.43125428e-02
      -5.63223008e-03 -1.30565288e-02 -2.26096474e-02 -1.10026635e-03 0.
      -2.61616949e-02 5.91109022e-02 1.25770122e-02 -2.30445862e-02
      -3.72486264e-02 -4.36974829e-03 -4.87919524e-03 4.50834166e-03
      -1.90310869e-02 -7.25398073e-03 0. 0. -7.16355219e-02
      5.70767336e-02 1.51143983e-01 -1.73722499e-03 2.86960043e-02
      -3.20721418e-03 5.32942377e-02 -3.97007838e-02 1.72550958e-02
      -7.76670035e-03 0. 0. -1.13186622e-02 -2.64885183e-02
      -3.93809490e-02 4.42812890e-02 -5.40670864e-02 -3.23648914e-03
      -1.56732313e-02 4.62206304e-02 4.39896621e-02 0. 0. 0.
      -1.95816569e-02 -7.40007609e-02 8.03042427e-02 7.38782063e-02
      2.57930905e-02 -6.03167992e-03 2.47415155e-02 5.33297025e-02
      -7.38580152e-03 0. 0. 0. -8.66621062e-02 4.78429459e-02
      2.11784393e-02 4.10658643e-02 7.87635799e-03 2.04651896e-02
      1.94199625e-02 8.66813702e-04 3.43473814e-02 0. 0. 0.
      -1.65331252e-02 1.37774959e-01 4.67299148e-02 5.19760475e-02
      1.40542630e-02 4.09044139e-03 1.84702035e-02 9.15505290e-02
      1.25380069e-01 0. 0. 0. -3.73656452e-02 1.12826735e-01
      -8.94613266e-02 7.82209449e-03 -7.88305886e-03 6.35274453e-03
      5.13981692e-02 1.07635409e-01 6.41889870e-02 1.20247807e-02 0. 0.
      -2.13253610e-02 8.89408290e-02 3.97846140e-02 2.44830642e-02
      -3.34008485e-02 -2.57830806e-02 5.67665473e-02 1.14078946e-01
      1.29082590e-01 0. 0. 0. 2.69486699e-02 3.65032768e-03
      -1.98432412e-02 5.62673323e-02 4.78083231e-02 1.66178513e-02
      9.60845873e-02 1.81798488e-01 7.97054544e-02 0. -2.90892227e-03 0.
      2.34591477e-02 8.31287820e-03 -6.72269836e-02 -2.54607685e-02
      -2.02144850e-02 8.38077813e-02 3.50986309e-02 7.98483659e-03
      9.99999978e-03 0. 0. 0. 0. 0. 0. 0. 0. 0. 0. 0. 0. 0. 0.</_>
    <_>
      0. 0. 0. 0. 0. 0. 0. 0. 0. 0. 0. 0. 0. 0. 0. 0. 9.92264226e-03
      2.99226418e-02 4.56664525e-02 -6.56860275e-03 1.32828662e-02 0. 0.
      0. 0. 0. 0. 0. -2.80931592e-02 7.63717443e-02 -1.25589939e-02
      3.33996043e-02 -3.02421246e-02 1.37192430e-02 -1.17989024e-02 0.
      0. 6.61627948e-03 -1.33837210e-02 1.99226420e-02 -2.34731920e-02
      -2.18833555e-02 -5.25565334e-02 -4.18652594e-02 -5.78148998e-02
      1.73158590e-02 -2.09742635e-02 0. 0. 6.61627948e-03
      -3.87674617e-03 2.35639233e-02 -1.25509431e-03 -2.76304246e-03
      3.15830037e-02 4.89952192e-02 2.09467467e-02 -1.80881619e-02
      -2.92560998e-02 0. 1.32325590e-02 0. -8.08877498e-03
      -3.83368470e-02 -4.78685796e-02 -3.08273863e-02 -3.57348174e-02
      1.02385851e-02 6.78313226e-02 -7.61490390e-02 2.09441315e-02 0.
      6.61627948e-03 1.44344363e-02 7.52087869e-03 -6.07288145e-02
      -7.75845200e-02 3.63047495e-02 -2.82505024e-02 5.98896556e-02
      -3.41518037e-03 9.63065866e-03 -3.57623175e-02 0. 0.
      -3.00319213e-02 -7.37738796e-03 -1.63383763e-02 2.01317407e-02
      5.51807694e-02 8.08767825e-02 6.64601624e-02 -1.50971534e-02
      2.07497422e-02 -2.90432479e-02 0. 0. -1.79423131e-02
      -3.22039388e-02 7.31175616e-02 1.07907005e-01 8.65417868e-02
      4.22568507e-02 8.08029100e-02 5.86161204e-03 9.29020066e-03
      -9.77237448e-02 0. 0. -1.99999996e-02 -8.88775215e-02
      -4.29217964e-02 9.56057012e-02 6.22570850e-02 -2.06011068e-02
      1.83070004e-02 5.74714225e-03 -4.54255976e-02 -3.78035121e-02 0.
      0. -9.99999978e-03 -1.65543146e-02 3.64851467e-02 2.57703420e-02
      -2.09798082e-03 -1.72452442e-02 3.80287915e-02 -3.20774299e-04
      -1.46009132e-01 -8.42546578e-03 0. 0. -1.73556246e-02
      1.03280574e-01 9.18670222e-02 8.00842121e-02 2.66147945e-02
      1.44725675e-02 -2.22663973e-02 -4.46152203e-02 -6.62844032e-02 0.
      0. -1.78395715e-02 -4.56929356e-02 7.67776594e-02 9.24130753e-02
      4.02314104e-02 -9.34561715e-03 -1.40379462e-02 -9.74656455e-03
      4.30319197e-02 8.28725025e-02 0. 0. -1.99999996e-02
      -1.82722211e-02 5.80847226e-02 -9.12036300e-02 4.19240743e-02
      -2.26149354e-02 1.96848884e-02 2.22154856e-02 5.19093424e-02
      6.61523640e-02 1.17134098e-02 0. -9.99999978e-03 -6.95505459e-03
      2.51561459e-02 3.72434547e-03 5.84044978e-02 2.76062470e-02
      -5.17908782e-02 -3.47639853e-03 3.47953700e-02 1.41230300e-01 0.
      0. -2.78395712e-02 1.50506310e-02 -1.25637781e-02 -3.41323912e-02
      4.23169732e-02 1.62294619e-02 2.02982668e-02 9.46475491e-02
      1.81660488e-01 9.36603844e-02 0. 0. 0. 1.82963461e-02
      2.51017455e-02 -3.79707627e-02 -5.06694010e-03 2.77396329e-02
      4.59450707e-02 2.64634881e-02 9.88693815e-03 9.99999978e-03 0. 0.
      0. 0. 0. 9.99999978e-03 0. 0. 0. 0. 0. 0. 0. 0.</_>
    <_>
      0. 0. 0. 0. 0. 0. 0. -7.09376670e-03 0. 0. -9.99999978e-03 0. 0.
      0. 0. 0. -2.27501732e-03 -6.72390237e-02 -1.63734127e-02
      -3.09215225e-02 -3.46224639e-03 0. -1.99999996e-02 0. 0. 0. 0.
      5.66042326e-02 3.14817987e-02 2.59119533e-02 -3.86976674e-02
      6.24749204e-03 6.16854243e-02 7.98882544e-02 2.53309254e-02 0. 0.
      1.07416473e-02 8.72099325e-02 5.67881688e-02 7.40265800e-03
      5.51450476e-02 5.03937602e-02 2.74406523e-02 -1.94797479e-02
      -3.47500667e-02 9.27963331e-02 0. 0. 2.40049530e-02 7.23903030e-02
      2.24211044e-03 3.58139835e-02 8.46225582e-03 4.78415154e-02
      5.75875603e-02 2.39851829e-02 -4.76349778e-02 4.39992435e-02 0. 0.
      1.99999996e-02 8.66569802e-02 -1.62751637e-02 5.55746164e-03
      -2.58170143e-02 -1.53590320e-03 -1.23253213e-02 -1.09771555e-02
      2.67841965e-02 -1.12274392e-02 0. 0. -2.85362322e-02
      2.67278366e-02 1.59805175e-03 4.20554020e-02 -1.63526163e-02
      -2.45844200e-02 -1.52227860e-02 -2.12875716e-02 2.34145075e-02
      -5.06434031e-02 0. 0. -3.28335054e-02 -6.74741790e-02
      3.35082933e-02 5.97687550e-02 -3.61934491e-02 -2.63011027e-02
      -5.32513261e-02 1.74711253e-02 -3.40619534e-02 -5.75789204e-03 0.
      0. -3.78736518e-02 -6.04376048e-02 6.39364123e-02 -2.31410637e-02
      3.56432609e-02 -3.83298397e-02 -3.17289978e-02 -3.74329649e-02
      -9.23336856e-03 2.24876143e-02 0. 0. -1.54180611e-02
      -8.70210454e-02 3.17279361e-02 2.23220792e-03 2.20161602e-02
      -1.80988405e-02 4.18936796e-02 -3.48386504e-02 -3.06678396e-02
      -1.67449862e-02 0. 0. -6.30826280e-02 -6.69846684e-02
      -2.13109720e-02 -4.48265448e-02 -5.87438652e-03 -1.88925304e-02
      9.14513599e-03 -4.11794931e-02 8.12000874e-03 1.16033060e-02 0. 0.
      -3.24681960e-02 -1.96205471e-02 7.78338034e-03 -7.28064328e-02
      -4.65647653e-02 2.17356645e-02 7.61353737e-03 -2.28634872e-03
      1.65892579e-02 3.82765681e-02 0. 0. 6.61943257e-02 3.60253453e-02
      2.83997133e-02 -9.49149113e-03 2.11882386e-02 9.80832148e-04
      -4.34719250e-02 1.29536288e-02 1.33879647e-01 0. 0. 0.
      3.23528014e-02 8.90118033e-02 5.04907481e-02 3.46735232e-02
      6.10031076e-02 -1.32106962e-02 -3.63746323e-02 5.73996268e-02
      6.29259348e-02 0. 0. 0. 8.30431059e-02 4.95333746e-02
      4.55104699e-03 -2.47161239e-02 1.58918090e-02 1.39635019e-02
      1.70803908e-02 5.36826774e-02 1.04921106e-02 0. 0. 0. 0.
      1.19943470e-01 5.35950251e-02 5.35729527e-03 5.80131449e-02
      8.73173308e-03 -2.55134404e-02 -1.68871135e-02 0. 0. 0. 0. 0. 0.
      2.88177487e-02 -2.00556759e-02 -4.08366472e-02 -7.06913695e-02
      -6.24005571e-02 -2.35468838e-02 0. 0. 0. 0. 0. 0. 0. 0. 0. 0. 0.
      0. 0. 0. 0.</_>
    <_>
      0. 0. 0. 0. 0. 0. 0. 0. 0. 0. 0. 0. 0. 0. 0. 0. 6.85432740e-03
      -1.96883418e-02 2.58745439e-02 -3.37825082e-02 -2.77628824e-02
      9.35695600e-04 -2.53241812e-03 0. 0. 0. -2.42290832e-02
      8.18827376e-02 4.85406443e-02 4.42322493e-02 -5.66875041e-02
      7.34154275e-03 -4.02616933e-02 1.34318592e-02 -1.12855121e-01 0.
      0. 3.23806889e-02 1.36833280e-01 2.26008222e-02 -1.20232189e-02
      -2.69230135e-04 1.78674925e-02 -1.24758696e-02 2.08874382e-02
      -7.79190706e-03 7.30548147e-03 1.99999996e-02 0. 2.49690749e-02
      1.11266322e-01 5.24276402e-03 1.64442006e-02 -2.14631343e-03
      1.49783527e-03 -7.46616337e-04 -4.57474589e-02 9.34814662e-03
      -2.48232707e-02 0. 0. -2.61266381e-02 1.15306556e-01
      -2.86746044e-02 5.61792403e-02 2.21516769e-02 -7.81254694e-02
      -4.88171205e-02 -7.52586639e-03 -8.91017634e-03 -2.93122716e-02 0.
      0. 1.68620087e-02 7.77411014e-02 5.91862313e-02 1.79776698e-02
      -2.36605965e-02 -6.85589910e-02 9.11916327e-03 9.78314728e-02
      9.67942104e-02 1.43070670e-03 0. 0. 6.44504232e-03 -1.88917443e-02
      8.13994333e-02 6.05663061e-02 -4.84924689e-02 -9.85981971e-02
      -4.56958935e-02 1.06781565e-01 7.41715506e-02 2.99999993e-02 0.
      -2.72328686e-03 3.15160141e-03 6.99354010e-03 3.06014512e-02
      -1.47400023e-02 2.61696503e-02 5.92936166e-02 -7.40242898e-02
      8.20272192e-02 8.37560892e-02 2.14391612e-02 0. 0. -2.55606994e-02
      7.53658079e-03 5.28509431e-02 -1.41215650e-02 -1.12978565e-02
      -2.40417401e-04 5.19476570e-02 -1.96977668e-02 7.14529678e-02
      1.98701657e-02 0. 0. -6.12663710e-03 -2.08797492e-02
      -6.74706623e-02 -2.51424965e-02 -3.66025884e-03 -1.87320672e-02
      -2.07819380e-02 1.04032531e-02 5.14218807e-02 6.84310049e-02 0. 0.
      6.93969950e-02 2.44759787e-02 6.68059886e-02 -1.75368208e-02
      -1.93589255e-02 4.32353392e-02 -1.94497351e-02 5.48959859e-02
      5.61060049e-02 6.68620095e-02 0. -1.91123895e-02 -6.60741096e-03
      4.15855013e-02 8.77003372e-03 3.08090672e-02 2.30505709e-02
      2.01643221e-02 -5.13413437e-02 3.35998870e-02 1.00925416e-01 0. 0.
      -2.91123893e-02 -2.08262987e-02 -6.04951531e-02 -9.75049473e-03
      6.04075454e-02 -3.88851501e-02 -1.13866944e-02 -1.74089074e-02
      1.35608673e-01 8.76744539e-02 0. 0. -6.35681069e-03
      -3.71345133e-02 -1.44729335e-02 1.30822845e-02 -6.33699223e-02
      -7.39739910e-02 2.46177651e-02 5.79501241e-02 1.17373005e-01
      1.94981731e-02 0. 0. 0. -6.80754483e-02 7.06007285e-03
      -2.51872465e-02 1.76904708e-04 -5.17649762e-02 2.64562815e-02
      6.19607419e-02 1.52682075e-02 0. 0. 0. 0. 3.87336267e-03
      -3.04141524e-03 -3.99998315e-02 -2.32477281e-02 9.28896852e-03
      -1.22532742e-02 -1.22532742e-02 -1.22532742e-02 -1.22532742e-02
      -6.12663710e-03 0. 1.99999996e-02 0. 0. 0. 0. 0. 0. 0. 0.
      -6.12663710e-03 -1.22532742e-02 0.</_>
    <_>
      0. 0. 0. 0. 0. 0. 0. 0. 0. 0. 0. 0. 0. 0. 0. 0. 9.99999978e-03
      -6.74990797e-03 1.18523361e-02 -1.11457082e-02 -4.41567525e-02
      -3.77125740e-02 0. 0. 0. 0. 4.61998675e-03 8.56851265e-02
      1.13243356e-01 5.87393977e-02 3.46145243e-03 4.30254731e-03
      -2.23600050e-03 -1.43077755e-02 -3.28480303e-02 0. 0.
      6.17324281e-03 9.73283052e-02 9.25927684e-02 3.95183377e-02
      1.44221587e-02 1.28667997e-02 -3.04055773e-02 3.17541398e-02
      -1.76983457e-02 -1.43213086e-02 0. 0. 2.65438557e-02
      8.12843740e-02 3.93385626e-02 3.64009216e-02 1.91885710e-03
      2.01111976e-02 2.26821639e-02 -3.02116410e-03 -1.97949335e-02
      1.41605316e-02 0. 0. 1.20930234e-02 8.10325220e-02 -4.36407663e-02
      -2.05732193e-02 8.62697233e-03 -1.13249440e-02 -2.64490955e-02
      -2.88332365e-02 -4.79586073e-04 -5.63145876e-02 0. 0.
      -4.15789895e-02 2.23616827e-02 7.59590697e-03 -3.41169722e-02
      -5.89077361e-02 -1.11393638e-01 -9.24738497e-02 6.79163402e-03
      7.46112689e-02 -3.83091830e-02 0. 0. -5.16812727e-02
      -8.99110585e-02 5.23846336e-02 -9.47210658e-03 -1.29419360e-02
      -4.05078121e-02 -7.02444538e-02 1.02444373e-01 5.45274988e-02
      1.50288409e-02 0. 0. -6.16021976e-02 -6.58610091e-02
      -7.05688626e-06 -4.39343341e-02 1.93484351e-02 4.19886485e-02
      -3.43350619e-02 -2.42921542e-02 7.10266232e-02 3.82194705e-02 0.
      0. -7.51826838e-02 -3.21913324e-02 3.51659060e-02 -1.57743711e-02
      -2.43818779e-02 -1.74003784e-04 -5.20873396e-03 -9.74767283e-03
      1.31007959e-03 4.90203947e-02 0. 0. -5.78585155e-02
      -1.69399343e-02 -1.52521422e-02 -6.25815690e-02 -2.82797646e-02
      -3.76643017e-02 5.07298969e-02 7.02010049e-03 1.25613855e-02
      5.15331291e-02 0. 0. -2.88439002e-02 1.23593519e-02
      -2.13844050e-02 1.32470494e-02 8.64211190e-03 3.60561013e-02
      5.16149886e-02 3.64044942e-02 1.29426746e-02 3.99999991e-02 0.
      -7.40991067e-03 4.46655117e-02 4.67261374e-02 -2.79702842e-02
      4.30414528e-02 3.04572955e-02 6.98092859e-03 7.88190775e-03
      -2.60819942e-02 6.71939850e-02 0. 0. 0. 9.58685484e-03
      2.81658638e-02 4.53003086e-02 1.29035506e-02 -3.63830058e-03
      2.56781131e-02 3.74818072e-02 7.84311891e-02 6.05324656e-02 0. 0.
      0. 6.19712733e-02 -1.15008960e-02 5.92097407e-04 -3.08221718e-03
      2.17546970e-02 6.30874559e-03 2.66765747e-02 1.02386929e-01
      1.05413254e-02 0. 0. 0. 4.22171055e-04 1.09151602e-01
      1.95680908e-03 5.91685763e-03 -2.71288268e-02 5.96061312e-02
      7.61986375e-02 2.38117464e-02 0. 0. 0. 0. 5.80582442e-03
      2.20338199e-02 4.11355682e-02 1.49265081e-02 -1.07261706e-02
      -2.68254057e-03 0. 0. 0. 0. 0. 1.16116488e-02 0. 0. 0. 0. 0. 0. 0.
      0. 0. 0. 0.</_>
    <_>
      0. 0. 0. 0. -2.18701432e-03 0. 0. 0. 0. 0. 0. 0. 0. 0.
      -8.02473538e-03 -4.27325852e-02 -4.81512956e-02 -4.07675616e-02
      -2.17438508e-02 1.51189358e-03 8.23149644e-03 5.09331468e-03 0. 0.
      0. 0. -1.58738792e-02 -7.46332295e-03 2.36782655e-02
      -1.62941508e-03 -1.62302628e-02 1.22282878e-02 3.37339044e-02
      5.07619493e-02 2.40580719e-02 0. 0. 1.97629235e-03 5.02137691e-02
      1.84182245e-02 2.62224451e-02 1.98947694e-02 9.90673807e-03
      -1.67317167e-02 -4.13860604e-02 -4.69988808e-02 6.51615858e-02 0.
      0. 2.19762921e-02 4.72191870e-02 -3.06276549e-02 2.38762721e-02
      2.68019140e-02 4.05153930e-02 1.55429523e-02 1.16183842e-02
      -4.11626324e-02 3.55469137e-02 0. 0. 0. 8.56404901e-02
      3.16687636e-02 -2.26534847e-02 -2.89553385e-02 -3.84237021e-02
      -4.07550670e-03 3.29037459e-04 2.41400767e-03 -1.82818584e-02 0.
      0. -3.03719193e-02 3.43691856e-02 5.69504648e-02 4.46772948e-02
      -3.20472270e-02 -3.08612566e-02 -4.42608669e-02 -2.30202312e-03
      -2.08439603e-02 -5.40292338e-02 0. 0. -7.19714910e-02
      1.81085232e-03 1.19236492e-01 4.42329384e-02 -4.19872850e-02
      -2.68028118e-02 -5.05813062e-02 -4.42720763e-02 -3.76261845e-02
      6.55540125e-03 0. 0. 1.09605454e-02 -4.43988713e-03 7.73185343e-02
      -4.85270359e-02 -2.53114570e-02 -3.24612893e-02 -2.30192579e-02
      -3.94899026e-02 6.64746910e-02 2.84181517e-02 0. 0. 9.99999978e-03
      9.99999978e-03 6.23820983e-02 1.83382519e-02 2.59697977e-02
      1.24353291e-02 -3.69787100e-03 -1.66702233e-02 3.57381478e-02
      3.51440981e-02 0. 0. 0. -1.39536886e-02 1.47572802e-02
      -4.33275513e-02 4.36187163e-02 -1.14715844e-02 2.99846195e-02
      2.31920891e-02 6.68745860e-02 4.89666350e-02 0. 0. 1.91754345e-02
      -7.52095971e-03 -1.83539297e-02 -3.32249291e-02 9.87923611e-03
      4.27155346e-02 3.55401002e-02 5.08921705e-02 5.07829674e-02
      1.99999996e-02 0. 0. 8.58378261e-02 2.29898132e-02 5.16195083e-03
      4.76078764e-02 2.34434623e-02 5.61732147e-03 2.74228379e-02
      3.79679278e-02 6.86867908e-02 0. 0. 0. 1.91971175e-02
      3.73430172e-04 2.85998639e-02 2.49893572e-02 2.67437994e-02
      3.50339711e-02 7.27215856e-02 7.98110813e-02 3.38121355e-02 0. 0.
      -2.91922260e-02 -2.02602800e-03 3.39255445e-02 -3.13675515e-02
      8.32664408e-03 -6.24269899e-03 2.94965245e-02 5.57926409e-02
      5.42854592e-02 9.99999978e-03 0. 0. -3.36881578e-02
      -4.91334759e-02 3.05595174e-02 -1.04296096e-02 2.73764454e-04
      3.93577889e-02 8.53571221e-02 3.63528132e-02 1.71629153e-02 0. 0.
      0. -3.01262760e-03 -1.65555645e-02 -1.90448780e-02 -1.07209636e-02
      -2.07864922e-02 4.13713185e-03 0. 0. 0. 0. 0. 0. 1.99999996e-02 0.
      -5.30826719e-03 0. 0. 0. 0. 0. 0. 0. 0. 0.</_>
    <_>
      0. 0. 0. 0. 0. 0. -1.50618795e-03 -1.50618795e-03 -1.50618795e-03
      0. 0. 0. 0. 0. 0. 0. 9.99999978e-03 2.64522922e-03 5.35483845e-03
      -5.45797981e-02 -4.64387722e-02 6.04722183e-03 -1.50618795e-03 0.
      0. 0. 6.13099104e-03 1.04358144e-01 1.27983943e-01 6.31321296e-02
      3.70134264e-02 1.59146602e-03 -6.06007921e-03 -1.80284237e-03
      2.31822059e-02 0. 0. 1.05072604e-03 1.22331433e-01 1.12539522e-01
      -9.78890713e-03 6.96036685e-03 2.41039619e-02 4.40160697e-03
      1.61724780e-02 -1.60045344e-02 3.05980374e-03 -1.10717006e-02 0.
      2.11465750e-02 9.37683284e-02 3.23782936e-02 7.88401160e-03
      2.73744762e-02 1.45218996e-02 -1.49862049e-02 -2.23304648e-02
      2.32959143e-03 4.67157811e-02 -1.87749870e-03 0. 0. 1.15942478e-01
      1.58056058e-02 -1.72641054e-02 -1.02389688e-02 -2.76827216e-02
      2.85246484e-02 1.53873283e-02 2.11656820e-02 2.81399861e-03 0. 0.
      1.99999996e-02 6.69004992e-02 3.25063542e-02 1.05297938e-02
      4.49643936e-03 -6.21958226e-02 -4.97380346e-02 4.86212783e-04
      1.56164328e-02 -7.16380328e-02 0. -1.43119367e-02 -1.68750975e-02
      9.99999978e-03 5.62456176e-02 2.35631317e-02 -6.03032187e-02
      -2.46518105e-02 -6.56126812e-02 4.88255406e-04 -6.27068356e-02
      -5.47981411e-02 0. 0. -3.91341150e-02 1.07166264e-02
      7.57426471e-02 -7.68373162e-02 -2.45087408e-02 -5.81879169e-02
      -3.32480930e-02 -4.39186655e-02 1.97664946e-02 3.96519639e-02 0.
      0. 9.99999978e-03 -1.38826482e-02 4.79194932e-02 3.06683965e-02
      -4.88197152e-03 -6.34778524e-04 -2.44930983e-02 -9.28167347e-03
      4.77509685e-02 6.32774606e-02 0. 0. -3.63044650e-03
      -9.44660306e-02 -1.57538010e-03 -4.07100692e-02 5.37756830e-03
      -2.31789816e-02 1.53853670e-02 7.50913322e-02 6.34468943e-02
      7.03685880e-02 0. 0. -1.31427357e-02 -2.94593107e-02
      -3.63064446e-02 -4.58954573e-02 -3.98124056e-03 9.48349573e-03
      3.07454932e-02 4.63720374e-02 5.50799891e-02 4.10749391e-02 0. 0.
      4.20364290e-02 6.90603703e-02 -1.45267239e-02 2.70174798e-02
      2.16829535e-02 1.45055130e-02 -7.15763867e-03 2.22589690e-02
      1.28902555e-01 0. 0. 0. -3.82645875e-02 6.38767704e-02
      1.05498337e-04 3.41314152e-02 1.61581822e-02 1.62064061e-02
      7.16761053e-02 1.36992082e-01 6.81767315e-02 0. 0. 0.
      -1.70421526e-02 4.31653149e-02 1.50179937e-02 -1.96748581e-02
      7.11167464e-03 -1.92480180e-02 6.28152192e-02 1.01669677e-01
      9.99999978e-03 0. 0. 0. -5.91081195e-02 1.08947223e-02
      6.94321608e-03 6.65446892e-02 -1.50280939e-02 1.43106198e-02
      2.49531008e-02 2.21284088e-02 0. 0. -4.42109909e-03 0.
      9.55331512e-03 -1.54097807e-02 -2.51020379e-02 -9.41786356e-03
      -3.32265422e-02 -5.94446296e-03 0. 0. 0. 0. 0. 1.99999996e-02 0.
      0. 0. 0. 0. 0. 0. 0. 0. 0. 0.</_>
    <_>
      0. 0. 0. 0. 0. 0. 0. 0. 0. 0. 0. 0. 0. 0. 0. 0. 9.41684749e-03
      2.16451120e-02 5.20761125e-02 -5.87686598e-02 -4.46723355e-03
      2.69369688e-03 0. 0. 0. 0. 1.30575271e-02 1.19160891e-01
      1.50190726e-01 9.05445889e-02 -3.27012874e-02 2.52673756e-02
      -3.47833224e-02 5.90942949e-02 5.15025035e-02 0. 0. 7.39719253e-03
      1.58189848e-01 1.47580296e-01 -3.90397683e-02 -2.66987644e-03
      5.70535585e-02 8.00270215e-03 -2.05122139e-02 -6.17625974e-02
      3.49426791e-02 1.92201622e-02 0. 3.09505984e-02 1.23415008e-01
      2.91408841e-02 -6.45439886e-03 6.88709840e-02 -2.88961604e-02
      -2.22280882e-02 2.15891446e-03 2.43862458e-02 5.28100543e-02 0. 0.
      2.99999993e-02 1.49828151e-01 -4.52379473e-02 -2.40905788e-02
      -8.47982988e-02 -3.43739949e-02 2.77101528e-02 8.91356245e-02
      2.23454554e-02 1.85206439e-02 0. 0. 1.90926399e-02 7.91950375e-02
      -1.70594789e-02 -4.80441786e-02 -3.75741185e-03 -3.54916751e-02
      -1.86525881e-02 5.88121861e-02 7.88912475e-02 -7.28872418e-02 0.
      0. -3.03962920e-02 -1.03394054e-01 4.92826700e-02 9.02163833e-02
      -3.47824357e-02 -3.63508575e-02 -5.69134159e-03 1.18773021e-02
      -8.93308688e-03 -9.39241052e-02 0. 0. -3.94889340e-02
      -7.04040900e-02 3.56991664e-02 -8.59713368e-03 4.13288847e-02
      1.49097759e-02 6.30398374e-03 -9.03169625e-04 -1.98714994e-02
      -8.19544345e-02 0. 0. -9.99999978e-03 -7.87203386e-02
      4.89353389e-02 6.53667599e-02 7.98272640e-02 3.15258279e-02
      7.15318918e-02 -6.13004081e-02 -2.08910611e-02 4.43865582e-02 0.
      0. 0. -6.15588464e-02 -2.60394197e-02 -9.52865463e-03
      -6.07520640e-02 -1.73307657e-02 5.60287647e-02 6.27106894e-03
      -1.01928366e-02 9.14364383e-02 0. 0. 5.86890094e-02 7.83713982e-02
      -1.04835425e-02 -1.10019244e-01 -2.09078211e-02 -1.71142223e-03
      1.97408646e-02 1.73563547e-02 2.87707653e-02 6.88302442e-02 0.
      -1.99999996e-02 8.93215016e-02 5.54592460e-02 3.19350809e-02
      5.79123793e-04 3.72223072e-02 3.12386313e-03 -1.71638019e-02
      -6.10988289e-02 1.44939542e-01 0. 0. -1.99999996e-02
      -4.49991524e-02 -2.42957044e-02 -4.84616272e-02 7.84048662e-02
      1.01320818e-02 2.38322839e-02 3.09216306e-02 7.85579607e-02
      8.24088454e-02 0. 0. -9.99999978e-03 -3.30269188e-02
      -4.00686041e-02 -6.13633320e-02 3.08891828e-03 2.07871776e-02
      7.65603185e-02 3.72560173e-02 8.14740583e-02 9.99999978e-03 0. 0.
      -2.99999993e-02 -7.96382427e-02 3.87122594e-02 -4.14105579e-02
      2.08313745e-02 -4.63832682e-03 2.14895140e-02 2.86229178e-02
      -4.03592084e-03 0. 0. 0. 0. 9.99999978e-03 -1.31178822e-03
      8.68824590e-03 1.10568404e-02 1.30551020e-02 -4.01309803e-02
      -9.99999978e-03 0. 0. 0. 0. 1.99999996e-02 0. 0. 0. 0. 0. 0. 0. 0.
      0. 0. 0.</_>
    <_>
      0. 0. 0. 0. 0. 0. 0. 0. 0. 0. 9.99999978e-03 0. 0. 0. 0. 0.
      1.99999996e-02 6.70841187e-02 2.47407258e-02 2.24723630e-02
      -1.52902985e-02 -6.43288391e-03 1.35309137e-02 0. 0.
      -2.65298714e-03 -4.44960129e-03 -1.30556459e-02 -2.08074264e-02
      -3.62960473e-02 -1.19686285e-02 4.31898562e-03 -3.31033915e-02
      -5.18989116e-02 -8.55674520e-02 0. 0. -4.44960129e-03
      -9.35135596e-03 -2.50031259e-02 -1.14499014e-02 -2.54435632e-02
      -8.56121723e-03 -2.87514981e-02 1.54444156e-02 2.83370609e-03
      -5.13794087e-02 0. 0. -8.89920257e-03 -4.90175514e-03
      8.49736575e-03 -2.65645944e-02 -2.78506652e-02 -1.60462838e-02
      -5.83125055e-02 -2.47456562e-02 8.62481538e-03 -2.17876602e-02 0.
      0. -4.44960129e-03 2.66203638e-02 2.04045326e-02 8.32074508e-03
      2.35368107e-02 -1.95137169e-02 -5.19802757e-02 -2.20082104e-02
      -2.67286319e-02 1.09811099e-02 0. 0. 2.89716143e-02 3.82344350e-02
      3.95902991e-02 2.73298584e-02 3.86663713e-02 -9.02447943e-03
      4.24463861e-02 5.65912090e-02 3.74918990e-02 4.88428101e-02 0.
      -3.09155299e-03 2.64905207e-02 4.72519659e-02 -2.29556933e-02
      -9.05654207e-03 2.79121175e-02 -3.49098109e-02 -8.56233109e-03
      6.62706941e-02 9.06624347e-02 1.06588742e-02 0. -9.92024317e-03
      9.83700063e-03 4.88578863e-02 2.31136917e-03 3.09576411e-02
      -1.00083528e-02 5.35759404e-02 2.66940966e-02 4.91815209e-02
      6.01670630e-02 1.88185498e-02 0. 0. 4.10904456e-03 9.63002667e-02
      1.64957829e-02 -4.11129743e-02 1.81188267e-02 3.29165757e-02
      2.95907333e-02 1.10139875e-02 9.89496037e-02 4.92807813e-02 0. 0.
      4.77860905e-02 6.32826462e-02 6.17578952e-03 1.40969679e-02
      2.96319667e-02 1.59030855e-02 -1.12975314e-02 4.38788608e-02
      9.16819572e-02 3.46963182e-02 0. 0. 4.51684482e-02 5.42541742e-02
      2.26386599e-02 6.31168634e-02 2.42786985e-02 -7.21630501e-03
      -2.45821085e-02 6.28483221e-02 1.80936884e-02 0. 0.
      -1.49375573e-02 -4.56781313e-02 -1.75221916e-02 -1.31480759e-02
      3.14800106e-02 2.43603829e-02 -8.66172090e-03 4.14452069e-02
      -1.20325973e-02 -9.99999978e-03 0. 0. -1.66215505e-02
      -5.73496632e-02 -8.86835754e-02 -5.86251058e-02 -2.32984703e-02
      2.32351269e-03 -1.25084573e-03 -8.17771163e-03 2.88787484e-02 0.
      0. 0. -1.18529126e-02 -7.58510977e-02 -7.03269616e-02
      4.18126471e-02 2.72401590e-02 -2.64400747e-02 -9.79224872e-03
      1.80925541e-02 2.83092409e-02 0. 0. 0. 0. -5.89478351e-02
      -7.50573725e-02 -4.93461527e-02 -4.09746636e-03 -6.56913593e-02
      6.09034952e-03 6.73343092e-02 1.19304955e-02 0. 0. 0. 0.
      -1.05367377e-02 -2.65569799e-02 -5.68921976e-02 5.04439976e-03
      5.09931259e-02 5.53689338e-02 3.76017019e-02 1.11007979e-02
      -8.89920257e-03 -4.44960129e-03 0. 0. 0. 0. 0. 0. 0. 0. 0. 0.
      -4.44960129e-03 -8.89920257e-03 0.</_>
    <_>
      0. 0. 0. 0. 0. 0. 0. 5.56155574e-03 0. 0. 9.99999978e-03 0. 0. 0.
      0. 0. 1.99999996e-02 1.18817396e-01 6.30728677e-02 4.20461930e-02
      -2.71009468e-02 -5.65135628e-02 1.99999996e-02 0. 0. 0. 0.
      9.99999978e-03 6.60949498e-02 5.14333732e-02 3.39400172e-02
      4.34449501e-02 -1.11385919e-02 -9.02121067e-02 -6.89113885e-02 0.
      0. 0. 0. -9.08829551e-03 9.31057800e-03 -6.91088215e-02
      -7.95821548e-02 -7.78555125e-02 1.34982949e-03 3.70934419e-02
      -9.60052460e-02 0. 0. 0. 0. 6.49366975e-02 -1.87019594e-02
      -2.30471417e-02 -5.67735881e-02 -4.25788127e-02 -4.94930334e-02
      -5.05217176e-04 -5.12653403e-02 0. 0. 0. 6.84553618e-03
      -1.36596356e-02 4.50762780e-03 -2.14868551e-03 6.53026043e-04
      -3.13903466e-02 -3.78502794e-02 -2.19761860e-02 -2.03633849e-02 0.
      0. 8.74280930e-03 -4.64097830e-03 1.03573855e-02 -4.55332510e-02
      -2.25340351e-02 -4.74660918e-02 -5.64160496e-02 1.39653170e-02
      4.71439920e-02 5.98312309e-03 -4.41273209e-03 0. -1.80587620e-02
      6.83469512e-03 -2.89920103e-02 -7.15767145e-02 7.64818303e-03
      -2.08444390e-02 -4.35830373e-03 8.56418535e-02 1.25068814e-01
      2.17153560e-02 -1.83993690e-02 0. -3.15001160e-02 -7.37559889e-03
      -2.44679507e-02 3.00040115e-02 2.49703024e-02 8.29160810e-02
      5.86276576e-02 6.30380306e-03 8.72555152e-02 3.08437198e-02 0. 0.
      -2.41097212e-02 6.53943270e-02 -2.10188963e-02 -6.53364137e-02
      -2.05950737e-02 5.34564955e-03 3.02289631e-02 2.99971420e-02
      8.01826417e-02 1.17053159e-01 0. 0. -3.13609885e-03 5.43046482e-02
      1.47342514e-02 6.82549598e-03 2.51628943e-02 6.21225964e-03
      2.24567465e-02 4.64347489e-02 5.53029813e-02 7.90733099e-02 0. 0.
      -3.22538801e-02 3.98103781e-02 -3.33552063e-02 7.61086866e-02
      7.62492642e-02 4.48043831e-03 2.06195172e-02 9.32141393e-03
      1.34976842e-02 0. 0. 0. -4.30378467e-02 1.95903536e-02
      -8.13161023e-03 3.66786495e-02 2.30589453e-02 -1.64933093e-02
      7.04931170e-02 -3.35233063e-02 -5.03849722e-02 0. 0. 0.
      -2.55935658e-02 -7.53250420e-02 -1.53955165e-02 -2.96870377e-02
      -3.30696218e-02 4.41081338e-02 2.11622491e-02 1.99193824e-02 0. 0.
      0. 0. -3.31935212e-02 -8.02645460e-02 1.24137364e-02
      4.70421761e-02 2.65914090e-02 -1.10121686e-02 1.10559922e-03
      4.02157940e-02 0. 0. 0. 0. 0. -1.00167282e-02 -7.21649453e-02
      -4.26431969e-02 -8.14880729e-02 4.99143079e-02 6.26279041e-02
      4.64681648e-02 0. 0. 0. 0. 0. 0. -7.84688257e-03 2.87495274e-02
      5.50554134e-02 7.61130899e-02 6.69569001e-02 2.32397057e-02 0. 0.
      0. 0. 0. 0. 0. 0. 0. 0. 0. 0. 0. 0. 0.</_>
    <_>
      0. 0. 0. 0. 0. 0. 0. 0. 0. 0. 8.73328187e-03 0. 0. 0.
      -1.49136670e-02 -3.75909321e-02 -3.22192647e-02 1.19313886e-02
      -1.24803763e-02 7.10041299e-02 8.73328187e-03 0. 1.74665637e-02 0.
      0. 0. -2.49136668e-02 -1.09663382e-02 -1.79902148e-02
      -3.27001773e-02 -1.11925201e-02 -1.28351729e-02 3.89552973e-02
      -2.00152472e-02 8.73328187e-03 0. 0. 0. -3.12136170e-02
      -4.13616002e-02 1.29638743e-02 -3.94724198e-02 -2.04265341e-02
      -1.01998709e-02 2.32610181e-02 -4.87363141e-04 -1.71541926e-02 0.
      0. 0. -1.69493016e-02 1.87786594e-02 7.96355866e-03
      -1.39307939e-02 1.50416801e-02 -2.07463000e-02 -1.25485566e-02
      -1.60922091e-02 -3.89326401e-02 0. 0. 0. 4.81644906e-02
      7.67665580e-02 -4.31920076e-03 3.20841605e-03 -4.94232140e-02
      -1.86586508e-03 -1.34421699e-02 -2.08342467e-02 -1.30613390e-02 0.
      0. -8.25989340e-03 4.16597314e-02 6.53473809e-02 4.79340963e-02
      9.42156557e-03 6.87914621e-03 -9.56597645e-03 2.53562466e-03
      -2.84797978e-02 -2.96710301e-02 0. 0. -3.64277214e-02
      5.08098751e-02 3.52181345e-02 3.26159969e-02 3.42502110e-02
      -1.39260702e-02 -1.77738592e-02 -7.56159052e-03 -4.73532081e-03
      2.18273979e-03 0. 0. 5.59331514e-02 5.18619828e-02 9.02055483e-03
      2.26581488e-02 -1.71877239e-02 -1.27183681e-03 4.38309833e-02
      -7.14446930e-03 6.17212988e-02 3.01538091e-02 0. 0. 2.72057857e-02
      1.23232171e-01 3.95127051e-02 -9.81790107e-03 4.40270118e-02
      1.79268029e-02 -1.03055816e-02 -8.19032732e-03 1.17076091e-01
      7.33360946e-02 0. 0. 4.56179939e-02 3.02388687e-02 2.34287791e-02
      2.72998847e-02 6.33497387e-02 5.11705540e-02 2.03783233e-02
      5.80986701e-02 1.06515706e-01 4.89717945e-02 0. 0. 5.47081269e-02
      -2.30455827e-02 1.85766481e-02 1.19597334e-02 2.18109190e-02
      2.88154073e-02 3.59001346e-02 1.01236567e-01 7.97576755e-02 0. 0.
      0. -7.88611174e-03 -9.14699491e-03 1.37549629e-02 5.68140373e-02
      1.38400849e-02 3.06896190e-03 8.52989256e-02 7.34455436e-02 0. 0.
      0. 0. -3.33153903e-02 -6.34695888e-02 -2.04906967e-02
      -3.49182412e-02 -3.33249918e-03 -1.59609225e-02 6.52188361e-02
      6.31042272e-02 9.99999978e-03 0. 0. -2.49136668e-02
      -5.55499047e-02 -1.46699278e-02 -3.44584771e-02 1.64266918e-02
      -5.88035537e-03 6.41388595e-02 1.04944848e-01 4.19057459e-02 0. 0.
      0. -1.61685366e-02 -3.08384299e-02 -6.41697571e-02 -5.60423806e-02
      -2.18708292e-02 -2.41099373e-02 1.15638755e-01 7.52912238e-02
      5.14273942e-02 0. 0. 0. -1.25097400e-02 -2.49136668e-02
      -3.26205678e-02 -3.32935490e-02 -1.89026650e-02 7.82554820e-02
      8.63872766e-02 8.27432573e-02 1.74665637e-02 0. 0. 0. 0.
      -2.50974018e-03 -2.50974018e-03 0. 0. 0. 0. 0. 0. 0. 0. 0.</_>
    <_>
      0. 0. 0. 0. 0. 0. 0. 0. 0. 0. 9.99999978e-03 0. 0. 0. 0. 0.
      1.99999996e-02 1.08977988e-01 4.61043715e-02 1.77495722e-02
      -7.75250867e-02 0. 1.99999996e-02 0. 0. 0. 0. 1.28565328e-02
      5.22136763e-02 2.97372900e-02 3.74784656e-02 -3.17385308e-02
      -2.80275326e-02 -9.09490064e-02 -1.36605222e-02 0. 0. 0. 0.
      1.01259518e-02 1.53328767e-02 -5.92875555e-02 -8.00912902e-02
      -3.22390981e-02 3.92109528e-02 5.36667518e-02 -1.16500996e-01
      -1.96901821e-02 0. 0. 7.49892322e-03 5.53842597e-02
      -4.93868138e-04 1.97742544e-02 -2.69539058e-02 -1.13229245e-01
      -4.65497039e-02 2.45369785e-02 7.28713535e-03 -2.61008404e-02 0.
      0. 5.41005023e-02 5.74305989e-02 -5.59369521e-03 2.39496157e-02
      -1.72255058e-02 3.49260704e-03 2.27175336e-02 9.09844704e-04
      -3.72350328e-02 -1.99999996e-02 0. 5.95114157e-02 7.91158229e-02
      3.74047831e-02 2.64417492e-02 4.98518236e-02 -7.95831010e-02
      1.34059498e-02 3.43635045e-02 1.38475858e-02 1.03145000e-02
      -9.99999978e-03 -2.71107419e-03 2.53866855e-02 1.03605948e-01
      1.71369147e-02 -2.21777968e-02 2.13391334e-02 -7.50748627e-03
      -3.68069187e-02 1.21651245e-02 4.30121878e-03 -3.89649309e-02 0.
      -2.71107419e-03 -4.38299403e-02 1.26220196e-01 -7.74260191e-03
      -5.26491960e-04 6.51951553e-03 1.68259852e-02 4.72337455e-02
      1.77487489e-02 1.84539072e-02 2.39153001e-02 0. 0. 2.30582375e-02
      1.03675209e-01 3.18500921e-02 -2.03531440e-02 3.42283733e-02
      1.32034412e-02 -1.51670845e-02 5.17522357e-02 1.31856680e-01
      1.16824351e-01 0. 0. 6.29028156e-02 -4.73880954e-03 3.95832956e-02
      3.00188791e-02 5.36443256e-02 1.00330096e-02 4.14080620e-02
      5.00647649e-02 1.59418210e-01 7.40328729e-02 0. 0. -1.28992053e-03
      4.25870828e-02 -2.76697930e-02 3.36383544e-02 1.42856007e-02
      2.39162985e-02 2.78065503e-02 6.93616793e-02 7.87301362e-02 0. 0.
      0. -6.24244474e-02 -7.58308964e-03 -3.64683010e-02 2.93598361e-02
      -1.02026714e-03 3.25341076e-02 8.10054615e-02 2.38981005e-02 0. 0.
      0. -1.75037025e-03 -6.48169965e-02 -2.62483861e-02 -9.86123532e-02
      -2.15780213e-02 -1.90874059e-02 -1.36983010e-03 3.69227566e-02
      5.05363382e-02 1.17171591e-03 0. 0. -9.25911125e-04
      -1.01245202e-01 -1.06856041e-02 -3.01683620e-02 -2.49738150e-05
      -1.46873295e-02 1.98569093e-02 4.10103016e-02 5.32512628e-02 0. 0.
      0. 0. -4.88589928e-02 -9.86891165e-02 -6.91903979e-02
      -1.39911938e-02 -3.09936199e-02 5.19660413e-02 3.42052616e-02
      5.42852953e-02 0. 0. 0. 0. -1.67805818e-03 -5.26954345e-02
      -4.11734171e-02 -1.21762520e-02 2.34239399e-02 1.15977563e-01
      1.03432670e-01 1.99999996e-02 0. 0. 0. 0. 0. 0. 0. 0. 0. 0. 0. 0.
      0. 0. 0.</_>
    <_>
      0. 0. 0. 0. 0. 0. 0. 8.74581281e-03 0. 0. 9.99999978e-03 0. 0. 0.
      0. 0. 1.99999996e-02 1.22951068e-01 6.29496276e-02 -8.17166734e-03
      -3.20553919e-03 0. 1.99999996e-02 0. 0. 0. 0. 1.85705703e-02
      5.42500727e-02 2.34519839e-02 1.40424389e-02 1.26774395e-02
      -4.93181795e-02 -5.72911911e-02 -1.95639115e-02 0. 0. 0.
      -8.53899308e-03 -5.24833146e-03 1.90870930e-02 -8.79723653e-02
      -8.88180081e-03 -6.18101768e-02 2.10844576e-02 -2.48037558e-02
      -8.19677413e-02 0. 0. 0. -8.53899308e-03 6.04658946e-02
      -2.86392830e-02 -1.03617809e-03 -3.83131169e-02 -1.07998058e-01
      -7.71702453e-02 5.83980978e-02 -1.78259872e-02 0. 0. 0.
      -8.75274744e-03 -8.60296655e-03 -5.07634915e-02 -5.33403456e-02
      -1.22972559e-02 1.92073807e-02 3.33426893e-02 -5.33162318e-02
      5.75819286e-03 0. 0. 5.52662164e-02 1.23472996e-02 -3.25925574e-02
      -6.63613752e-02 1.01338429e-02 -7.97869079e-03 3.31587344e-02
      3.78092080e-02 3.58756562e-03 -3.08019742e-02 0. 0.
      -5.40221576e-03 5.28694987e-02 -3.82593386e-02 -2.96080559e-02
      5.39501384e-02 6.37657184e-04 3.06377802e-02 2.23984420e-02
      2.35004369e-02 -5.68066612e-02 0. 0. -1.10781463e-02
      -8.60762969e-03 -4.09874804e-02 7.39785880e-02 3.87670100e-02
      6.93082586e-02 9.52799916e-02 2.07489301e-02 3.94724822e-03
      -7.24262223e-02 0. 0. 3.96848433e-02 7.19992667e-02 1.39877135e-02
      2.64089685e-02 6.36919364e-02 4.49655689e-02 1.75721813e-02
      3.78840528e-02 4.37504500e-02 7.51012266e-02 0. 0. 5.50126322e-02
      2.36502010e-02 -3.35606076e-02 6.60994351e-02 -3.18499543e-02
      4.94866632e-02 -2.01059360e-04 5.39977886e-02 2.68035475e-02
      6.81981146e-02 0. 0. 8.86821151e-02 5.21372706e-02 -2.48613711e-02
      4.55756336e-02 1.08996443e-02 2.40774686e-03 1.49803804e-02
      2.85707917e-02 -4.08803262e-02 1.78481825e-03 0. -1.22863837e-02
      -6.97284117e-02 -3.00307199e-02 2.24236473e-02 2.96790041e-02
      3.84582430e-02 -5.11927810e-03 6.71254545e-02 -4.07189652e-02
      -5.54238968e-02 0. 0. -1.26088709e-02 -9.27985907e-02
      -1.21785596e-01 -9.89849195e-02 -4.29427177e-02 -1.79897733e-02
      1.25112049e-02 1.14731994e-02 -4.22655232e-02 -1.79515779e-02 0.
      0. -6.30443543e-03 -1.37818798e-01 -1.28093183e-01 -5.35493679e-02
      -1.46056921e-03 1.68120936e-02 1.73567384e-02 7.37239886e-03
      3.65373492e-02 0. 0. 0. -1.85908191e-02 -1.01255618e-01
      -1.56764627e-01 -4.83651236e-02 -2.90777814e-02 -9.30071473e-02
      4.11993787e-02 1.12215346e-02 2.94373874e-02 0. 0. 0. 0. 0.
      -3.76870446e-02 -8.24254453e-02 7.22756237e-02 7.08878338e-02
      9.38274264e-02 8.92431736e-02 2.78729182e-02 0. 0. 0. 0. 0. 0. 0.
      0. -3.51966335e-03 0. -9.99999978e-03 0. 0. 0. 0.</_>
    <_>
      0. 0. 0. 0. 0. 0. 0. 0. 0. 0. 0. 0. 0. 0. 0. 0. 2.66226567e-03
      1.40300542e-02 2.44235210e-02 3.13471369e-02 -2.88531091e-02
      -8.69738087e-02 -1.57187181e-03 0. 0. 0. 1.51988314e-02
      2.78351866e-02 1.00299373e-01 1.28716454e-01 5.16231731e-03
      2.09436044e-02 1.19570224e-03 -2.25564279e-02 1.14023298e-01 0. 0.
      8.83398391e-03 1.63049698e-02 6.24547899e-02 5.95490411e-02
      -2.76825745e-02 -4.19681966e-02 -3.75905037e-02 8.00247863e-03
      9.98116098e-04 2.80738398e-02 0. 0. 1.76679678e-02 5.53068763e-04
      4.78060059e-02 -1.41595611e-02 1.41434977e-02 5.22953719e-02
      8.37410688e-02 -1.90978330e-02 -2.28765588e-02 4.13246229e-02 0.
      0. 8.83398391e-03 5.44678327e-03 -1.15284897e-01 -8.86080340e-02
      -5.82818203e-02 -3.48491943e-03 -1.19252158e-02 1.28685413e-02
      -1.01062432e-02 -2.13793423e-02 0. 0. -1.16304956e-01
      -5.18265590e-02 -7.01509640e-02 -7.70003572e-02 -1.31775767e-01
      -5.40954843e-02 -1.27368748e-01 -9.09542963e-02 -4.63466980e-02
      -6.20001517e-02 0. 0. -5.11353947e-02 -1.69024229e-01
      1.23922080e-02 -7.11178184e-02 -2.91941296e-02 -1.75060276e-02
      9.14060231e-03 -1.81467254e-02 0. -9.79549438e-03 0.
      9.99999978e-03 -7.12890327e-02 -6.60151616e-02 -3.33747678e-02
      -4.50680926e-02 -1.72436982e-02 1.82544868e-02 -1.70136373e-02
      -9.24538821e-02 0. 9.99999978e-03 0. 6.42377883e-03
      -7.95563385e-02 -1.79282557e-02 1.70489307e-02 -2.49432754e-02
      -8.28885648e-04 -6.71931030e-03 -1.75194889e-02 1.91988854e-03
      -7.27173537e-02 1.99999996e-02 0. 0. -6.57213107e-02
      -3.37087475e-02 -3.35904211e-02 -1.58104897e-02 -4.13121656e-02
      -8.77796579e-03 7.96602964e-02 -1.60681084e-02 -7.79852569e-02 0.
      0. 0. -8.79197270e-02 -3.73119488e-02 -1.32787272e-01
      -1.54982237e-02 3.70339602e-02 5.50925694e-02 9.39454064e-02
      -7.37853274e-02 -2.77986694e-02 0. 0. 1.24431010e-02
      2.03106888e-02 7.72788078e-02 -3.74166593e-02 1.62381548e-02
      -1.54643888e-02 2.00753156e-02 -2.41772519e-04 -4.74536456e-02
      -3.54149155e-02 0. 0. 2.81362701e-02 5.36961854e-02 9.99447852e-02
      2.33579781e-02 2.12627426e-02 2.25675516e-02 8.06719959e-02
      1.95538122e-02 -4.43207212e-02 0. 0. 0. 8.30577873e-03
      7.09418803e-02 -2.16435473e-02 -1.51393516e-02 3.30921612e-03
      1.10551521e-01 4.72271256e-02 5.65515878e-03 1.18532749e-02 0. 0.
      0. 0. 6.91506639e-02 1.24631159e-01 7.00248545e-03 -6.59432486e-02
      4.62977886e-02 7.62826726e-02 3.38439620e-03 1.85327511e-03 0. 0.
      0. 0. 8.83398391e-03 5.74243926e-02 9.93288085e-02 -3.07256915e-03
      1.42626911e-02 6.05478929e-03 1.76679678e-02 1.76679678e-02
      1.76679678e-02 8.83398391e-03 0. 1.88200024e-03 0. 1.28475577e-02
      6.42377883e-03 0. 0. 0. 0. 0. 8.83398391e-03 1.76679678e-02 0.</_>
    <_>
      0. 0. 0. 0. -7.02226534e-04 0. 0. 0. 0. 0. 0. 0. 0. 0.
      -1.14157004e-02 -6.61796778e-02 -1.13400362e-01 -5.80107458e-02
      -9.17550549e-03 3.45307402e-02 2.38504801e-02 9.99999978e-03 0. 0.
      0. 0. -2.47443225e-02 -2.59086080e-02 6.32538423e-02
      4.41185758e-03 3.04649435e-02 4.52762991e-02 6.82723001e-02
      7.91839883e-02 1.25847384e-01 0. 0. 6.54991064e-03 -1.68986209e-02
      -5.19075803e-03 3.32842022e-02 1.85413845e-02 6.60030684e-03
      -1.57588895e-03 -3.28380726e-02 -3.60785313e-02 7.31398314e-02 0.
      0. 1.30998213e-02 -2.57448060e-04 1.64511632e-02 3.33618596e-02
      3.33205909e-02 5.45583628e-02 4.75804806e-02 6.38062460e-03
      -3.63807641e-02 2.74646077e-02 0. 0. 6.54991064e-03 5.59072383e-03
      8.43455419e-02 -3.04229148e-02 -4.17755619e-02 -4.06252407e-03
      5.54421097e-02 2.48133913e-02 2.58077197e-02 -2.38819830e-02 0. 0.
      -4.23059724e-02 -4.10985202e-03 3.87426913e-02 6.82063550e-02
      -1.36476513e-02 4.48713341e-04 -6.32587299e-02 -7.46929199e-02
      -9.47503075e-02 -9.20908675e-02 0. 1.22324185e-04 -9.73384306e-02
      1.24979373e-02 7.17082769e-02 4.28993851e-02 -2.19680984e-02
      5.60222799e-03 -2.30358336e-02 -1.43581241e-01 -1.09816507e-01
      -3.04809064e-02 0. 0. 1.98441017e-02 4.18408494e-03 1.20926071e-02
      -5.67577817e-02 -8.58450606e-02 -4.57071327e-02 -1.21643357e-02
      -1.21198148e-01 -2.03211084e-02 9.99999978e-03 0. 0.
      5.38223982e-02 1.29792597e-02 5.31833842e-02 -4.19437652e-03
      6.32161722e-02 -4.28777151e-02 -3.90917622e-02 -2.86818892e-02
      5.91953192e-03 1.99999996e-02 0. 0. 6.54991064e-03 -1.46076188e-03
      9.74983536e-03 -1.40639879e-02 3.41866054e-02 -1.10854637e-02
      -1.27935382e-02 1.60061531e-02 1.99999996e-02 0. 0. 0.
      -2.14410480e-02 -5.03137968e-02 -7.27550834e-02 -5.38023412e-02
      7.38017261e-03 2.71802582e-02 4.98739406e-02 2.65815947e-02
      1.99999996e-02 0. 0. 2.69072130e-02 6.73090294e-02 -1.96166206e-02
      4.32117097e-03 1.41948117e-02 1.33718327e-02 -1.31902809e-03
      1.08645819e-02 5.62082380e-02 9.99999978e-03 0. 0. 3.70271802e-02
      7.86637366e-02 2.38238946e-02 5.32322526e-02 -2.08747224e-03
      -2.20768061e-03 3.95722687e-02 7.59581774e-02 2.14981437e-02 0. 0.
      0. -2.08324976e-02 5.41099571e-02 9.92629211e-03 -4.30776626e-02
      1.16997166e-02 1.85167864e-02 8.35236087e-02 6.15286939e-02
      1.00998078e-02 0. 0. 0. -4.18689474e-02 -1.09875565e-02
      1.83152650e-02 -1.02242818e-02 2.37646941e-02 6.48506135e-02
      1.15794756e-01 1.02203330e-02 9.98080650e-05 0. 0. 0. 0.
      -9.08642728e-03 -9.21684969e-03 5.99147938e-03 1.09694642e-03
      9.66963917e-03 1.30998213e-02 1.30998213e-02 1.30998213e-02
      1.30998213e-02 6.54991064e-03 0. 0. 0. -1.72021636e-03 0. 0. 0. 0.
      0. 0. 6.54991064e-03 1.30998213e-02 0.</_>
    <_>
      0. 0. 0. 0. 0. 0. 0. 0. 0. 0. 0. 0. 0. 0. 0. 0. 2.81256787e-03
      9.52223968e-03 -1.64305195e-02 -3.01261451e-02 -1.73572395e-02
      5.19259193e-04 9.99999978e-03 0. 0. 0. 1.52088897e-02
      5.14462255e-02 1.28869802e-01 8.94221440e-02 5.85548244e-02
      9.52135958e-03 -1.78268030e-02 -6.88176602e-03 1.86694324e-01 0.
      0. 9.99999978e-03 2.93925777e-02 7.54564777e-02 -1.36558572e-02
      4.58079902e-03 -3.40344524e-03 3.32596749e-02 -7.45667238e-03
      1.57962088e-02 2.91850325e-02 -8.02933704e-03 0. 1.99999996e-02
      7.24454829e-03 9.22811255e-02 -1.47476243e-02 8.84603932e-02
      3.44498293e-03 9.63754673e-03 -3.03725991e-02 5.98673187e-02
      3.48748416e-02 -1.67630671e-03 0. 9.99999978e-03 1.05704842e-02
      4.97993715e-02 -5.21679111e-02 -5.88667095e-02 -2.79752817e-03
      5.84786795e-02 6.73547713e-03 4.30134870e-02 4.85566707e-04 0. 0.
      0. 1.41920121e-02 -2.22277977e-02 1.15896447e-03 -2.74376646e-02
      -1.21082999e-02 -5.74008636e-02 -1.10913478e-01 -9.90255177e-02
      -1.36252657e-01 0. -6.34252932e-03 -4.55329455e-02 1.69391390e-02
      3.84986103e-02 -2.19984464e-02 -6.07943833e-02 2.72623971e-02
      -5.02551496e-02 -1.30779177e-01 -2.15407714e-01 -8.51279572e-02 0.
      9.99999978e-03 -8.67890865e-02 1.43581768e-02 6.08248748e-02
      -1.07057899e-01 -5.25028035e-02 -8.85213166e-02 2.65229717e-02
      -1.33836940e-01 -9.50521678e-02 0. 0. 0. 8.35817307e-02
      -3.72697003e-02 1.21197281e-02 4.24073078e-02 3.44760157e-02
      -4.38498780e-02 -4.83104102e-02 7.23399967e-03 0. 1.99999996e-02
      0. 0. -1.06763486e-02 -1.31007671e-01 1.41490148e-02
      3.11385076e-02 7.25132274e-03 5.00307530e-02 -8.63352418e-03
      5.30431531e-02 1.99999996e-02 0. 0. 0. -7.79486746e-02
      -1.28961891e-01 -1.45768732e-01 -6.55176789e-02 -7.10485922e-03
      -8.24108999e-03 2.71966085e-02 3.82742621e-02 1.99999996e-02 0. 0.
      1.57606695e-02 2.89980322e-03 3.53460349e-02 -1.15089389e-02
      -1.77255739e-02 2.06102375e-02 -7.66245509e-03 3.13180848e-03
      8.58914033e-02 9.99999978e-03 0. 0. 3.20605785e-02 -5.92257129e-03
      1.68269902e-01 1.93040110e-02 3.55006158e-02 -1.31820049e-02
      1.87819824e-02 8.53805766e-02 1.58734396e-02 0. 0. 0.
      1.56033412e-02 1.53831802e-02 1.16861835e-01 -3.09655499e-02
      -4.51934263e-02 3.96983884e-02 -1.29629839e-02 4.16422486e-02
      1.29434727e-02 0. 0. 0. -1.17847009e-03 -2.22169217e-02
      2.08316687e-02 3.06798872e-02 5.51253930e-02 1.62005257e-02
      -3.08540510e-03 -4.63810898e-02 2.94347247e-03 0. 0.
      -9.99999978e-03 0. -1.00915157e-03 1.09284744e-02 7.21996231e-03
      -1.25318831e-02 -1.44029837e-02 1.34576615e-02 1.99999996e-02
      1.99999996e-02 1.99999996e-02 9.99999978e-03 0. 0. 0. 0. 0. 0. 0.
      0. 0. 0. 9.99999978e-03 1.99999996e-02 0.</_>
    <_>
      0. 0. 0. 0. 0. 0. 0. 0. 0. 0. 0. 0. 0. 0. 0. 0. 0. 3.30513194e-02
      1.32028535e-02 -2.51194816e-02 2.59743561e-03 1.80492643e-03 0. 0.
      0. 6.36727456e-03 1.68484766e-02 5.70121221e-02 9.68732387e-02
      1.03335604e-01 2.13820441e-03 2.54804865e-02 3.12427953e-02
      4.99613099e-02 1.23300165e-01 0. 0. 6.84847636e-03 3.08104493e-02
      4.46097516e-02 1.90437865e-02 -1.87476799e-02 9.43630352e-04
      3.50968889e-03 -7.31426012e-03 -5.16336896e-02 2.56213900e-02 0.
      0. 1.36969527e-02 1.78204989e-03 3.20523269e-02 -1.11522935e-02
      6.74203485e-02 1.77500732e-02 7.82543886e-03 3.65226492e-02
      4.45859134e-03 3.17009389e-02 0. 0. 6.84847636e-03 -4.78436276e-02
      -5.70885949e-02 -9.41981822e-02 -1.05198957e-01 4.04024012e-02
      6.29675910e-02 1.20478109e-01 3.05289533e-02 1.78060792e-02 0. 0.
      -1.03922067e-02 -6.65090755e-02 -4.56220694e-02 -6.05212525e-02
      -3.56104188e-02 5.94695993e-02 -3.70452739e-02 -5.96922971e-02
      -2.98026055e-02 -1.06452376e-01 0. 0. -2.18195710e-02
      -1.26809731e-01 -4.90135420e-03 2.89035197e-02 6.75494038e-03
      7.91091174e-02 5.27703427e-02 -1.31843448e-01 -7.01119900e-02
      -7.85375759e-02 0. 9.99999978e-03 -2.22090688e-02 -4.55729254e-02
      1.10761710e-02 -3.07569909e-03 2.09706295e-02 -2.75728051e-02
      3.59418616e-02 -5.17589003e-02 -9.25698355e-02 -8.14937055e-02 0.
      0. 3.92619558e-02 -7.97340423e-02 3.02686561e-02 6.49192035e-02
      7.20928609e-02 -1.91606842e-02 -7.62762362e-03 4.43731137e-02
      -9.52384025e-02 -2.10503284e-02 0. 0. 8.75751581e-03
      -3.57544497e-02 -2.03146711e-02 -9.85534117e-03 -3.92678306e-02
      1.95118673e-02 4.89389151e-02 1.26078203e-02 -1.28612772e-01
      -1.03922067e-02 0. 0. 1.57250464e-02 1.16378646e-02
      -8.92852992e-02 -6.18085898e-02 2.28178073e-02 -3.44519615e-02
      -1.49492417e-02 -2.01011319e-02 -8.09494108e-02 0. 0.
      2.96560861e-02 4.96919304e-02 -1.95697928e-03 -1.26737515e-02
      2.35978537e-03 -1.27380714e-02 3.72823924e-02 -1.48182530e-02
      -5.84731661e-02 -3.27698626e-02 0. 0. 1.39494874e-02
      -2.23778915e-02 4.80891988e-02 -1.45606231e-02 4.36953381e-02
      3.29769142e-02 3.49721462e-02 1.84876584e-02 -9.85050425e-02
      -1.03922067e-02 0. 0. 1.37020706e-03 1.47604616e-02
      -5.35579994e-02 -7.88968801e-02 -4.70233662e-03 1.00509405e-01
      8.21606740e-02 -3.57687958e-02 -5.17330319e-02 0. 0. 0.
      -2.32464094e-02 -3.37794311e-02 3.29676345e-02 2.91118398e-02
      2.11112667e-02 -5.53396083e-02 4.32928512e-03 -3.69857103e-02
      -2.03922074e-02 0. 0. 0. 0. 1.01083545e-02 5.19926772e-02
      3.65024917e-02 2.14141980e-02 1.29664810e-02 -2.91493181e-02
      3.69695271e-03 1.36969527e-02 1.36969527e-02 6.84847636e-03 0. 0.
      0. 0. 0. 0. -1.46557752e-03 0. 0. 0. 6.84847636e-03 1.36969527e-02
      0.</_>
    <_>
      0. 0. 0. 0. 0. 0. 0. 0. 0. 0. 0. 0. 0. 0. -8.50527827e-03
      -3.87362987e-02 -6.91516027e-02 -4.73458394e-02 -5.94296865e-02
      1.88813396e-02 5.19740246e-02 3.95990871e-02 0. 0. 0. 0.
      -2.29470674e-02 -4.26085964e-02 -5.84105700e-02 -5.45907691e-02
      -9.39134602e-03 2.63452288e-02 4.57327291e-02 1.00301571e-01
      3.21739912e-02 0. 0. 0. -2.64692307e-02 -2.37011295e-02
      6.08347543e-03 1.90529674e-02 3.25739011e-02 4.08034883e-02
      -2.10678466e-02 -1.39619280e-02 6.21540062e-02 0. 0. 0.
      -5.98424487e-03 -2.20799935e-03 2.58979872e-02 -3.51185910e-03
      4.86270264e-02 -3.14055686e-03 -4.72834148e-03 -1.91411693e-02
      -1.45465527e-02 0. 0. 0. 7.34433299e-03 7.73475319e-02
      1.52200451e-02 -1.15246773e-02 -1.55393500e-02 2.14001094e-03
      2.09894590e-03 1.23408185e-02 -3.78166488e-03 0. 0.
      -1.93821639e-03 1.19333761e-02 6.40132502e-02 9.86517295e-02
      6.06561750e-02 3.37652378e-02 1.80744529e-02 7.77674420e-03
      -6.04834482e-02 -3.86235677e-02 0. 0. -3.52065973e-02
      5.73777854e-02 5.81864119e-02 7.98942223e-02 5.05481008e-03
      4.06870060e-03 -2.22993251e-02 -1.07209034e-01 -8.87830332e-02
      -2.13172697e-02 0. 0. 5.96952587e-02 4.03022878e-02 3.87508236e-02
      4.88825468e-03 -2.29825806e-02 -5.49974218e-02 -2.17248984e-02
      -3.73825282e-02 -1.37185035e-02 0. 0. 0. 5.94334751e-02
      2.34747343e-02 1.83055215e-02 -3.60894622e-03 3.85906324e-02
      3.27765122e-02 9.51289490e-04 -9.57277045e-03 4.08163555e-02 0. 0.
      0. 5.98626509e-02 4.29809807e-05 6.04541320e-03 -1.90819837e-02
      3.33911031e-02 -3.58484429e-03 -3.55487987e-02 5.11956401e-02
      5.52909561e-02 0. 0. 0. 4.81673218e-02 9.10350587e-03
      1.75945868e-04 -4.80829924e-02 -1.33879343e-02 2.38344558e-02
      -1.28569910e-02 8.91703889e-02 1.74038913e-02 0. 0. 0.
      5.74791618e-02 -2.05272865e-02 2.57437415e-02 1.31678833e-02
      -4.31376649e-03 1.47157507e-02 2.49455106e-02 6.83691427e-02
      5.86503278e-03 0. 0. 0. 1.82185359e-02 -1.90238152e-02
      2.39235461e-02 -3.93348339e-04 2.48476975e-02 2.10360102e-02
      6.78969845e-02 4.40027788e-02 0. 0. 0. -2.29470674e-02
      -3.41543220e-02 3.69446650e-02 -2.85505112e-02 5.19834366e-03
      -1.72845870e-02 4.31152396e-02 8.06932449e-02 0. 0. 0. 0.
      -3.09627764e-02 -3.72414477e-02 -4.64325920e-02 -3.27965878e-02
      2.17923503e-02 8.59388784e-02 7.52763376e-02 1.55329630e-02 0. 0.
      0. 0. 0. -1.96080785e-02 -5.12175523e-02 -2.37463769e-02
      -8.11875239e-03 1.29270246e-02 1.29368538e-02 0. 0. 0. 0. 0. 0.
      -2.52641947e-03 0. -5.05283894e-03 0. 0. 0. 0. 0. 0. 0. 0.</_>
    <_>
      0. 0. 0. 0. 0. 0. 0. 0. 0. 0. 0. 0. 0. 0. 0. 0. 0. -7.05081644e-03
      -2.45981272e-02 -8.29778016e-02 -3.71124707e-02 1.10902205e-01 0.
      0. 0. 0. 0. 0. -6.18730672e-04 -4.44357544e-02 -7.15890573e-03
      -6.13753404e-03 -3.09271868e-02 6.95917159e-02 7.55828619e-02 0.
      0. 0. 0. 9.89469513e-03 -1.30381901e-02 3.40406112e-02
      4.64698039e-02 1.21043757e-01 -1.32341748e-02 3.60771604e-02
      3.23278084e-02 -1.01202307e-02 0. 0. 0. 2.98906788e-02
      2.56512091e-02 5.53595275e-02 -2.32721362e-02 -6.59605861e-02
      -6.75626379e-03 7.06107318e-02 -1.30918501e-02 -9.99999978e-03 0.
      0. 9.99999978e-03 7.78853223e-02 -8.98068887e-04 2.57896390e-02
      -3.07016429e-02 7.17045590e-02 4.05738726e-02 3.34045477e-02
      2.63375090e-03 0. 0. 1.02703333e-01 7.36173242e-02 4.02075537e-02
      7.75742009e-02 6.27303794e-02 3.24775577e-02 6.91111386e-02
      1.21306824e-02 -6.82038814e-03 -6.54397979e-02 0. 0.
      1.58978067e-02 1.64785609e-01 3.34889628e-02 4.34569344e-02
      -6.51265904e-02 -1.65902283e-02 -3.99153084e-02 -7.01319054e-02
      -2.06062347e-01 -9.93463099e-02 0. 0. -6.01291144e-03
      9.77469757e-02 7.52706975e-02 8.47297022e-04 -2.56480537e-02
      -1.38069093e-01 -4.18496365e-03 -5.38441166e-03 -1.06722757e-01
      -9.99999978e-03 0. 0. 1.14273645e-01 2.33562235e-02 1.77532807e-02
      2.50706319e-02 7.62618482e-02 -3.59512167e-03 -4.82093915e-02
      2.41701715e-02 7.93752968e-02 0. 0. 0. 7.91315362e-02
      -5.19373976e-02 7.02105463e-02 5.07918326e-03 5.27134314e-02
      1.02310283e-02 -7.05991983e-02 4.04362231e-02 1.35365605e-01 0. 0.
      0. 2.04613954e-02 -5.02087586e-02 3.26085947e-02 -8.29426870e-02
      -8.87512714e-02 -6.07903302e-02 -5.69109293e-03 9.33365822e-02
      4.49781530e-02 0. 0. -1.05304513e-04 -2.34717329e-04
      -1.97717845e-02 -7.90984742e-03 -1.54048083e-02 -1.77170169e-02
      -4.58587368e-04 3.86543758e-02 8.84418562e-02 5.43138711e-03 0. 0.
      -9.52981785e-03 -1.98380221e-02 1.44533822e-02 -4.69246320e-02
      -2.40418538e-02 -1.02616847e-02 3.44029837e-03 9.18398798e-03
      1.00671276e-01 0. 0. 0. -9.52981785e-03 -8.04878324e-02
      1.11366890e-01 6.95645902e-03 -3.44892666e-02 -7.61556923e-02
      -2.38115545e-02 3.37884650e-02 0. 0. 0. 0. -1.05304513e-04
      -6.03889115e-02 -9.57452431e-02 2.97631929e-03 3.21096145e-02
      4.70354483e-02 -3.18682157e-02 -6.47799224e-02 0. 0. 0.
      -1.81874027e-03 0. -6.10611960e-03 -6.19188584e-02 -5.72578236e-02
      -2.20948681e-02 -6.04384094e-02 1.86256673e-02 0. 0. 0. 0. 0. 0.
      0. 0. 0. 0. 0. 0. 0. 0. 0. 0. 0.</_>
    <_>
      0. 0. 0. 0. 0. 0. 0. 0. 0. 0. 0. 0. 0. 0. 0. 0. 0. 4.81955474e-03
      -1.99302245e-04 -5.46514802e-02 4.75660972e-02 6.55272231e-02 0.
      0. 0. 0. 0. 0. -3.16137783e-02 -6.33014143e-02 -7.45936483e-02
      -1.94836836e-02 -8.96302052e-03 9.64047462e-02 8.14555958e-02 0.
      0. 0. -1.99999996e-02 -1.62269454e-02 -3.13889794e-02
      1.22324806e-02 4.52414416e-02 2.46885736e-02 -5.22428900e-02
      -3.20180915e-02 -7.97304325e-03 0. 0. 0. -2.45454479e-02
      -1.66763365e-02 3.07982019e-03 -7.17820134e-04 1.15914959e-02
      -4.15190794e-02 3.62570509e-02 5.42019233e-02 1.41883213e-02 0. 0.
      0. -2.30606552e-02 -1.87967699e-02 -5.81386266e-03 -5.91824278e-02
      -5.59420930e-03 6.33140132e-02 7.44878948e-02 3.27453762e-02
      2.21232697e-02 0. 0. 7.24308565e-02 6.25674892e-03 -3.96481268e-02
      3.67202759e-02 7.35624656e-02 9.80874822e-02 7.73795098e-02
      1.24788759e-02 -2.78508961e-02 -6.72195405e-02 0. 0.
      3.98358926e-02 3.05407569e-02 -2.97260825e-02 8.07728767e-02
      1.93358539e-03 6.54259175e-02 5.38112298e-02 -7.90374950e-02
      -8.25909972e-02 -1.05518155e-01 0. 0. 1.42259384e-03
      1.76240057e-02 -6.15042634e-03 4.84902002e-02 1.38383107e-02
      -5.04294038e-02 7.00607821e-02 1.99139398e-02 -1.45677075e-01
      -7.53415376e-02 0. 0. 7.69045949e-02 -1.03271334e-02
      -1.12826750e-02 6.51103631e-02 1.21895447e-01 1.22286081e-02
      2.23467918e-03 5.18372990e-02 -1.89260822e-02 -5.15621081e-02 0.
      0. 7.90283009e-02 -2.74103112e-03 -2.26645004e-02 3.93515639e-03
      -3.50570004e-03 3.27963419e-02 -4.26583998e-02 1.89431999e-02
      -3.12535353e-02 -2.50002835e-02 0. 0. 8.04530904e-02
      1.01283425e-02 4.23766635e-02 -2.98790727e-02 -6.76779822e-02
      -1.93266775e-02 -8.10714886e-02 3.59560885e-02 -6.93957806e-02 0.
      0. -9.99999978e-03 2.45007388e-02 -6.16806783e-02 5.12545556e-02
      -2.95049455e-02 1.46395440e-04 1.03278849e-02 -1.76419374e-02
      1.55744301e-02 -6.96744351e-03 0. 0. -2.03986038e-02
      -6.43331781e-02 -6.39277175e-02 -7.95023069e-02 8.90176836e-03
      4.14495543e-02 -5.08733205e-02 3.24796028e-02 -7.01696938e-03
      -2.25001406e-02 0. 0. -1.01993019e-02 -1.15324236e-01
      -3.30531783e-02 -6.86585456e-02 -1.78617239e-02 -1.15351025e-02
      4.09088135e-02 -4.86818366e-02 -9.12079290e-02 0. 0. 0.
      -2.01993026e-02 -1.03081167e-01 -1.18144691e-01 -1.12032788e-02
      1.55494958e-02 -2.54937876e-02 -3.60210948e-02 -4.45464216e-02
      -4.25001420e-02 0. 0. 0. 0. 0. -1.78446490e-02 -5.28584048e-02
      1.58480760e-02 9.45293810e-03 -3.72630134e-02 -9.99999978e-03 0.
      0. 0. 0. 0. 0. 0. 0. 0. 0. 0. 0. 0. 0. 0. 0.</_>
    <_>
      0. 0. 0. 9.63482447e-03 1.92696489e-02 0. 0. 0. 0. 0. 0. 0. 0. 0.
      3.12789977e-02 8.18431899e-02 1.07747763e-01 1.50212869e-01
      1.53429694e-02 -8.65150541e-02 -9.29215774e-02 0. 0. 0. 0. 0.
      5.04869707e-02 1.08314447e-01 8.85886103e-02 1.14096761e-01
      4.15076278e-02 -3.08238361e-02 -1.25924021e-01 -7.87320063e-02
      -8.01875349e-03 0. 0. 0. 6.90222904e-02 9.01655033e-02
      -2.99554374e-02 -7.66285956e-02 -2.63339318e-02 3.74175496e-02
      5.62606901e-02 3.53345573e-02 -1.08900003e-01 -9.99999978e-03 0.
      0. 4.21642847e-02 7.76733384e-02 -3.72365750e-02 1.21553577e-02
      -8.30311328e-02 -5.24938479e-02 -2.62670871e-02 6.29686415e-02
      1.14782108e-03 0. 0. 0. 0. -4.77990024e-02 3.75695131e-03
      7.72342831e-02 4.55102324e-02 -1.69974063e-02 1.01598473e-02
      3.00712287e-02 1.86731573e-02 0. 0. 7.62357041e-02 1.56723633e-02
      -4.60334979e-02 -1.12256564e-01 -1.99889578e-02 -6.71526566e-02
      1.37265157e-02 1.26733026e-02 8.44488665e-02 2.77688988e-02 0.
      -1.36589454e-02 8.33601728e-02 2.56723631e-02 -5.54830804e-02
      -8.19345713e-02 -2.25375267e-03 1.57555286e-02 9.55069158e-03
      8.82970095e-02 -1.58318901e-03 -7.41891637e-02 0. 0.
      -8.90460163e-02 2.99999993e-02 -4.46861573e-02 -7.51294047e-02
      1.00450804e-02 3.03925877e-03 2.86647095e-03 1.84398890e-02
      -8.17695931e-02 -3.80910328e-03 0. 0. -1.67029966e-02
      -5.92374466e-02 -9.46793631e-02 8.71636998e-03 -6.43951818e-02
      -3.25581841e-02 -6.82293251e-03 4.87388223e-02 7.76383979e-03 0.
      0. 0. -9.99999978e-03 -1.22530960e-01 3.04660983e-02
      3.94211486e-02 -3.50926705e-02 -5.45228657e-04 1.35225449e-02
      -6.04719855e-03 0. 0. 0. 0. -8.55361447e-02 -8.26346409e-03
      8.93853512e-03 7.44135911e-03 -6.47831336e-02 -4.10575494e-02
      -5.57479262e-03 -5.18166944e-02 0. 0. 9.99999978e-03
      -3.19173676e-03 -1.06863551e-01 1.93400756e-02 -2.60923803e-02
      -1.97318848e-02 -5.15217753e-03 2.44121570e-02 -2.15393845e-02
      -2.53419951e-02 0. 0. 9.99999978e-03 -3.19173676e-03
      -3.50013040e-02 1.19079329e-01 -3.81628163e-02 1.56792253e-02
      -2.15613339e-02 -6.25821203e-02 -7.36196935e-02 -1.99999996e-02 0.
      0. 0. 4.72952314e-02 -1.30988406e-02 4.13193032e-02 1.58896577e-02
      -7.18698232e-03 1.34973936e-02 -1.00946814e-01 -7.03373700e-02 0.
      0. 0. 0. 4.67166305e-02 3.85071710e-03 -4.81209755e-02
      7.30159059e-02 3.75872664e-02 -7.07144886e-02 -1.93828955e-01
      -9.76201370e-02 0. 0. 0. 0. 9.99999978e-03 3.72585319e-02
      5.47677018e-02 1.26626231e-02 -1.62270088e-02 -8.39743465e-02
      -1.36826402e-02 0. 0. 0. 0. 0. 0. 0. 9.99999978e-03 0. 0. 0. 0. 0.
      0. 0. 0. 0.</_>
    <_>
      0. 0. 0. 0. 0. 0. 0. 0. 0. 0. 0. 0. 0. 0. 1.28015839e-02
      6.32815734e-02 9.27892551e-02 6.38649613e-02 4.84602004e-02
      -2.93506067e-02 -1.73382144e-02 0. 0. 0. 0. 0. 3.00312024e-02
      5.91800399e-02 3.12727652e-02 4.11448963e-02 -3.31111439e-02
      -1.36929750e-02 -5.65395281e-02 -3.42253558e-02 -1.99999996e-02 0.
      0. 0. 2.99446899e-02 2.70337984e-02 -2.51122210e-02
      -3.30027826e-02 -3.19760442e-02 3.59528000e-03 4.48915958e-02
      1.81213655e-02 -8.45970362e-02 0. 0. 0. 4.59769089e-03
      2.47609634e-02 -4.41135578e-02 -4.35127057e-02 -3.47124450e-02
      -4.20742705e-02 1.33907655e-03 6.96451664e-02 6.78762188e-03 0. 0.
      0. -4.13676612e-02 -1.23940505e-01 -2.73087118e-02 -5.09366207e-03
      4.51796800e-02 -2.74332687e-02 3.81794758e-02 -9.94752534e-03
      2.93192193e-02 0. 0. 3.30125205e-02 -4.96826805e-02
      -1.03003874e-01 -9.42221656e-02 -1.40359057e-02 1.23588881e-02
      2.27596369e-02 8.13010987e-03 6.72212988e-02 2.95300055e-02 0. 0.
      6.09423704e-02 -7.25875199e-02 -7.23985136e-02 -3.35371941e-02
      1.75463222e-02 3.90987061e-02 4.51355726e-02 6.20929711e-02
      4.60625812e-02 -2.52032652e-02 0. 0. -6.06611408e-02
      -3.06995288e-02 -1.46228289e-02 4.48785573e-02 8.15751553e-02
      2.97708735e-02 2.51858514e-02 4.24722470e-02 -6.59877509e-02
      -6.07141927e-02 0. 0. -1.99999996e-02 -5.51593602e-02
      -2.00986303e-02 2.13291682e-02 2.77946629e-02 8.85860063e-03
      2.57448549e-03 2.61456929e-02 -4.25645001e-02 -9.62487422e-03 0.
      0. 0. -5.42330695e-03 -3.53012513e-03 3.12587246e-02
      -4.38787639e-02 1.11959111e-02 1.29012326e-02 -1.64543446e-02
      -8.51303786e-02 -3.78863607e-03 0. 0. 1.79487392e-02
      2.81841438e-02 1.21334130e-02 1.37649123e-02 -3.89861427e-02
      -3.39520834e-02 -5.07455543e-02 -6.79524317e-02 -6.55849949e-02 0.
      9.99999978e-03 -9.99999978e-03 -3.84994820e-02 -2.08916888e-02
      3.66253667e-02 -3.03554218e-02 6.18757261e-03 -5.99839585e-03
      -3.77133116e-02 -9.81117487e-02 -3.37886363e-02 0. 9.99999978e-03
      -1.99999996e-02 -4.01493721e-02 -3.46576300e-04 -7.26942793e-02
      2.93209534e-02 -6.24894537e-03 -1.59789864e-02 -6.16025105e-02
      -8.48275051e-02 -3.78863607e-03 0. 0. 2.53273975e-02
      -1.80360731e-02 -7.11173192e-02 -2.92129666e-02 1.10441155e-03
      2.21593939e-02 -3.92445810e-02 -9.44045633e-02 -4.73495349e-02 0.
      0. 0. 2.99066529e-02 -1.58413649e-02 -3.41485851e-02
      1.41299441e-02 -3.93735245e-03 -6.50704354e-02 -9.62404385e-02
      -7.53047839e-02 -2.37886366e-02 0. 0. 0. 0. 2.83411648e-02
      4.06628922e-02 -5.66187687e-03 3.55633162e-02 -1.51871098e-02
      -2.38877330e-02 -1.51329814e-03 0. 0. 0. 0. 0. 0. 6.16888655e-03
      0. 0. 0. 0. -2.36796564e-03 0. 0. 0. 0.</_>
    <_>
      0. 0. 0. 0. 0. 0. 0. 0. 0. 0. 0. 0. 0. 0. 0. 0. 0. 1.85167193e-02
      4.00736816e-02 4.39445674e-02 4.27431278e-02 6.76295860e-03 0. 0.
      0. 0. 0. 0. -4.73934449e-02 -3.12028900e-02 -6.92609847e-02
      1.59426741e-02 1.35103159e-03 5.85629717e-02 -9.87841468e-03 0. 0.
      0. -1.99999996e-02 -2.89772917e-02 -7.77962850e-03 -4.01468538e-02
      -5.27160726e-02 -6.04761355e-02 -4.60497104e-02 -9.87944473e-03
      6.91453591e-02 1.53515423e-02 0. 0. -2.64828317e-02
      -4.71733883e-02 -4.21263315e-02 -4.49891239e-02 -4.02191607e-03
      -1.01080164e-02 4.06010225e-02 -3.15440521e-02 6.45228429e-03
      9.99999978e-03 0. 0. -6.19957075e-02 -1.45986065e-01
      -3.83182848e-03 -8.06368440e-02 1.80003811e-02 9.88680217e-03
      4.32983488e-02 -1.64670777e-02 5.15788840e-03 0. 0.
      -1.23082958e-02 -8.09729993e-02 -6.85072541e-02 -5.77910468e-02
      -1.90498363e-02 9.43152085e-02 5.81854023e-02 2.55601779e-02
      5.56301735e-02 4.89995582e-03 0. 1.90837737e-02 1.95221119e-02
      -1.28949046e-01 -5.81163242e-02 1.33533459e-02 8.16847607e-02
      4.17764857e-02 1.03631549e-01 -3.14529403e-03 6.31644130e-02
      -2.25834399e-02 0. 0. 8.62245169e-03 -1.20522603e-01
      -3.71695049e-02 9.42116752e-02 7.60318488e-02 6.24609850e-02
      4.81751449e-02 6.43178001e-02 -3.58406007e-02 -1.36516348e-01 0.
